{
  "biases": [
    [
      -0.24354854662701964,
      -0.7777033265512823,
      0.08890295897479605,
      0.7477239963318288,
      1.3836847017674936,
      0.5499213125529705,
      0.1693674855266203,
      0.5602931142770877,
      1.31674347060902,
      -0.45165376747001107,
      -0.727678625478543,
      1.121052122467212,
      -0.2659228965040149,
      0.3688280180599215,
      -0.8491289044560884
    ],
    [
      2.1332292802335826,
      -1.0138320033572712,
      -1.23066461729447,
      -1.0935155550156375,
      -1.1474013494487068,
      0.24364070784383096,
      1.5991425179999794,
      -1.0605475673114766
    ],
    [
      -1.0938441482735903
    ]
  ],
  "weights": [
    [
      1.32509790938161,
      0.8859716426213932,
      -1.5696975042980572,
      -0.5756527016614588,
      -0.7758344031526627,
      0.5004280293069139,
      0.2763454512109928,
      2.614643324108594,
      -0.9766861534126663,
      0.4599398951320184,
      0.9455048452076762,
      1.3929033851174277,
      1.8202488064481703,
      -2.433206510660303,
      0.1060887537105204,
      0.13687281166025955,
      0.9134609404390536,
      -0.5396597740403436,
      0.26846247779732085,
      0.5983943811714196,
      -0.1255074116335767,
      -0.08529128936972119,
      -2.4057718507637804,
      1.0445080422421926,
      -1.0660343426617536,
      0.7473754454880854,
      1.0380951211140483,
      -0.1786067444132934,
      -0.49178933535724384,
      0.7030658414120816,
      1.5063792299530447,
      -0.12951229838572687,
      1.1094405900855284,
      -0.811447068263017,
      -0.09962380300294088,
      0.7672678398135302,
      0.9708927467740758,
      -0.09759254773955128,
      0.08318812869077119,
      0.47912048842781996,
      0.6266052025919455,
      -0.5897128339465085,
      -0.017125819323423386,
      0.20154004758255373,
      0.2558290610467455,
      -1.0388164940260978,
      0.0919693355749085,
      0.7239241009882685,
      0.4158610122930426,
      -0.29166353989895155,
      -2.8877418973852307,
      -2.4059176483315525,
      -1.1416087679364357,
      0.6343682753330747,
      -0.028954418733688064,
      -0.25382899885953436,
      -0.643405170991012,
      0.24417914107599054,
      -0.740710663662255,
      0.6340866341873963,
      1.5225113596000448,
      -0.25420205076166535,
      -0.5607111993541083,
      0.27241471472555945,
      1.627453792825354,
      0.8786214771686801,
      0.5117260888663608,
      -0.4048501655318386,
      1.3599286106171509,
      -0.6373366570254335,
      2.2591942668727394,
      1.4042664823267894,
      1.4887100023020277,
      0.010800286447921609,
      0.09411507741811509,
      1.0111214640711026,
      -0.19335815714599247,
      0.19064176214698103,
      0.03175471571402444,
      0.26336590003213556,
      0.03399874514457224,
      -1.5859883709576694,
      1.359389563048957,
      -1.266591891014299,
      1.5606679555489074,
      0.5922162376581737,
      0.47308869646619717,
      0.7557508424375055,
      1.0493781125110804,
      1.357566411582467,
      1.0543194845990467,
      0.4958297862757755,
      0.5323189694642367,
      -0.8606585282709565,
      0.20565621781482057,
      1.4882462283409215,
      0.8484476542449876,
      -1.440372726823245,
      -1.5837910995909432,
      -0.2561935983437913,
      -0.5978153278053618,
      1.3734435599463546,
      0.2644985278425155,
      -0.4752991521912351,
      1.3149460015943455,
      1.2928260773229592,
      1.0887020519434052,
      1.5653299220092498,
      -0.5069737463176672,
      -1.5617279129666497,
      0.015668341113759254,
      -1.1091927287154775,
      0.4067698350060836,
      1.6961661093757001,
      -0.41606268437087507,
      0.10132543114437464,
      -0.23880625092539853,
      -0.05751843773349685,
      -0.8738598401351605,
      1.1159009621121565,
      0.01162136012552073,
      1.4883624412853491,
      -1.0970913132868152,
      -0.9873273150357353,
      -0.9006655237572394,
      2.4645183004889897,
      0.11075735343690352,
      -0.8652203118846744,
      0.04491685828646508,
      0.4594664900828642,
      0.5084878413506133,
      0.17086582216497703,
      -0.15130671079117003,
      0.6207979137739903,
      0.9568047189021422,
      0.2862268875144123,
      2.7255931758298275,
      0.23458021623703562,
      -0.3381128139378875,
      -2.2859127704403774,
      0.943280679182732,
      -0.9625249368213407,
      -0.793390402974848,
      -0.2711532466504615,
      0.30137248545827305,
      -0.9010333092423769,
      -0.36023812603178396,
      3.057396359471227,
      -0.3221001686330132,
      -0.27789162654235355,
      -1.259904463938751,
      -1.173852428284639,
      2.5902867191818126,
      -0.5601570804053473,
      0.35226460715379015,
      -1.2771880010209475,
      0.2775635502981491,
      -0.413918812639656,
      0.1987658507878857,
      0.10716052135262966,
      -0.5905243194277512,
      0.39537983288974066,
      0.7663213860248774,
      0.3564987562597649,
      -0.11620467074612528,
      0.22774851636606813,
      -0.6726400228442276,
      1.1806080125679579,
      0.6700925894586992,
      1.7161108954034603,
      -0.40791749896822493,
      0.20281094967526075,
      -0.5440785239974719,
      0.2674722746064351,
      -1.0648194153376387,
      -0.008468156330441623,
      -1.5493179884894726,
      -1.8929713212856143,
      -1.8634800372512519,
      0.7783011384314773,
      -0.8046737504325189,
      -0.6973654471023544,
      -2.623994559811731,
      -0.661719989490394,
      -0.8891168449580034,
      -0.7238858434858514,
      1.14630835391899,
      0.24300958059686906,
      0.2855008754813113,
      1.20395503948279,
      0.3859539225244571,
      0.16411744879608892,
      0.4327045416474813,
      0.41926502710236124,
      3.294142887664634,
      0.09413803331894821,
      0.5404197315022029,
      1.2285654683786127,
      -0.1010959300154528,
      -2.594279697789343,
      0.5842050183509668,
      0.3862405702003754,
      -1.3988336638795031,
      0.02289216718240361,
      0.7622968719408791,
      1.5468269517535145,
      0.022326126076524316,
      -0.811760195465461,
      0.39482401652364985,
      -1.4656613362551374,
      1.304173286290097,
      0.8179435158476817,
      0.7305724028476368,
      -1.0531229852385569,
      -0.6058793483972502,
      -0.4875011221150416,
      -0.4227877590305382,
      0.5813751095730063,
      -4.549900910017502,
      -1.6815175831453837,
      -1.1867492092406096,
      -0.9453994568493842,
      -1.1007856842062662,
      -0.22260543560371604,
      0.9529909615553276,
      0.3381387618524424,
      0.10509261919072999,
      0.14734391417363948,
      0.5316979853141923,
      -1.1193900755123067,
      0.03733105501507622,
      -0.6077974718723622,
      0.6812745193825696,
      0.4935550345843833,
      -0.21314366486339154,
      0.8214181253970387,
      0.3288292927503116,
      -0.47788664995374386,
      -0.7301946350440864,
      0.6037000163682515,
      -0.8047047907266807,
      1.5369744415857776,
      -2.364255656496848,
      -1.644971882789212,
      0.8217640250097417,
      -1.6161478172263803,
      -0.270312721989584,
      -0.48426206074134753,
      -0.05736334716836522,
      -1.8676609994088733,
      1.175079506764585,
      1.7390575050745678,
      -1.0672271133554219,
      -0.8820478713966926,
      1.3391339326296665,
      -0.26113235657436706,
      0.6228640524883561,
      0.2482520288920692,
      0.15199340475473078,
      -1.4603973095739615,
      -0.37207553490849377,
      -0.45777009002207214,
      0.23362024280332908,
      -1.7082675550759163,
      0.28959638820787065,
      2.424309714269725,
      -0.2516862488901628,
      1.2414859604301791,
      -0.4345656673801204,
      -0.4271716484174761,
      -0.202603956181832,
      -0.22009544767336325,
      0.6177338304574687,
      -0.13210399095218184,
      1.315677131065265,
      1.9709398146359012,
      -0.8623745388365479,
      -0.04913278759707396,
      -1.2551744645515632,
      1.3726749148318862,
      -0.9307241391717953,
      0.9994937676582125,
      -0.6431949175331018,
      -0.05178010171957126,
      -1.1068824401061972,
      0.4805679421671768,
      0.6445492775089273,
      0.04523787359773504,
      0.13818800101854656,
      -1.6177373220627143,
      -0.512804711625263,
      0.46123381004409747,
      -0.05203568904308642,
      -0.5210610361459959,
      0.39605464768230847,
      -1.234744645054406,
      0.1792254525143716,
      -0.5549092431994986,
      -1.424572548791721,
      0.919195501737402,
      -0.3212862434900863,
      -0.9639834280115069,
      -0.3438246429700322,
      -0.24432965262393402,
      0.5117762031349465,
      -0.4604319508160095,
      0.2768220806564655,
      -0.4792586440798047,
      0.07784135036064144,
      -0.3246784430829375,
      0.9348312217886584,
      -1.1848583748631,
      -0.5664613404560775,
      -0.6238982679627112,
      0.14482108491136625,
      1.26272995219125,
      2.4473016051688923,
      -1.3298660356322092,
      -2.348647320934978,
      0.9628674155353117,
      -0.7201003699128297,
      0.7767643641021078,
      -1.6297425127171126,
      0.8465204295460846,
      -0.041168019207180884,
      0.7656258315356621,
      -0.9242429417238229,
      1.161352503004484,
      -1.1679868332334613,
      -1.5125086823429963,
      0.19871304218033353,
      1.3451945783961934,
      0.5020597067649528,
      0.8807767264305753,
      -1.348000687956663,
      0.5085181113441886,
      -0.22203607985710538,
      0.04897180905423221,
      0.5138747082401018,
      -1.1992551866430645,
      0.9023731434294312,
      -1.2528707556663798,
      -0.4709224001714962,
      1.2845818857124147,
      0.2622084886582967,
      -1.7264273201481717,
      0.08517156294554651,
      -0.6770653215746938,
      0.47312259839415927,
      0.6229228142772013,
      -0.22849572870324764,
      0.6911619412602815,
      -0.7891933131103616,
      -0.09614860915004642,
      1.7419169293596568,
      0.7396323996197338,
      1.3123387779566686,
      -1.2972748658848605,
      0.837473888668518,
      1.420013390682409,
      0.6939600184661616,
      -1.3831814912401201,
      -0.22651530176243045,
      0.24234686919921633,
      0.8755452694550308,
      0.3141451134815946,
      0.942733411349652,
      -1.0913306855407883,
      2.646587388026063,
      1.3301943941060252,
      -0.03718285608281746,
      0.15280129731428665,
      0.019768178819221993,
      -0.3645804066366355,
      -0.6392849128550742,
      1.034613047378126,
      0.1311398963504552,
      0.18546493065501624,
      -0.2228790660622112,
      1.866182881367522,
      0.6563719072858737,
      -0.7855391094605487,
      1.6630609411454285,
      -0.6838669437315947,
      -0.7566332767021255,
      1.0121343655582216,
      -1.7164510007379907,
      -0.9523009919676249,
      -0.10964351347695384,
      -0.6181874587570944,
      -0.00668429129936654,
      -0.3304304939388064,
      -0.5973335343520467,
      -0.5979406741063045,
      0.28489083224305933,
      0.19662782294234027,
      0.44736651518444226,
      0.45508892113218613,
      0.34675830868301116,
      0.2613111203927211,
      -1.0336346248444597,
      -0.9175447104466785,
      0.7022816564269054,
      1.897315847141698,
      -1.2835804451673594,
      -0.6669039897179722,
      -0.8079637561637182,
      -0.6774558264446168,
      0.241908818941155,
      1.0192702765393578,
      -0.02772303527838038,
      -0.4431021947690389,
      -0.9461066758200459,
      -0.3092847757108261,
      0.3172790051963299,
      -1.2527193825492855,
      -0.9305906629424143,
      0.3617300143979847,
      -0.27694564921980525,
      0.5871693727998073,
      1.1926845001683803,
      1.784718797327978,
      -0.766172698889316,
      0.48339476740219534,
      -0.7785883013160175,
      0.20049821836226256,
      -1.518897001551669,
      -1.2261273133504336,
      0.8096980605787938,
      0.33966601923111894,
      -1.5007611624187551,
      1.8329575904835416,
      0.44832168983790166,
      0.11610066842551864,
      -0.02180047557450121,
      0.21963011059407886,
      -0.43385560373974974,
      -1.4450778096827475,
      0.3992932740007388,
      -0.5987883654662696,
      -0.578037736330965,
      -0.4795834083020908,
      -0.13810229822762932,
      0.6759207698068632,
      -1.9539323381954699,
      -0.5908053088810372,
      -0.9724255335400116,
      0.08910396488399142,
      -0.4693525290538082,
      -0.241665280531706,
      0.6404832167790391,
      0.4705751460119537,
      -0.5400606436813504,
      0.48023409496820574,
      -3.4261736349202465,
      1.383169801139736,
      -0.4789050697529028,
      -0.8944491351216355,
      0.005045149897550949,
      -0.4241815218905488,
      -1.0140804060580513,
      -0.719700398102312,
      0.3849739130964319,
      0.8699760079209471,
      -0.9082090655318864,
      0.9184907955172232,
      0.2519368671154213,
      -0.2525241875060137,
      1.301570752868502,
      2.3177534439522356,
      -2.920637788329937,
      0.6398826076381129,
      0.7689707304602829,
      1.043434000566416,
      -1.8096840507011787,
      -1.1054864901085177,
      -0.34684479928232137,
      0.08240080401295358,
      0.44966665615292556,
      -0.4444764170623306,
      0.9990343187637167,
      0.6432944586721412,
      -0.5583967806522908,
      -1.135871189754437,
      -1.6154776700320166,
      0.641050053200028,
      -1.8249905613590307,
      0.015429413589753,
      0.929440348202685,
      0.6807034627869675,
      -0.1151141167975619,
      0.09198366515176762,
      -0.2851064383741838,
      0.622239218981763,
      -1.0272001495967311,
      -0.4231506201859716,
      -0.34427606615077955,
      1.3203434267358043,
      0.7923886293638744,
      0.322651505528019,
      0.08055849722178149,
      -0.4438424193452428,
      -0.47655635685153896,
      0.7184159873886939,
      0.7658797557704489,
      -0.7974110794319718,
      0.5359632257307961,
      -1.4254267672287257,
      -0.4509769882319612,
      -1.9296825048428041,
      0.3524264106337105,
      -1.5621994184391763,
      -0.265797041282976,
      -0.7416151334400671,
      -2.3095986134990687,
      -0.8410613725385382,
      0.6809203334400793,
      -0.39163587063325866,
      -1.4189715469968367,
      -0.17518551584478614,
      -0.010911702059111447,
      1.2708343408453526,
      1.4219443525320945,
      0.5020604258557736,
      -0.08033936575827455,
      -1.6581759983302566,
      -1.1496160923237708,
      0.11544786827736964,
      -1.0283164596139298,
      1.22204429364245,
      -0.22795858679613673,
      -0.579738721673922,
      -0.07393231782167264,
      -0.3191666873817328,
      -0.529966664657545,
      0.2781626755544925,
      1.1632982531898863,
      0.39846559024279304,
      -0.3272955530854921,
      -0.7585858260082108,
      0.22296427861216966,
      0.7900859305371926,
      -0.03515954812083369,
      -0.4286365677018269,
      -0.6026108345504105,
      0.7020850317962823,
      -1.6782294757137568,
      -1.0138131718977208,
      1.6322391417894906,
      -1.590142080096749,
      0.281890549375619,
      0.7729625827657441,
      0.3127808476962499,
      0.992501229088692,
      0.34484364524378003,
      -1.2375428408390565,
      -0.8286531562274851,
      -0.8209780376703502,
      0.7862494530022099,
      -1.2453026414003636,
      0.04704968629295869,
      1.09577311170926,
      -0.8157871253935254,
      0.8705588234712616,
      1.703020346088109,
      -0.0289086538022984,
      0.2657818148422489,
      -0.4187322754525888,
      -1.1097605298393263,
      -0.15452917467270233,
      1.0301779791215107,
      -1.4234911158063248,
      -0.5146616062583921,
      -0.26391374321598493,
      0.47731648703538354,
      0.583121049025139,
      1.038368226110006,
      -0.5743080316443614,
      1.2176337783096949,
      -0.7069098944596329,
      -0.33718148412405835,
      -0.5078266142690835,
      0.012331676470911601,
      0.9472259296556452,
      2.400449730444109,
      -1.5767011211015292,
      0.7097405269016271,
      -0.721763693047178,
      0.2903425531253402,
      0.027176060094122656,
      -0.2226483616833957,
      1.2009096391060363,
      -0.7011912481006322,
      -1.436223132964526,
      -1.0123506255493622,
      0.830598080200539,
      -0.046730536394906874,
      -0.6905487554229337,
      -1.5089301128406716,
      -0.38687743704874744,
      -1.1435188645529237,
      -0.3954593228231177,
      -0.604131832088734,
      0.6784369283224119,
      -0.7865480098008462,
      -0.000599464125220911,
      0.5566177484353031,
      0.8287781726101571,
      -2.353916687025581,
      -1.7242055810750632,
      -0.4662682879182019,
      -0.8614341555614974,
      0.7909884400488125,
      0.17077333826949698,
      -0.9098043956468865,
      -0.4589708905369182,
      -0.5586582020721542,
      0.47037824780149107,
      -1.650600352551293,
      0.8832983475707545,
      -1.1165349130040774,
      -0.9473133007759789,
      0.6217485274985426,
      1.7003420373589264,
      -0.3219980652959917,
      1.1252849575082298,
      -0.22384101823743377,
      0.47074062082853363,
      -1.2641603766312275,
      -0.4593108985597584,
      0.19609173920819478,
      0.3167752353358777,
      0.8403103110793062,
      0.6195744797346966,
      -0.7306271619606981,
      -2.0459291540559796,
      0.4247537298298451,
      0.5776487858278493,
      -0.5460257126332764,
      0.1116359074037101,
      -0.6344824087014158,
      1.3190888045173983,
      -0.23584236855411778,
      -0.16213723638637187,
      0.6903069182068372,
      0.8461807852759972,
      -0.6200544439210625,
      0.5917539116515995,
      -0.08747838205721781,
      0.3547889852595345,
      0.4003152436056662,
      -0.12265929789312124,
      -0.8193152595343678,
      0.6492132838833757,
      0.07381704786069032,
      0.7237629916640238,
      1.3134077056325681,
      -0.4796574148376853,
      0.8910729821130947,
      0.2440972602071626,
      0.4264666020727226,
      0.6331234475857734,
      -0.16372605413013552,
      2.0764849359133724,
      -0.9284641542075858,
      -1.2084263313810406,
      0.08601227136958958,
      -0.6560610565768212,
      -0.9158230169961394,
      -0.7439623773160591,
      0.08931900917310043,
      -0.43963343030969404,
      0.923582822878136,
      0.3369188760100663,
      0.4221402130722185,
      -2.0123726664817405,
      -1.0743547562519713,
      1.0878728614771158,
      -0.0712546784269179,
      0.8819910783468515,
      0.16738015955068697,
      0.5027144409155577,
      2.192755879295927,
      0.9861316056876155,
      -0.5075355812188556,
      -0.3429815273375264,
      -1.3499365698369443,
      0.03653197720215662,
      0.36919057415962175,
      -0.5156994530078765,
      0.10740239294484466,
      -1.21837754730386,
      -0.21878064710052442,
      0.27203960815814743,
      0.14950893862218678,
      0.522338826616497,
      0.19081666635958155,
      -0.008448023650953651,
      -0.6931217586655571,
      1.2413903738876098,
      0.4322103093635219,
      0.12975381510046957,
      0.5638326068262187,
      -2.877606250106396,
      -0.8180509080986766,
      -0.1849783039579408,
      2.003941312315404,
      0.08690336802479315,
      0.41722361519653145,
      0.2055475453722958,
      0.11445995201380171,
      -1.6305394936565034,
      1.3534808145910793,
      0.10217744412927271,
      -0.3561417784532842,
      -0.2816145697757056,
      0.8277750548976504,
      -0.9928521718308608,
      -0.5619016776403034,
      -1.4462004400397737,
      -0.1748332494140571,
      -1.4563750468892334,
      0.4041086982660752,
      2.199554254870458,
      -1.7410064812078738,
      -0.7508027863845604,
      1.2251902492103008,
      -0.17064258115705844,
      0.17817426358730803,
      -1.6514976498785776,
      0.7465477780655129,
      0.37364670530647154,
      -0.817683433453623,
      -0.5222335420345094,
      -1.0790977933669055,
      -0.5987079926675722,
      0.30876226040154364,
      -0.7778258115084942,
      -0.25831553449258765,
      -1.171379756219985,
      -0.207734291363454,
      1.4493569912769892,
      -1.203486088303643,
      0.7272892556909305,
      0.3663099433135566,
      0.22805172604980062,
      -0.7175416017114467,
      -0.3603594698846732,
      0.7637109228855563,
      -1.1017736064766086,
      0.04064356655983625,
      -0.4775954386206967,
      -0.9023006571199768,
      0.09447928189574711,
      -1.793740561166377,
      0.44084210515299926,
      0.9122041099913092,
      0.47088462923198293,
      1.033567695154015,
      0.4420510658108906,
      0.6343902702204381,
      -1.1681822959175143,
      0.3068953223304036,
      -0.20026678392412722,
      0.5806728124488716,
      -1.018211946551717,
      -0.5784725776168285,
      -0.419439154411432,
      -0.1575253180913279,
      1.0139514469637607,
      -0.1814697688497704,
      -0.5387230125839596,
      -0.19286068378276955,
      0.9512574147165775,
      1.577176683146741,
      -0.6642905467231413,
      1.0509864773694964,
      -1.2543098914890156,
      -1.2302501688473129,
      0.5002853409008177,
      -1.7076820434263773,
      1.7815169056671072,
      1.1598212624550808,
      1.1579542322495024,
      -1.3065011649694689,
      0.940888621988827,
      -0.3231380600211934,
      0.05963005643081498,
      0.031956602068838436,
      -1.2988597299162101,
      -0.6170396469065416,
      1.0591265053563457,
      0.7938788319267016,
      -0.11897028291278691,
      -0.6210389271875802,
      -1.656914429316495,
      -1.1274608684442176,
      -2.0342226773989442,
      1.6553202445918151,
      -2.254495228951323,
      0.7741035138122306,
      -0.3411284413087907,
      -0.08387056716613273,
      -2.1373928517810517,
      0.8847082640451016,
      0.5372845528257438,
      -0.5521925761542652,
      -0.5523903596769266,
      1.0437717664226087,
      0.6981280210225815,
      1.2197692895478662,
      -1.2631640093537704,
      1.2282756945352946,
      -0.4990064392325506,
      1.0171038280227096,
      -0.037827944779512235,
      0.4600689911445857,
      0.9570929863452937,
      -0.0772837963061066,
      -0.665526527354092,
      0.33884082108579894,
      0.09387877793556237,
      0.22993828734631638,
      -0.3533397163722562,
      0.34426004869046045,
      0.3189065546803965,
      0.19647755191293964,
      -0.7557252132951651,
      0.8175726875306484,
      1.2839578641576157,
      0.45607250696565227,
      0.39424446660514256,
      -0.07876325122373218,
      0.3010240196468239,
      0.18283740743213162,
      0.5363346193138436,
      -1.721171753541073,
      0.14937801206426238,
      1.0974834844793646,
      0.10786716591407197,
      -0.22963584669022266,
      0.109633562928515,
      -1.2066388976440796,
      -0.48847124765976413,
      0.7312981712105044,
      -0.6381930625278545,
      -0.06936058303987841,
      -0.13389998662578573,
      -0.13758961839429365,
      -0.09601940636109546,
      -0.3328515615174068,
      0.1042021365025742,
      -0.699361421761205,
      1.303989832836943,
      -1.2365772567409925,
      -0.04249259670038191,
      0.24535867648683735,
      -0.7368031971132243,
      -0.14069440056866056,
      0.8005074460055975,
      -0.9253799450301112,
      0.2888349869519524,
      0.10847661478762399,
      -1.534797672421706,
      0.12928204879897376,
      -1.0707128663626384,
      -1.1610535152428096,
      0.40980953299844763,
      -0.1995060095832159,
      -1.6105042241626528,
      -0.6017247642667201,
      -2.3373550594016557,
      0.38704450417087116,
      0.15234579364753198,
      -0.24022968372449327,
      0.02692414774613039,
      -1.3626237487932658,
      0.8633178653580842,
      0.2990864281355556,
      0.4990457274731579,
      1.1997363527754956,
      -1.2188354134317976,
      0.6043844136987541,
      -0.12869945697160087,
      -1.55257426156744,
      -2.135660531509061,
      0.7589634236307552,
      0.26922121862200005,
      0.14948197997474022,
      -1.5951002871952777,
      -0.1711574659812145,
      0.559661964181568,
      0.35528341178480805,
      -0.5157226020171843,
      -0.4456880784078576,
      0.18912855989159733,
      1.5573332917320437,
      -1.189507123803378,
      -1.1189131924583817,
      -0.2654034933876126,
      -1.044775952132055,
      -0.9736048705285433,
      1.7998687081894122,
      -0.3885164061691837,
      1.333608284429722,
      0.5026319527774523,
      -1.6258673428598798,
      0.7747179583486459,
      0.24386312157883186,
      -1.0387647260377255,
      0.705773352578416,
      0.6414172695597382,
      -0.41669074074448476,
      0.39690089278699914,
      0.6365412342290707,
      1.5458080660427367,
      -1.2781712703440609,
      -0.09576075775244164,
      0.13716441034213955,
      0.37954217047925276,
      -0.5211001005155984,
      0.4916744977154065,
      0.9111386857492827,
      0.48427660857426613,
      -0.39360725547323894,
      0.49638390396788823,
      -1.5013533723728683,
      0.1553346966191611,
      1.5631419501235353,
      0.09131211824470953,
      -0.37438683167757225,
      -0.5751934975853334,
      0.5858391270230889,
      -1.1867293373631573,
      -1.0536275558674721,
      0.47318642600885347,
      -1.6923357236091003,
      -0.19181119734032404,
      0.2922437035111015,
      0.4185101903814048,
      1.162317643525335,
      0.5366686724638267,
      -0.3137790401192797,
      0.8050867989678218,
      0.7600968081111861,
      0.7935911782723089,
      1.3457169824039086,
      -0.9349108768683706,
      1.659330166127252,
      -0.9221238901406642,
      -0.4008717806836255,
      0.34201834411322873,
      -0.9805261482084976,
      0.45132101402134694,
      1.0163173485800348,
      -0.6197296118675881,
      -0.8716019998995952,
      1.2863032080430534,
      -1.134006422607074,
      0.55351824896466,
      -1.50833431388319,
      1.2511287528091457,
      -0.8380509690362952,
      -0.9507728017243532,
      0.5593896790574563,
      -1.5086722054720465,
      0.855373703369871,
      0.5254466340684026,
      -0.04894564517015254,
      -1.0596006089650982,
      0.888833027690411,
      -1.1873999020941957,
      0.9511646781401348,
      0.7971156935506822,
      0.5804328696446995,
      -0.30468760550033314,
      -0.6368896806308856,
      -0.5474920528325256,
      -2.0505709057714157,
      -0.34637715859475593,
      -1.5271396344189458,
      1.5348594374722169,
      0.08310863559767387,
      -0.42035368720323874,
      1.1331895794829896,
      0.7745283774766447,
      -1.212472276633001,
      -0.21046980936657378,
      0.5766547458539415,
      -1.178752783106745,
      -0.08487187416347819,
      -0.14020648923529527,
      0.1321886286352681,
      -1.9099648748387796,
      0.10252080882765807,
      0.4170428004494252,
      -1.4174659177904323,
      -0.27823349625406324,
      0.29592403869741823,
      0.35384982164596845,
      -0.7936386245830775,
      -0.9442109870146216,
      1.3858652995563014,
      0.9792310578615567,
      -1.0186655055767933,
      -1.2430495391414027,
      -0.014785733426447956,
      1.6827528164520533,
      -0.9928558115673519,
      -0.04573645427635853,
      -0.8369156147742858,
      1.0141010765076,
      -0.151700213473081,
      -0.10002046719401891,
      1.7834396662645355,
      0.2595115456256719,
      -0.47748916280975273,
      0.7788202875748449,
      -1.074632128631669,
      -0.49889540668113325,
      0.5141805655792007,
      -0.5028481581480901,
      -0.8111399993228918,
      1.0313027733207156,
      -1.0880754129182164,
      1.8260666306293791,
      -0.4179282579162097,
      -2.1226448388555075,
      -0.49427592734285924,
      -0.26015337121491156,
      0.108862785342909,
      0.6341871248046568,
      -1.4663933192488914,
      0.8168271106293258,
      1.316959356560135,
      0.15246561950193208,
      -0.3946333617855165,
      1.150374254519329,
      -0.5318560763483481,
      -1.779073025552862,
      1.917726390942911,
      0.8157707248361723,
      0.3454073148896196,
      -0.7235176721856343,
      0.2265453217465485,
      0.5442190368034356,
      0.07877872308291312,
      -0.5133194697117964,
      1.4165987266396658,
      0.1960108851403244,
      -1.0943319866818475,
      -0.6742794958356502,
      -0.030055115766868312,
      -0.09054010202504548,
      0.8852976447981216,
      1.5626678034575843,
      -1.5005139493424107,
      -0.5874451379947161,
      -1.4137935382368205,
      -1.3463866613034787,
      0.19844544598816283,
      -0.003023967225873614,
      -0.8797584883196592,
      0.15736164715603673,
      0.04043851431980103,
      1.0285733357976974,
      -0.9959972156946613,
      -1.2001111327070626,
      -0.6984609976745543,
      -0.5040224068747889,
      0.20972733628953477,
      -2.198574477502277,
      -1.7285284942153982,
      -1.513502814005129,
      -1.0608011578759022,
      0.25859530034567213,
      -1.7565465944161862,
      -0.28986855265649036,
      0.41716532626467906,
      0.5412662142540094,
      -0.7875580397077497,
      -0.12861165100267657,
      -0.6687596828854301,
      -0.7243620581220394,
      1.3233738220807822,
      -0.9147511661753098,
      -1.1927552418433196,
      1.5899085489420632,
      -2.219355693141016,
      -1.6005778851372439,
      -0.224385564794089,
      1.8730762652037685,
      -0.6881162347205962,
      -1.2435153452532721,
      -0.15858903181271122,
      1.3359210284413114,
      -0.1317623614563063,
      -0.4209233045745677,
      0.2753365375865183,
      -0.2864294628654038,
      0.6662985126903076,
      0.29905825886086745,
      -0.37991861375725033,
      0.027097386975831306,
      1.786230688924189,
      1.2073940895459268,
      -0.08866976647420033,
      1.8275027068957481,
      -0.4002287491477557,
      0.20828939150894993,
      -1.5760766152652557,
      -1.780777086444293,
      -1.5183014851084131,
      -0.028834852710177827,
      -0.5320221366761635,
      -0.43774736454022845,
      1.0781969695895723,
      -0.20097176083942667,
      0.38967312616758665,
      -0.4283477103393407,
      1.1907977935551655,
      1.5175957586210709,
      1.6335035581927309,
      0.23127861857804954,
      1.610407696212379,
      -0.7245544334063068,
      -0.07831012836548493,
      0.43617223258023774,
      1.6170802686694379,
      -0.7123319529497438,
      -0.9103696240356082,
      -0.9038047872517704,
      0.7778443789995928,
      -1.280333006374679,
      -1.6172829706732843,
      -0.0925185776123402,
      1.1335270929683705,
      0.33312024877607066,
      -1.4285535616299798,
      1.020954069479536,
      0.4528840006137216,
      -0.4381052485061634,
      2.005777470758237,
      1.1050172571144194,
      -0.35479146357701974,
      1.2909183158490478,
      0.9702240182222891,
      -0.052453460632376464,
      1.6635058970343275,
      -1.9311338600522328,
      -0.6485573083887819,
      0.20102597335751615,
      0.45397283872091576,
      0.5420515844878254,
      -0.562566314720554,
      1.2728469491773757,
      1.2817102922390766,
      -0.7518076530315927,
      0.07033004074851892,
      2.105885398954549,
      -0.6215431280716,
      -0.5884203913494379,
      0.3363474260110433,
      0.6468037570303978,
      1.2264008747772932,
      0.5792480387996487,
      -0.5002703350964837,
      -1.1524770180019184,
      -0.539175284970888,
      0.7141512520821569,
      -0.2560974214753047,
      1.0366780895158854,
      -0.29322047632136167,
      1.8494472198612892,
      -0.19670521324088763,
      -1.3400868885801458,
      -0.19486420079553118,
      -0.11973096815366802,
      -0.0029264879322902226,
      0.07024729968794641,
      0.45651241395979913,
      0.4419117162875686,
      -0.11206305516593087,
      0.6928722035574242,
      -0.12982940132628518,
      -0.8780876481289679,
      0.10571877967680807,
      0.3981614820585664,
      0.5309459564784125,
      1.0141713452523307,
      0.8259735377330557,
      -1.112660298454626,
      -1.7616952608090684,
      -0.8957371656063842,
      1.0179166316467496,
      0.5838220665230504,
      2.0253066750710924,
      1.2018555864952818,
      0.5423812164514346,
      1.0128305768182377,
      0.7863298596061477,
      0.9971628654323222,
      -1.75241598046794,
      -0.35671266327890466,
      1.7168158811124392,
      0.4306767503463377,
      0.1897586320108276,
      0.9874944260795759,
      0.16642875727661016,
      0.31890121833036844,
      -0.8465428442959204,
      0.05656546924925676,
      -1.4909378506988635,
      -0.6211495259632427,
      -1.1167525109569552,
      -1.5415142879524821,
      -0.24135066134305372,
      -0.7214404616373604,
      -1.0968936627258739,
      -0.9379537883407071,
      1.373984869774989,
      -0.91764090125496,
      -0.19636244159528404,
      0.059046504891490104,
      2.2070852820417386,
      1.6217407021563952,
      1.5212804715206056,
      0.5136073339055999,
      -1.1318891043315964,
      -1.028148587092324,
      1.1209871636328093,
      -0.32875440165283987,
      -0.7644941933818903,
      0.6080859033769607,
      0.40413032380615166,
      0.5509259304193815,
      1.1314251707952216,
      0.18369379086923007,
      -0.5844755562161346,
      0.1954927326239313,
      0.3599007855457963,
      1.14455227185304,
      1.0540942380442173,
      -0.8585493638944921,
      -1.5697046113805362,
      -1.4010278876382334,
      -1.7071621292610137,
      0.14555421101166832,
      -0.9203992536883563,
      0.17709137178812617,
      -0.6381811630179035,
      0.52932300264222,
      -1.1898235499181344,
      1.1175861824855449,
      -0.6929210796425217,
      -0.4633941013729323,
      -0.5720235686185584,
      0.2836791831583252,
      1.3939088774444524,
      -0.7953390077731066,
      -0.21032932957574746,
      2.9299946823460914,
      0.0745321491639567,
      -0.9318860481613085,
      1.787617177812506,
      -1.0859727587562245,
      -0.5445550395944123,
      1.3202255812743806,
      2.0762780812705546,
      -1.201090264328565,
      1.0898778011531007,
      0.692279398720262,
      0.6152269393550719,
      0.49175345312491614,
      -1.4642074137179146,
      2.3524585173669017,
      0.8467235285341128,
      0.14894201508023175,
      2.4472845215242764,
      -0.7696402677242586,
      -0.22016125242687745,
      1.9057621802302673,
      -1.4705871831572133,
      -1.5676460828237606,
      0.40367855729181135,
      -0.4303350051266769,
      0.6119260469701057,
      -0.7025942355979699,
      -1.4718296646245435,
      -1.1049611697428507,
      -0.6369406314817994,
      -1.5167072167163107,
      -0.3796589028848632,
      -0.6500539366862883,
      0.8112544155445507,
      -0.6495447071989937,
      1.1295433719697043,
      -1.1303489357880556,
      -1.431026692240538,
      -0.28463228531695517,
      1.0575112547863323,
      0.46740025198151347,
      -0.45753831142027607,
      0.4037659693494011,
      0.02318863593077536,
      -1.6767862394115605,
      -0.45301798734672094,
      0.3293720616380298,
      -0.6002684570085973,
      -0.3299884674141953,
      0.19880790064552756,
      1.9530522373777255,
      -1.035871246202547,
      1.2292505516342156,
      0.20708693856363664,
      0.6504484243845149,
      0.016565572830521264,
      -0.3426315491546519,
      -0.9203805759254685,
      0.8077919893175333,
      0.1164359877818244,
      -1.1887609366751843,
      1.2878163152177862,
      0.06790257389315019,
      -1.5286420206204854,
      -1.712497960784344,
      0.2190562519607117,
      0.07349592480199546,
      0.14630795468639807,
      -1.8684646579235047,
      -1.0133724341711274,
      -0.9094338054529054,
      0.48632155481124645,
      -2.118725324442762,
      0.1319048568500396,
      1.2692856470716412,
      -0.13697569576127666,
      -0.6179035627228896,
      -0.18531265618747073,
      0.18591744393800216,
      -0.5890888625436836,
      -0.662455562006846,
      1.3767916628358106,
      -1.7474452440249433,
      0.6794143421730674,
      -1.4920785360152355,
      -0.7450172187313606,
      0.5188018259267474,
      -0.840853143811659,
      1.6252267450281672,
      -1.5743203918409963,
      0.1795573840848333,
      1.02599421129301,
      -1.6723583658531145,
      -0.891497767601602,
      1.332074983261896,
      0.7315331677945308,
      -0.29710368778026863,
      -0.5267299407608651,
      -1.4928698959500504,
      -0.7676082741714797,
      -0.9645026645940878,
      -1.5950574255926666,
      -0.5033801238778493,
      -1.117814347158144,
      -0.5459218447868115,
      -1.9109233395285519,
      0.2840719076469256,
      -1.6238477671558398,
      0.3940023960554362,
      0.6914166010017914,
      -0.759186479105026,
      -0.5770680733843369,
      0.6093620655213262,
      -0.8231749247679052,
      0.3795751677770465,
      1.1833218169584587,
      -0.16214972330139404,
      -0.8910974018072498,
      -0.08715781663193528,
      -0.18767543915201856,
      0.013369809647626352,
      -0.4046286898890114,
      0.5291520785341868,
      0.3244544234514702,
      0.5467224021939582,
      -0.7720391991709548,
      -0.6291232898226331,
      -0.5269953218563519,
      -0.3658705081690039,
      -1.5919179748955792,
      0.3847329461493413,
      -0.6221868931147454,
      -0.5496433336385051,
      -0.8086413381758817,
      0.9002056169378619,
      0.7663971203707804,
      2.587867451142803,
      0.33124545425243346,
      2.232684504290877,
      -0.3227679786015162,
      -1.5857421067191702,
      -1.450913379232873,
      1.220988121621833,
      1.0398055275866278,
      0.7604554209512207,
      0.5596143518689582,
      0.03864382520641968,
      2.565468938013481,
      -0.7798623604525186,
      1.3246009921116206,
      0.6197775064736535,
      0.7274523906113592,
      -0.2587560694449306,
      0.5570942039267746,
      -0.31317907063606154,
      -0.16401185181936662,
      -0.11410497467559,
      -0.9671044689549679,
      -1.192825584985129,
      0.5501180229134489,
      -1.138312373771839,
      0.1612754734667663,
      -0.07335217938786542,
      1.2022498455023314,
      -0.8043870662615147,
      -0.3695536846872274,
      -0.47037253052161476,
      0.46442832829994796,
      -0.6840389376196712,
      0.8333265016553507,
      -0.2960500613277999,
      0.5061897460874831,
      1.0545015678529337,
      -0.375085215662192,
      0.914459285876813,
      0.35893922996144856,
      1.2529360747718377,
      -1.135346644806656,
      -0.5200403373931486,
      0.2426110163689783,
      0.1594963326493823,
      -1.3237475006667179,
      -1.0784169672667634,
      0.5637369894168645,
      -0.09965745651313274,
      -1.703175725057371,
      0.17971191213345783,
      0.631974339620935,
      -2.163051882009149,
      0.329516458100249,
      -0.8190843264224199,
      -0.5157474614833776,
      -0.2618280013746995,
      -0.5258934821174321,
      0.21060941244741302,
      0.107741256703342,
      0.4580334273474232,
      1.1892970229506477,
      0.47933259125943506,
      0.15880212030654656,
      1.3564754575227904,
      1.6887589062503494,
      -0.32203275915717966,
      -0.4115069128542288,
      -0.877728936849512,
      1.7418037489975244,
      -1.3680393871554255,
      -0.7280848938103895,
      -0.006935817809179401,
      0.4214342778257022,
      0.537752014088575,
      2.125635684548937,
      0.5384722306228068,
      0.935752104201564,
      -0.2485811806874476,
      -0.5367142436340496,
      -2.0407593475966483,
      -1.4101516257512547,
      2.4584808320926936,
      -1.0835212054382415,
      0.3794927612313062,
      -1.576123261667501,
      -1.231260150004166,
      -0.6363743344473244,
      1.5595366101103985,
      2.6022755568197193,
      -0.049959516461250075,
      -0.9492923008953953,
      -2.6093542263064045,
      1.7860635506457843,
      -1.1617089050033642,
      -1.3104042422243798,
      -0.013314651706042291,
      -1.590189539423791,
      -0.4168192138856145,
      -1.225010576123307,
      0.6527292057852786,
      -0.889995355672763,
      0.2418316467475229,
      1.2995814270564956,
      1.2758584803068,
      -0.5076265733581253,
      0.21483603972792356,
      -0.574798206982301,
      0.2170745387935762,
      -2.0096919864962723,
      1.1555173756211767,
      1.7931818163412983,
      -0.5364946283537144,
      1.387656382686897,
      1.0242163785874574,
      0.066244177061174,
      0.26952893764956853,
      0.2647196004608071,
      0.6207851508821316,
      -0.5093464203374294,
      0.7660016877418551,
      -0.21181780220097535,
      -0.7155243837439798,
      -0.9802056955671956,
      0.7291351131285762,
      0.9072707897148288,
      0.9610450937818806,
      0.2769998158722311,
      0.5583535360253883,
      -0.4209719937878761,
      1.6225566886553917,
      -1.2842958197396184,
      1.9047986454503743,
      -1.3937025030583625,
      0.37052013801759465,
      1.0640109650337515,
      1.3334102999207644,
      -1.6846684210020022,
      -0.42385893947986214,
      -1.9404836849610465,
      -1.21293688558113,
      -0.07364111497922946,
      0.24149592315580098,
      -1.3037599456219406,
      1.2575606462889755,
      0.6670568032540642,
      0.9501611757009201,
      0.6671207147444485,
      -0.2033818855262437,
      1.7092656148339949,
      -0.9820752282982059,
      0.7331298958410509,
      -0.3949809884350415,
      -1.05665941043885,
      0.30188491283979435,
      -1.7806503827239606,
      1.5893324970293103,
      0.7038292673561628,
      -0.261048997598162,
      -1.2874629039884673,
      -1.1146838061980737,
      -1.248218259243844,
      0.7736825829107299,
      0.8316858483600901,
      -1.2681131614023207,
      -0.7095348035459,
      0.9331693955751841,
      -0.32876534692463255,
      -0.8439151179106152,
      -0.3129103454892207,
      -3.379231375838458,
      -1.7260104541657078,
      -0.7899779124677397,
      -1.2550573410271049,
      0.16561266913140857,
      0.7874745816630961,
      -0.14445647921492494,
      0.7563959997897423,
      1.1009133720311546,
      1.7440952289070004,
      -0.61585851109483,
      -0.16543069933220556,
      0.2556153661060814,
      0.09408487996161052,
      0.04237226024581486,
      -0.13166568730037687,
      0.10565189865019475,
      -0.18144429347346586,
      -0.23845187588844197,
      1.9643979103359996,
      -0.5563699895581484,
      0.24303739201413793,
      -0.3092693594694751,
      1.180322178577593,
      1.964019395436345,
      -1.2430244209542465,
      1.8808959599876123,
      0.6623105838844825,
      0.7448030516294297,
      -1.5443542557354089,
      -0.46776548390124684,
      0.15716825956122515,
      -0.8895697793316379,
      0.846692044815752,
      0.8195250915432881,
      -0.012947166752795211,
      0.759581178198021,
      0.3825558546382621,
      2.5311408132258886,
      -0.04458816071730548,
      0.4024213498810697,
      -1.0755110939349852,
      -0.8703432426760314,
      0.8593962398858557,
      -0.5036785992382958,
      -0.27490625623801934,
      -0.6720107017186778,
      1.3354786380413464,
      -1.3274035925038736,
      0.15952857378106367,
      -0.3286610108173823,
      0.7752491053750177,
      -1.6370475900804444,
      -0.2852172097772945,
      1.2504856321576485,
      -1.5075091331462254,
      0.33686178796620336,
      -0.06371663199582805,
      -0.4691948578814752,
      -0.6832709847576224,
      -0.1177517610131984,
      0.25215670030983106,
      1.8839708424062653,
      0.6396974075640444,
      0.6028446087531565,
      0.5523387899529217,
      -0.668064757221737,
      0.6416484916610211,
      -0.8082477749175969,
      -0.5004404599377792,
      1.0175515874138412,
      1.2480568119993447,
      -0.6849743259998645,
      -0.5306363297083172,
      0.7221387676432888,
      1.2012201380604135,
      -1.1870240997920956,
      0.8144248200350683,
      1.51064248658217,
      0.5677494064543582,
      -0.8705620908060796,
      -2.3337084486759476,
      -0.05544048451485123,
      0.18882685580939196,
      -1.1475260014243487,
      0.7821440818531311,
      0.29608377367102534,
      -1.8320824274648015,
      0.6226613146695883,
      -0.4314056897582452,
      0.4139692025624089,
      -1.458852977828018,
      -0.30177587233667746,
      0.6897435519597681,
      -0.6565418569012256,
      0.06331033825917459,
      -0.010532515230830652,
      0.6028537868192764,
      -0.04349160893554399,
      1.0475919580206208,
      -0.7670055954236112,
      -0.09341530596899805,
      0.13707588545993288,
      0.19029733353724843,
      1.302727450643859,
      -0.011944598621135893,
      1.7032875174207267,
      1.46721942330932,
      -2.9818446498875915,
      1.1443918347468756,
      0.33054311425723126,
      -0.29679568650444377,
      0.6991371825653542,
      1.441809810759631,
      1.0136842279228349,
      0.3106423857445314,
      -1.460652302462703,
      1.1881441295877386,
      0.8204053934359887,
      0.3781369662117886,
      -0.48440057556140104,
      0.5890256325543932,
      -0.02587303039575095,
      2.623448976845125,
      0.03753986185241792,
      2.4016316186961286,
      1.1872088199538584,
      -1.1936289695557571,
      1.0118276872498444,
      -0.519259480474312,
      1.1389113270909017,
      0.2739566026410911,
      0.3876512502574181,
      -1.0211554880351574,
      -1.4558669981251346,
      -0.8263931692871396,
      2.1973300929752515,
      -0.7552159758643087,
      -0.5833845205658905,
      -0.49886034912990596,
      -0.27939622771191297,
      0.2767678584388908,
      -0.42976661710320185,
      1.484706250185381,
      -0.2756777937056199,
      -1.4558831561766545,
      0.8020891802159089,
      0.9596080517305362,
      -0.5872229275589613,
      1.8984275213910382,
      -0.8306819557823204,
      0.04356498788403762,
      -0.2612445129558044,
      -1.9537954071769437,
      0.4323277518801526,
      0.9958352584918011,
      0.7283383194659554,
      -1.9320387426381203,
      0.662307539243509,
      0.7050910974507422,
      1.4317407756927816,
      1.2343630720138,
      -0.7016646401655806,
      -1.977405794448976,
      1.1262610228450025,
      0.2880580780815303,
      -1.4233392952873378,
      0.9292925061677587,
      -0.3344068945716411,
      -0.9276102686650595,
      2.2614103931399843,
      0.6973010462799936,
      0.030663372099304365,
      1.0362171698075944,
      -0.6031000969097491,
      0.5779243417019388,
      -0.9323702789893347,
      -0.07781012177519059,
      0.21272549309398245,
      0.5424729039974192,
      1.6731638329553844,
      0.2998197471602738,
      -0.763627553138555,
      -1.075678467439507,
      -2.0983181335378864,
      1.0472012020438592,
      -0.8297728466204862,
      1.1272976324347506,
      -0.9987718722450314,
      -2.3374115284906685,
      -0.618117318235214,
      -0.8036762483262,
      1.9945876792116621,
      0.8656515866936171,
      -1.0499252909567556,
      1.9925714514696846,
      -0.3282899702485786,
      0.6700432063970417,
      1.3683243348607637,
      -0.04016821104220192,
      1.0181037183943928,
      -0.5013184357905045,
      -1.7966791994080462,
      1.2774235506168976,
      -0.3953028810306333,
      -0.778014583787626,
      0.34403711960601685,
      0.4664581691312397,
      0.07540730480171681,
      0.4161144227723126,
      0.8824241046252472,
      -1.3061157903258482,
      -2.2968371529095193,
      -0.12422783453752151,
      -0.6263516250702679,
      -0.9922810289032756,
      0.7880827800419035,
      -0.3097101796305971,
      -0.8803244357041112,
      0.19983222140578505,
      0.9103717118242597,
      -0.1519466827094898,
      -0.1636733471887979,
      -1.9485127178295976,
      -0.29145124972590253,
      1.3496128489405275,
      0.5302254790720085,
      0.12380844862362406,
      1.3673159696778037,
      1.1071214415848214,
      0.439097165384984,
      -1.4716354948628005,
      -0.20770359975735442,
      1.1100760308572735,
      0.30050261416950275,
      -0.4672065739896966,
      0.4754394466503318,
      -0.2158371514337064,
      -0.7941418158157338,
      -0.20238999024156024,
      -0.6045357859827777,
      -0.9361644327683314,
      -0.577249377609256,
      -1.0327899497847786,
      0.8353639460085579,
      -1.466915149209288,
      -0.45566573449286357,
      0.9659810421473208,
      -0.7894269575364937,
      0.11716867915809781,
      2.153743569539342,
      0.7963698131766898,
      -0.08542031903758554,
      -0.10954913556172396,
      1.387910381118733,
      -1.2615764072301872,
      -1.737124091051069,
      -0.4746489262972728,
      -0.03740003266036046,
      0.30271810900063256,
      -0.28779890009794684,
      -0.7247584468510313,
      -1.1650498660027204,
      0.07012633891356845,
      1.0835291160967315,
      0.5016206257500444,
      0.301847577144696,
      1.155556751271679,
      0.8849683881215633,
      -1.4558340970015071,
      -0.08718342834645273,
      0.5564787798677465,
      -0.4019033479564784,
      -0.47919285171222903,
      -1.384184004510018,
      -1.364906124149246,
      -0.6762052930897899,
      -0.13502201357898946,
      -1.3358941883325226,
      -1.3130106132309787,
      0.9573176037498963,
      1.6174781171492025,
      -0.01680812209685789,
      -0.46582161654611365,
      -1.3315505945946242,
      -2.2741507912439785,
      0.3435767560338172,
      1.8504111239409795,
      -0.2094741671960968,
      -1.226814575231673,
      -0.8637147030842671,
      0.5498269487453,
      -0.21284395792177735,
      -0.4868351050152101,
      0.9112616721918577,
      1.4793075030982596,
      -0.19155168357490193,
      0.16492211660195544,
      0.6387791745608804,
      -1.6542688490311943,
      0.6122471862942639,
      -0.5604650691377397,
      -0.7689465555008376,
      -0.930831490817582,
      1.9459314343775553,
      0.2623310861482022,
      -0.6284056686609677,
      -1.3184623474097341,
      -0.5982504631073156,
      -0.9514313130169478,
      0.19999480526467112,
      -0.4430436241977607,
      0.6264367277755732,
      1.389900983556053,
      0.3799348412916608,
      1.3550756520706941,
      -0.5780128800356366,
      -0.8096976029083366,
      -0.4776324248532457,
      0.9075013051381076,
      0.3868991516195902,
      -0.6306016118822921,
      -1.0304380842325997,
      -0.11699467056086837,
      -0.25603110136656326,
      1.95206382165621,
      -0.10580155048268342,
      -1.0842923938569815,
      0.36572862466168676,
      0.6514866857532617,
      0.9153163873022763,
      -1.997755177503584,
      0.4164876355702515,
      1.1261221935128014,
      0.2417824062946402,
      0.8020936212489523,
      0.5339480967638305,
      -0.08761513284624112,
      -1.674800584960325,
      0.13431593677659226,
      3.1553296216252456,
      0.41998018087775135,
      0.3604183753522615,
      -1.1412232169026444,
      0.3782439613763451,
      -0.8445352063491951,
      0.3401554294960715,
      1.2066165636743487,
      -1.8476681021690844,
      -0.3311866295060255,
      0.053320791639608456,
      -0.2700337829008582,
      0.30865929636398004,
      -0.6936210010516035,
      -0.2681849077645371,
      0.768616549178348,
      -0.1150926809044599,
      1.3317244372813963,
      -0.9538498048987144,
      1.6728825031517354,
      1.9493761381028203,
      0.9568720697507866,
      -1.6766578471878564,
      -2.7096356681310523,
      -0.060423073997470045,
      1.1454698352079742,
      1.228720521499046,
      0.44776373448536877,
      -0.5855161313789559,
      0.6834338299878182,
      -2.23292127767988,
      -0.8648615557867448,
      0.4369806012404571,
      -0.10751516349434559,
      1.4842372015043963,
      -0.8403524646033372,
      0.3753835564924517,
      -0.4933425354199301,
      0.5531404067498078,
      -0.7084798736842634,
      0.14148542799553177,
      -0.053168363579322864,
      0.5370283767871784,
      -0.30226373323564515,
      -0.028177090861249976,
      -0.6108744023235928,
      0.019454162637035644,
      -0.6302939545790516,
      -0.3001315087369932,
      0.7004186791692788,
      -1.5980538187487756,
      -0.2174744324209794,
      0.9871675890778628,
      -0.5856550135991258,
      0.2644892505026879,
      -0.5310037323782301,
      0.06833266399671722,
      -1.2081616569645683,
      0.5057104767401599,
      0.8328879465463856,
      -0.28207731135775777,
      0.027187055630424062,
      -2.2156218926268902,
      -0.7396215009109586,
      -0.7875667691515162,
      0.818384424369353,
      1.571726550800026,
      1.2921337051934045,
      -0.6681868991586922,
      -0.8577042844000076,
      -1.8706647173051745,
      -1.007469588913135,
      -0.8681325487363081,
      0.30622103328886763,
      0.9422747245559202,
      -0.7410643835466488,
      2.683101001437127,
      -0.7125123709045944,
      1.0686892230357798,
      0.9004403544762947,
      -0.10862893214916358,
      0.20730450222191452,
      -0.07159939328364628,
      -0.4192429242923238,
      0.3265919760214402,
      1.1591899911593808,
      -0.350175201856217,
      -0.2501021582001557,
      0.7004791110732276,
      0.15025855836750934,
      0.4327812029444439,
      -0.9619971918169412,
      -0.9505232431919906,
      1.6277669122131648,
      -1.5525301546446149,
      1.3692824811679576,
      -0.12551610814816883,
      -0.1204729499864165,
      1.010443964963122,
      0.054378603003902515,
      0.2188230770479463,
      -0.37513754459916837,
      -0.8258971115817451,
      0.3739718475396793,
      -0.520434556395521,
      0.31374279379840897,
      -1.051352839672786,
      0.8803448622386096,
      -1.698944256746988,
      2.0021103557576803,
      -0.19650722412400468,
      -1.4674869981056022,
      1.247342779717842,
      -2.1996904697633726,
      -1.1221024027639248,
      -1.894472316564877,
      -0.7722642640500853,
      0.9511715125102661,
      -0.7239710880318515,
      0.591936038248587,
      -0.5741846213602078,
      1.8005365750202074,
      0.31324147729146823,
      -1.2305800159431377,
      -0.7624413363357891,
      -2.0469901069222676,
      -0.9923212897025299,
      0.0832067037055152,
      0.3054600741562936,
      -1.4080231918905688,
      -0.1470926094408215,
      -0.47638312311714726,
      0.8903516555743218,
      -1.118318697304145,
      1.5422617717572793,
      -0.8343251307430426,
      1.0675063020862061,
      -1.1775811569146257,
      1.5078409195630593,
      -1.42152870257084,
      -0.03255554195722288,
      1.5940552790352709,
      -0.31839153957580135,
      -1.2652084890810078,
      1.6128649029714972,
      0.41498868384353405,
      0.40764507821850204,
      -1.0727453327487178,
      -0.5856360491425407,
      0.8473542040258424,
      -0.05479811556955358,
      -1.7894872586012718,
      0.09240712351119118,
      1.3748239056717404,
      -0.5118926087543247,
      0.8244534566684515,
      -0.8507210800357612,
      0.8189970384499913,
      0.9450118935901195,
      1.095250080866259,
      0.07205914492050808,
      -0.4498452465617637,
      1.325925069001428,
      -1.4191181749368984,
      0.5366295229205621,
      -0.16039844797989514,
      0.5307634208110343,
      2.329908339020993,
      -1.1829913105958423,
      1.4251664511525237,
      -1.4306150428018154,
      1.2965828542725073,
      1.6540471179477545,
      0.4626528109869357,
      -0.4241872814655656,
      1.0320347393716047,
      0.2293779135445685,
      -1.793828325640594,
      0.8031318285611349,
      -0.10112533281939867,
      0.9519382049039513,
      1.1993848493471015,
      1.3637642963109924,
      -1.6409310701974125,
      0.9986117280421956,
      1.0224874407946638,
      -1.753274418235336,
      0.07176998924767664,
      0.8168860963548787,
      -0.0011136208256906643,
      0.642968773061334,
      1.95273377347688,
      -0.1407487393588708,
      0.7176748914630604,
      1.463820188566496,
      -0.08517348015282711,
      0.034154178442688254,
      0.18163559778196206,
      -0.028000307978579553,
      0.8019945357093188,
      0.35991729269800843,
      -0.7281445424305507,
      -1.2111031981157259,
      0.5207957497019471,
      -0.7705605232861495,
      -0.8385612690177173,
      0.6971581485685885,
      0.04561422805354756,
      1.86009960040315,
      -1.0589341700087265,
      -0.9722416885337001,
      -0.878215564764715,
      -1.429685572133025,
      -0.2548826930677852,
      0.583389293472883,
      -0.6065690296533164,
      -0.9719245541774502,
      -0.5321193149963157,
      -0.6282006758811178,
      -0.6897971784634295,
      0.044076820975773257,
      -0.6098882999891577,
      -0.18035337906369253,
      -1.0162443468840523,
      0.4490956501416442,
      -0.0704529044510771,
      1.8290909946512057,
      1.372415909152394,
      -0.010890430100950144,
      -0.7975543834638348,
      0.47491552476744325,
      -0.035401743094368276,
      -1.4418551231004448,
      -0.7498550493101364,
      -0.05114039051056474,
      0.10860798103774771,
      1.3888949031624689,
      0.4256402101243881,
      -0.45211442143758773,
      -0.22650834784518611,
      0.9372213122188747,
      -0.927068855428621,
      0.9466986800158319,
      2.1171648489543453,
      -0.4103602457840029,
      -1.3616955716103445,
      0.37038736380865855,
      -0.287691390759859,
      -0.18983045441165936,
      0.4289465143987617,
      0.034685904057501604,
      -0.9195187804732141,
      -1.73210503120211,
      -0.7390283277943704,
      -0.5487380778292923,
      0.6415096930624156,
      1.4277211963787568,
      -1.729947645477921,
      -1.5008385992887283,
      0.7522665214496371,
      -0.1979432088913251,
      -0.3351907552782276,
      0.06314688166179394,
      1.8754561357103765,
      -0.6099487550633491,
      -1.386250076779623,
      0.19297172293608278,
      -0.45031298241398954,
      -0.8095551243122712,
      0.19771682697688447,
      -0.20798641326696368,
      -1.4740201074677257,
      -0.5651693880108255,
      -0.1336456486492319,
      0.6446041254263828,
      -0.5757275429864306,
      -1.798813963501275,
      -0.40125429247056893,
      0.12445999201659522,
      1.1719909498673255,
      1.029520040632352,
      -0.3990002956761106,
      -0.42696879100518503,
      -0.5579657909717941,
      0.7856437862894508,
      -0.4370778759343853,
      0.74377652113558,
      -0.9234516720983823,
      0.22392348859622413,
      0.7763776950010013,
      -0.20637097522726294,
      1.3400144906432376,
      -0.6004987869415264,
      0.5165498554833969,
      -1.2675648022636476,
      0.27320976397656876,
      -0.7183927363310194,
      -0.09464680871599884,
      -1.6165376743640802,
      0.28661993838081756,
      -0.7189365296724527,
      2.047746525807823,
      0.057781967659233935,
      -0.34723873104864733,
      -0.5419265944115694,
      0.16218627277022973,
      -0.2409932953298762,
      1.3156128800794429,
      -0.9132353286837624,
      0.3162451254442564,
      1.426951740632919,
      1.9388619150440667,
      0.23413720531427373,
      0.5556645198015172,
      1.3020851482763822,
      2.000204886740651,
      -1.8478221807714856,
      -0.8491670783630052,
      0.5138098892973617,
      -0.11759313322837417,
      -0.095007886076512,
      -1.4161813233407068,
      -0.7396241623435311,
      -0.789356716495685,
      -0.9240900175743803,
      -1.265312060327789,
      1.088958588738314,
      1.7153594934706362,
      0.5900879124693779,
      -1.4395151064003904,
      0.11147514703800798,
      -0.22813909030032287,
      -0.917723757034213,
      0.9649142796581197,
      -0.14342064863073534,
      -0.48870530926146966,
      0.018313128520304867,
      0.5228603667214607,
      -0.2266758183281441,
      0.32078596146968424,
      0.4336985814142275,
      0.8031210092281621,
      -1.4543309368344233,
      2.2401017095703804,
      -1.1910757259036948,
      0.854345012504675,
      0.5692797928872305,
      1.9389642112315069,
      -0.06642310202175095,
      1.1157560349019302,
      -1.5854520868506277,
      0.4565841679254026,
      -0.5288153547512634,
      -0.08511133538182669,
      -0.8306284158728212,
      -0.017280088393364784,
      0.4337265613050285,
      1.0832820183449772,
      -2.3202278393030586,
      -0.8859808089828958,
      0.3478235109664851,
      1.2190496642963877,
      -0.9659302470101895,
      0.3867767338474177,
      0.9147116768240675,
      0.6452598253186804,
      -1.1213813298936923,
      0.3850192096079603,
      -0.4343486833147598,
      0.20066677331820326,
      -0.615261298389273,
      -0.7872902677768154,
      0.6569879955591418,
      -0.7458196037741566,
      0.9434437111923035,
      -0.6022340410007192,
      1.396692263816649,
      1.0469269324130153,
      -0.8806564596415667,
      0.2197644272010526,
      -0.619733109237152,
      -1.2465230520257369,
      0.059900808208350226,
      0.31677841108445604,
      -0.5322705284124387,
      -0.6564267176194758,
      0.24537701935529177,
      -2.061798237730126,
      -0.06517695719487848,
      0.2987580389586534,
      0.1546136614213245,
      1.649678261011375,
      -0.4856383986251184,
      -2.7828645494115327,
      0.386623803977191,
      -1.9406560367460148,
      0.6851010267998769,
      -0.5006570529931411,
      -0.6052719123753256,
      -0.005190706858036798,
      0.6988436131761857,
      0.13564136546408845,
      1.607472231708366,
      -0.26228520054120186,
      -0.3738872841432135,
      0.023144242325737696,
      0.13121795479659965,
      -0.5689590373523721,
      -0.5061636270169425,
      0.12588455057032918,
      -0.6798655397373227,
      0.8940473270128813,
      2.14791690519506,
      0.019377854836440778,
      0.8823009476134065,
      -0.3848698391174632,
      1.2516315274924228,
      -0.17497132301515772,
      -0.6433090955355845,
      0.6339272448844113,
      -1.3759531639651563,
      0.26317114881274306,
      -0.41907321570961886,
      -1.0024779443587513,
      1.2046327528222724,
      -0.332173309805964,
      0.6566792269582373,
      -1.0685124844424798,
      1.0951671481257348,
      -0.3825408852833668,
      -1.1660497155392453,
      -2.2714697872772565,
      0.8127670287628994,
      -0.370567306356981,
      -0.6285399627416339,
      1.0751200305189983,
      1.532459161833398,
      0.7279449331239711,
      0.561587642550928,
      -0.011059089520679022,
      -0.05083768772145145,
      -1.016318968640356,
      -0.5472795591769132,
      -1.8921481038990242,
      -0.08960521912177147,
      1.2539936661780895,
      -0.05032259862220534,
      0.9099339956214608,
      0.4651065557175582,
      -0.17557670761534083,
      -0.13894091734060143,
      2.5651948854526974,
      0.34937795477772593,
      -0.38917512835335033,
      -2.8631719323685685,
      -0.6179085732695799,
      -0.9413300005029187,
      -0.22878309075945236,
      -1.3178987697735682,
      -0.22060346282965757,
      -0.01951428418160095,
      -0.097172784372076,
      1.2236309111256056,
      -0.1280071181265774,
      -1.2584322063115214,
      -0.8149138359686836,
      -0.04989109745938994,
      -0.8986752166474481,
      -1.2814590811260755,
      0.7249682309886696,
      -1.0903690774135233,
      -0.4252390230346317,
      -1.7307545400457691,
      0.5050591236589647,
      0.2847615677693943,
      0.9049477366921299,
      -0.5703884885794258,
      0.5490706037222229,
      0.6533269496597252,
      -1.2479727481005318,
      -0.714037417563407,
      0.7350496644175974,
      0.31532752767172734,
      1.0045253486673327,
      0.0840607088603379,
      -2.2503827975562904,
      -1.065405984821904,
      -0.303136404038004,
      -1.6552271778067151,
      0.9292350597852023,
      0.0853316319495038,
      -2.506192161017302,
      1.0484498495814265,
      0.5700374200697924,
      -1.4251637453666963,
      -0.4980834888541458,
      -0.09907909046698804,
      1.305987846152977,
      -0.15948622688923378,
      0.7630051793134747,
      0.18766350799457304,
      0.7111168218397167,
      0.5428276415820141,
      0.6697824185009149,
      0.20106162006236916,
      -1.3374621829950204,
      -0.05276165527461296,
      -1.394846357902824,
      1.3243224223689336,
      0.4012242170432027,
      0.9640295016986272,
      1.40944305811351,
      0.2999868901451137,
      -0.4857819792011706,
      0.32001420427979665,
      0.314644303664547,
      -0.4073605929827022,
      0.15821372688621904,
      0.26342226857807866,
      0.6896899799371492,
      1.7931130961217274,
      -0.41518958790262794,
      1.1783451776494314,
      0.30373644913227527,
      -0.8535246799846868,
      -0.4618871035228229,
      -0.7844547697919346,
      -0.8200972975685259,
      -0.8327615032899471,
      0.5340202001144639,
      -0.9238140643726973,
      1.476649568102216,
      0.4359219635116707,
      -1.4259736120158604,
      0.8443821315473151,
      -0.12345203929883819,
      2.1239914646256253,
      1.3978291885575755,
      -0.04312584807701125,
      0.5858214277608464,
      -0.2319850392325976,
      2.7691099035791207,
      -0.5483593428907956,
      -0.5850753959294416,
      0.6805012191950955,
      0.8595521605418446,
      0.1567283261671401,
      -1.574573158951366,
      1.1308887458709496,
      0.6858195351631027,
      -0.6406847000531537,
      -1.018807013134418,
      -0.24498307942644004,
      0.16860740698103927,
      -2.0353668976682022,
      1.231451213302051,
      0.26624989664448084,
      -1.314998648844762,
      1.2259541726971177,
      0.2059359117532038,
      0.17330245660992505,
      -0.40461894681649446,
      0.5437269433763398,
      1.6947606144856695,
      0.9036086500404475,
      0.2842304028579785,
      0.14664738785594944,
      -0.03219335699384143,
      -0.1558458164168658,
      -0.4076327817964698,
      -1.6628685148130085,
      -1.0057816933622807,
      -1.143471576601504,
      -2.1179947352267043,
      -0.949624636036119,
      -0.47489063614643,
      0.31460588797359024,
      -0.389059651482036,
      1.1370404161418457,
      -0.26388287437320823,
      0.12688943002567665,
      -0.08036652148566059,
      1.1623963044712453,
      -2.9113482673225235,
      0.41225808645666195,
      -0.06357731384903709,
      0.5734394285246355,
      -0.3876966784855611,
      1.0163601992917997,
      -0.07497002121726812,
      1.2155814376926415,
      -1.3973208178520957,
      0.9027262224203846,
      -1.815088585514185,
      1.1361513938734158,
      2.6743166826016704,
      1.1178271922686724,
      -2.028726953646496,
      -1.2161720168513708,
      0.4542427542094867,
      -0.9651151493560048,
      -0.657409907308685,
      -1.62066355258382,
      0.7209663365346508,
      1.7104874905655425,
      1.3568021302965638,
      -0.05930083215457488,
      -0.22660626898641467,
      0.43952996350373297,
      -0.5302870363344447,
      0.672549180087827,
      1.0588694455714853,
      0.7353647625827584,
      0.8389608104379659,
      -0.8029210634708496,
      -0.44311330747753014,
      -1.2740819400078711,
      -0.43327364266248325,
      -0.6260885064876209,
      0.03669780574896975,
      -1.113755604361887,
      -1.27890371515561,
      -1.2316784599598511,
      -0.36240436611140775,
      -0.48219152160129924,
      -0.9392452454576923,
      -0.5908095376612881,
      -0.5639528190659382,
      -0.2563026031313189,
      0.6097663918133385,
      -0.012936444999335217,
      -0.27451176662192456,
      1.1797797532680672,
      1.3753096798874722,
      -0.5432237447112219,
      -1.1294052034441646,
      -0.9583539318771755,
      0.4184762026733676,
      0.1558099861244472,
      1.1306071676074674,
      0.28659742841235514,
      -0.3738220378201041,
      0.72475645723231,
      -0.41091562494566136,
      -0.39401091911275443,
      0.8050580806660501,
      -2.2925189118260985,
      -1.2905756473470875,
      0.6393482293020886,
      -0.09610990131709585,
      0.4863474916993231,
      -0.08098551028162593,
      0.8711103667071294,
      2.519290978549534,
      -1.2992405807504432,
      0.6806031479209376,
      0.2185267946864089,
      1.7910173371218612,
      -0.015228970428050326,
      0.6210980687237163,
      -1.288651608867299,
      -0.017159385081981005,
      -0.8558936499596447,
      -0.6312380082678108,
      0.19670580891995387,
      -1.50228603302574,
      -0.5746980054607559,
      -0.49982967857474614,
      -1.169985568791972,
      1.445533139717429,
      1.31020585460226,
      1.991279576176192,
      -2.2160650780468085,
      -0.20779660558121837,
      -1.9030921529777207,
      0.6257369048143258,
      -0.34398890550981814,
      -2.203934262410734,
      -1.7457242822685965,
      -0.8044585439437666,
      0.09230338753632594,
      0.28620621081338604,
      1.4727662122121787,
      0.3558608108326089,
      0.9360698043455549,
      -1.5533920096189242,
      -0.025039371981360747,
      -0.062494254275180516,
      -1.2532633982249717,
      -0.09674756314023067,
      0.3510422455380269,
      -0.1543681651594936,
      -0.1656897855732472,
      0.36811499185530366,
      -0.5722592861265045,
      -0.7930031378673594,
      0.12996074397656496,
      -0.6249450029810724,
      -0.47838040387679437,
      -0.24825759390177504,
      1.1567077366709455,
      1.9597460330903673,
      -0.20613925653745402,
      0.08803481033025806,
      -0.958837623270327,
      0.7523934932647869,
      0.399017585640706,
      0.052708904532074274,
      2.1520418015661913,
      -0.22951845131272325,
      -1.2833060363169633,
      1.2800331108681813,
      -1.3381896017526675,
      0.1631646009012569,
      -1.8418362868758051,
      -1.173726887058523,
      -1.4597149880443587,
      -0.8121513963836685,
      0.7654981027739537,
      -1.3805139869720005,
      -0.9690797442738175,
      -0.8961279055403542,
      -2.39949019868439,
      -0.4317151387478016,
      -1.097087758966921,
      2.232255941552968,
      -0.19720217772855442,
      -1.324456595306116,
      -0.06784358352635397,
      -0.8242407041179054,
      0.27263443708657853,
      1.2676366797774774,
      2.8282997253172972,
      -0.035060002871834806,
      0.24792966954835602,
      -0.48890286818356443,
      0.4622937430708073,
      -0.14154690795526248,
      -0.6554656469135196,
      1.081815342772958,
      -0.18463907197999951,
      0.9648095556646374,
      0.5133909344872001,
      1.1428527346398107,
      -0.33567410731962033,
      -0.4308837413898603,
      -1.0746250544170257,
      -0.2385544821296563,
      1.2458154947983213,
      -0.06800237023471756,
      -1.2485215353324701,
      -0.34952765804200897,
      0.19214640201734473,
      -0.31917357510299643,
      2.023318830559766,
      -0.5921821890266815,
      0.32022079355520955,
      1.6041948907901846,
      -1.9870541767421102,
      -0.5347630665390517,
      0.7895644168408272,
      -0.032535942796593664,
      1.383059894122097,
      -0.5332282761382581,
      0.17480461381208096,
      0.6121009332807582,
      -2.0749463778836077,
      0.6813780843633205,
      1.771013657739774,
      -0.2294381060350406,
      0.09348056334003979,
      -1.0542338218520868,
      0.22859969454002943,
      -0.9737429214057345,
      -1.1464610839886475,
      0.19288332523635932,
      -0.001011976256107383,
      -0.4164363247546491,
      0.23887692668311472,
      -0.22761764692828354,
      -0.4413225766936346,
      -1.3590487673096439,
      -0.6987046328494166,
      -0.24222945811123997,
      -1.4461005530928028,
      -0.9737406211939506,
      0.5387484494481725,
      0.3103123006926847,
      0.2397148493336657,
      -0.39333936926425006,
      -0.9626374708091491,
      1.781312489204792,
      -0.8218701808649995,
      -0.48297154607655013,
      1.2080070344042673,
      -0.22681081785424917,
      0.14979317337888642,
      -1.8905674211438428,
      1.451671578987484,
      0.8953950345902726,
      0.595603695300891,
      0.6169781905339985,
      0.3115008849259691,
      -1.1319444561436454,
      -0.29908094389608253,
      -0.21757921102749023,
      0.0020112887232160426,
      -0.3107197672513602,
      -2.698326858016369,
      -0.3088916129046788,
      0.32995592857711387,
      -1.3766949505901869,
      -0.5910981242707369,
      1.9873597612101501,
      0.0009780171120539194,
      1.147035196202971,
      -0.8668622166489233,
      0.8675381978698776,
      -1.0110820348432843,
      0.5910179802751552,
      -0.27772815539944623,
      0.5906543473278079,
      -0.1557728499830049,
      -0.437206906366412,
      0.3818654655843714,
      1.0464734500872335,
      -0.3086129250376606,
      -0.04139671068696804,
      -0.2805140399453707,
      0.7767629434309598,
      0.5547703108298696,
      0.9482168189863971,
      -0.6257310174920255,
      0.403225406174367,
      1.0231519227506918,
      -0.7873357650022348,
      0.7047175101041827,
      0.8763571413170055,
      1.3343588936052009,
      0.3937325235366318,
      -0.8486842023780925,
      0.14455584823040152,
      -0.5916832582711312,
      -0.10219626692881068,
      -0.43906247809515864,
      -1.6045935412694519,
      0.0242643407062737,
      0.433995688081612,
      -0.35726186572294316,
      -2.3092029694819347,
      -0.5620938402494668,
      -0.4219707579261295,
      0.5973695375875001,
      -1.2623514595887193,
      0.443180624605624,
      0.6676801429159788,
      -0.5247561863831229,
      -1.3570930308235907,
      -0.12907978364795453,
      1.2760375957109644,
      -0.6754402745500705,
      0.8446590818946703,
      -0.13536899978288297,
      -0.5041799102964359,
      0.11604604537303231,
      0.22925460649667184,
      0.8735933267617445,
      0.39007559687544074,
      1.3814338253615257,
      0.5727439351504482,
      -0.07496692280638151,
      0.2893265568466316,
      -0.7889448022774082,
      1.0619265060915684,
      -0.6699562469649069,
      -0.42945561857350023,
      -2.0346099149751273,
      1.4818132535358468,
      1.2698833706312451,
      -0.8147313136284915,
      1.2907794495798082,
      -1.7912060226781894,
      0.7355296537258098,
      -0.3801845686353803,
      0.14490922716706806,
      -0.8410626453149209,
      -0.9872103629957756,
      -2.122147601227868,
      1.3428681149605017,
      0.2771933103265789,
      -0.6181112406062983,
      -1.020351775780028,
      0.8346019105502034,
      -0.7409625509436144,
      0.2459807816173908,
      0.2518963801913715,
      -0.5605547310884139,
      0.9635261063447808,
      2.3413273260759966,
      -1.622002076010069,
      0.3394034017817643,
      -1.3683157499974574,
      0.3497173351601768,
      0.7822784047176051,
      -0.4120162282906928,
      1.1454099138648508,
      -1.3671136279967853,
      1.4221689955867036,
      0.6420369110868975,
      0.4534134934073961,
      1.3267049114923213,
      0.26031947068231975,
      0.43647966413129025,
      -1.7383740983346319,
      -1.4723152908766952,
      0.6315758617043635,
      1.2584146147184256,
      0.8033982228622285,
      -0.35227576287234946,
      -0.6461330781329672,
      -1.5596856747960297,
      1.478666381283988,
      -0.7206807378375973,
      -0.3563566307337143,
      1.6867364908689693,
      0.7890288772777246,
      0.9395257240851868,
      0.34902231233612413,
      -1.5516336360133827,
      0.1751101341101553,
      -0.3583214564927705,
      0.6328860703624706,
      0.28507651334241546,
      -3.3065231493795295,
      0.37921131602101044,
      -0.02705173134887512,
      -0.6881483236828729,
      -0.06613024081635976,
      -0.9861876322166065,
      0.029845898382171665,
      0.5700148045653255,
      0.7613006312943635,
      -1.105434856072716,
      -0.5506713873766107,
      1.98661831487594,
      0.025046193911622272,
      0.933652656476809,
      0.846015055341761,
      -1.531823598192637,
      1.1593197585667976,
      -0.9724860630998715,
      -0.22793472426289207,
      -1.5450236725047668,
      0.07683464995596934,
      0.08709600169976095,
      -0.9039642423006835,
      -0.8157469548777636,
      -0.043701342200038296,
      -1.548209845781492,
      0.0024421381399750697,
      -0.952349470620774,
      -0.7435092135257717,
      -1.4875406877076225,
      -2.2025053621254576,
      -1.1817815786834487,
      0.14604944073092796,
      0.9866407194549761,
      -0.29107295988655824,
      -0.07640040283046334,
      -0.5579566756946243,
      -0.19625613278529247,
      0.3598365730174819,
      -1.0146195618022253,
      0.25346491892023315,
      0.12228353761325389,
      0.42525558413873743,
      -0.05171504510460778,
      0.8512832589602376,
      0.7361549591892491,
      -0.9163638424733282,
      1.5308080690488826,
      0.2112168630748006,
      0.4146026368937663,
      1.0788288254803933,
      1.8892382284483182,
      -2.0340587977404727,
      -1.0851166186647978,
      0.9149773040045525,
      -0.7032027718094835,
      2.1516627384334868,
      1.0064992187095594,
      0.06349976275524175,
      -0.6170325069197773,
      0.6407129906275979,
      -0.5552722581452614,
      2.1330298994331196,
      0.31009790090697265,
      1.1181325645593683,
      -1.733711729560465,
      -0.15024864659062442,
      -1.3636902466496679,
      -0.5272143233818367,
      0.6199369047763092,
      1.1980250566117099,
      -1.4431158658032919,
      -0.6659918265936859,
      0.8356465282953185,
      -0.4682874263067466,
      -1.8750253812053608,
      -0.39773198686417577,
      0.7966878463992018,
      -0.5506715285797509,
      -0.5597970425776181,
      1.3670108347151875,
      1.7854051418821792,
      -0.5575964569378189,
      0.9829478447402282,
      -0.468321678388986,
      1.6838351422405629,
      -1.4220128993677967,
      0.11412431210054541,
      0.7769972817021076,
      -0.56468490538681,
      -0.546156301571789,
      0.7933191132400347,
      1.306025935470077,
      0.6870245742220096,
      0.6915876414387152,
      -0.7604585344531276,
      -0.6983618627493068,
      1.0680887686571334,
      1.4875231200685637,
      -0.7577267244937903,
      0.1438242774068839,
      -1.9032965002185431,
      -0.35964907778915034,
      -0.9654180982601989,
      0.05231670604133494,
      1.0501335521647874,
      0.395987811697595,
      -0.5096382668318185,
      0.13100848032565982,
      0.4196873483356782,
      -0.020061343129029963,
      -0.8221977849783668,
      0.9818297454599494,
      0.8502565144020842,
      -0.41358780249105287,
      -0.6533345565329964,
      -0.8842600588447103,
      0.10313625736552223,
      0.7568358827694093,
      -0.8088392912788273,
      1.1418508280109587,
      -1.9590035553902636,
      0.2355687634616052,
      0.9065147057951684,
      -0.8210047485520011,
      0.003682775765256441,
      -0.7133064648869378,
      -1.1329824836011748,
      2.171908283665083,
      -0.8657344928632973,
      -0.4049821771537507,
      0.13506179227322182,
      1.9891445662287268,
      -1.8600608809659334,
      0.23738135413417993,
      -0.8654818537425588,
      -0.4974271381143822,
      -0.8945645011308139,
      -0.6899912053189932,
      -0.25721032828399104,
      0.49695698252191534,
      -1.3420197052404452,
      -0.7623948088842993,
      0.027254295035355036,
      -0.28891593281629524,
      -0.6769753524980463,
      0.3566200921575022,
      0.3851752098335376,
      0.5008339479501633,
      -0.5819685854930148,
      -0.8132179035938332,
      0.7337119132502126,
      0.6625137829610068,
      2.197539575456353,
      1.328387213369235,
      -0.2920534048278439,
      -0.42134735200643336,
      1.1687257155921973,
      -1.0239499304045647,
      1.3844294427353412,
      1.0022926244282602,
      1.1649352899081529,
      0.47846238535427943,
      0.7523053648713763,
      -1.0570830294955424,
      -0.13847340107296585,
      -0.7277792283583431,
      0.08941825901873174,
      -0.7666594222302232,
      -0.9586949999304315,
      -0.2741907106082923,
      -0.1972871119472755,
      0.6290332203026872,
      1.377603131414416,
      -0.5576465320391903,
      0.8253163985934047,
      0.390524583523046,
      0.12777878826539446,
      0.6456686148992169,
      -0.66942734200758,
      0.9357410979521268,
      -0.34190116100966694,
      -0.2899700514569721,
      -1.6393562786419995,
      1.8002282016141828,
      1.374524858164341,
      -1.4511172322396217,
      -0.12360883866769828,
      -0.9822038804292025,
      -0.07676784817358007,
      -1.5136258274540944,
      -0.8885286450386509,
      0.5383524802926596,
      -0.969252729632462,
      0.5477199167813877,
      1.1115583258668367,
      0.029931410692938365,
      0.176529552696576,
      0.11145617003250985,
      -0.4445636796365888,
      1.5913325928715083,
      -0.11758051902303668,
      -0.22263548364410468,
      0.6362896595185897,
      0.6402840345312866,
      -0.8210220177498755,
      -0.14027429200391364,
      -0.8743714538119947,
      0.3129497819738063,
      0.8465869335581331,
      1.8976238539721528,
      2.4794208618097993,
      -1.8813704835894456,
      0.3181563292231244,
      -0.6393570798765369,
      -0.11524321282442607,
      0.31145331937065734,
      -1.0253595911756492,
      0.16905452218898082,
      -2.065261160428977,
      -1.9592893108762017,
      0.06289370915225773,
      0.41314382456316523,
      0.9082917260131429,
      0.35046963326989006,
      0.6710841486499364,
      0.06969270539578165,
      -0.3882270365585307,
      -0.6900044230743777,
      -0.25272566328964047,
      1.663249535693292,
      -0.803480050801753,
      -0.18073501893124916,
      -0.2109727325824885,
      0.1638333574921752,
      1.2589649400799923,
      -1.6569880176494824,
      -0.08844959223666182,
      1.6542705872876549,
      0.5275271360341145,
      1.37424221774525,
      -0.1566366965812932,
      0.46476360310455345,
      0.8395204600921496,
      0.29125935616469323,
      0.3031322611769621,
      0.4772507954882904,
      0.3072579946987604,
      1.713654609930475,
      -0.8638266220243704,
      -1.8282039121368427,
      -0.5456242045048093,
      1.6106361011502806,
      1.1722122424217525,
      1.1039495552267207,
      0.40365295862140094,
      1.5923719048048315,
      0.4246266330718898,
      0.4836288644628285,
      -1.8565615287334802,
      0.42438179538626075,
      -3.4963128400800354,
      -0.8696465349493104,
      0.4919062246523387,
      -1.6743753278318534,
      -1.2352052631495303,
      -1.2063018662331921,
      -0.02384945410335959,
      -0.14805023324098193,
      -0.29528662527136285,
      -1.3839277054442656,
      -0.5848563898191836,
      0.48711430997134375,
      1.293129283431158,
      -0.7317359293306176,
      -1.4431531614837967,
      1.1900836601549305,
      1.9227930996937737,
      0.16677537517026875,
      -0.23006552102961264,
      -1.5658881946758685,
      0.34774661479155367,
      -2.2978523419635017,
      -0.3434550358636419,
      -1.6263737766346242,
      -0.9238714379015458,
      1.2393027131993075,
      1.0908647557469133,
      -0.8170834351635508,
      -0.8134156896482805,
      1.8739740691614197,
      -1.6367295592956683,
      0.13638171231979612,
      -0.6121498217705597,
      -0.7320325410388362,
      -0.5786879639302406,
      1.345562174593674,
      -2.60393911375311,
      -0.10163896948182297,
      -0.33851088033117593,
      -0.28058623127820603,
      -0.088786233836608,
      -1.1689550934849413,
      0.31720070013418217,
      -0.2704954383081821,
      1.9901367112806665,
      -0.04926918532527824,
      -0.12333503054023864,
      -0.46258562631182265,
      -0.1408031166070431,
      0.1460879817617633,
      2.1341897732645787,
      0.0048083092301993285,
      -0.7205687470110105,
      0.19065382609453718,
      -0.9421859545932828,
      -0.635236443907697,
      -0.013915941278200561,
      1.6016309313751784,
      -0.1898037906625383,
      -0.8246570856074346,
      -0.6486188152485189,
      -1.5366033687890903,
      0.41081150637230235,
      -2.703824186971626,
      0.49385759364623555,
      0.39676846269308186,
      -0.0937042615362732,
      -1.1473887271178072,
      1.9883102224572768,
      -1.4534893725833808,
      0.14928754621775842,
      -1.9019673186782409,
      -1.097111830445018,
      -1.0748598716920963,
      -0.13602616546536112,
      -0.6433470508003802,
      -1.1103195061340776,
      -0.14013077770139876,
      -1.68721857059488,
      1.3222463008997716,
      -2.2331799696554913,
      0.13179555185046943,
      0.9858678657227742,
      1.6529929073057916,
      -1.55904137309697,
      -0.18757346086606225,
      -0.17267437003421066,
      0.5357325929638401,
      0.050378469708448836,
      -0.09895452604166952,
      -0.032278054860625544,
      0.6535120425587859,
      -1.1564879571913806,
      -0.2255049766960443,
      0.8979708139514052,
      0.3532958827482686,
      -1.4965078184463327,
      1.2452206255667826,
      -0.011851630914343714,
      1.761777170339054,
      -1.9483643997794782,
      -0.32339348978413285,
      0.1327223491182794,
      0.6315010542615037,
      -0.004661906021270923,
      -0.7798002242264933,
      -0.09216746518266206,
      -1.234278145872843,
      0.8908064537340257,
      -1.18037950187251,
      -0.39614799764312814,
      -0.5910685492850133,
      -0.09138989646234896,
      -0.1606715940643043,
      -1.1918630328899824,
      -1.1420868071708261,
      0.6522194600415171,
      -2.1459643723353414,
      -1.1511059870740707,
      0.561197064603042,
      0.631312685245275,
      1.5370763842885304,
      -0.7674612140582664,
      -0.21668642458658005,
      -0.4068369273198605,
      -2.623127519233241,
      0.8646741904383511,
      1.271885206519675,
      0.6313049394365927,
      0.4031865991094245,
      -1.937123299967853,
      -0.7803446088446682,
      0.32526897678189914,
      -0.7148762548490224,
      0.9455631187423215,
      -3.1005591383144817,
      0.20633503177666435,
      0.36655515214054457,
      0.905854081124791,
      -1.6803560850793111,
      0.9899640192571151,
      0.4623743856782214,
      -1.0015251121764788,
      0.2316959812661347,
      1.136755106433824,
      1.2438083625276783,
      0.5515689781404758,
      1.291207829001615,
      -1.2383303397411336,
      -0.4343618215597054,
      -0.2049662374338082,
      1.2203711753414566,
      1.6228315668962867,
      0.09055401857390077,
      -0.14298659050338536,
      -1.1457793945828758,
      -0.06516228292588988,
      1.2460595372810526,
      -0.2666457292485893,
      1.5369691791688305,
      1.6328946585796187,
      -1.895211839418905,
      0.24808796429960284,
      0.5692721696761034,
      -0.9545869635985615,
      0.6935163972743114,
      -0.9042608870725828,
      1.0827491186974347,
      -1.359062262787911,
      0.5388699815255829,
      -2.089947638147252,
      -0.5630430197289584,
      -0.4842574982222194,
      -1.3035559726560955,
      0.1175556315369698,
      -0.784603849201936,
      -0.7500847407252155,
      1.0806743448513834,
      0.9405071220445711,
      0.5749151840301545,
      -0.8569198866517875,
      -0.01911367842293077,
      -0.9223546972128962,
      -0.36370953662960115,
      0.7930283244460872,
      0.03219956639476429,
      0.6067164403062986,
      -1.0125526860739595,
      -0.2610162626471455,
      -1.338367395131013,
      0.20101268139974093,
      1.544229343175236,
      -0.7828325478655166,
      -0.47762255315740165,
      0.7449859524098824,
      -0.4483288233231391,
      -1.0182055378591475,
      0.6897977372962563,
      -0.20072908866521105,
      -0.8057151104437461,
      -0.5031801425604131,
      -0.03878029048936024,
      0.15152288690607651,
      0.7309155985174343,
      0.07394642932777962,
      2.147418422897289,
      2.195041306391246,
      0.3512478897090883,
      -0.47311919092532406,
      -0.7543742862327341,
      -0.21177111778497296,
      -0.5613973281453971,
      0.22363090807315972,
      0.8271950124841061,
      -0.34571906826214605,
      0.7300956702858286,
      -0.3214844071353992,
      0.9590867329714595,
      -1.2181922956440734,
      -0.9208440943281326,
      0.11229749913716905,
      -0.017779764655747488,
      0.7577005061225137,
      0.2826707551094458,
      -1.0889175420070936,
      -1.4817257857990347,
      -0.17523304107513535,
      0.03556112607878498,
      -1.116088199954729,
      1.4151157327491144,
      -1.923505877009541,
      -0.3255366964347639,
      -0.21679444391128966,
      0.5962601731423398,
      -1.5271308841342544,
      1.007603944344349,
      1.0441492795519771,
      -0.6421409393430643,
      0.2018805405491147,
      -1.0456797006899583,
      0.15151046831060833,
      1.1429204015891659,
      -1.038476442706857,
      0.24387163457976085,
      0.47449300051278787,
      -0.7957235675432577,
      0.37426470572112747,
      0.3808888124207975,
      -0.5610828503154597,
      -0.634194847543067,
      -0.3717262101712404,
      -1.1736714651248654,
      -0.903573509240996,
      0.7777038574311984,
      -0.6401217460230084,
      0.6357663254007089,
      0.0918645237867329,
      -0.6561056175992617,
      0.26781588662407074,
      -1.031803876866211,
      0.8897618002876087,
      2.1852777372295975,
      0.7569740145827933,
      -1.4643994234820592,
      -0.5941715513530001,
      -0.46340990134865856,
      -1.1462942116366523,
      -0.3773484668739873,
      0.2799146901050695,
      2.3750889231692796,
      -0.27386899803651743,
      -0.880775989666837,
      -0.8874135433618078,
      1.3497401313113446,
      -0.6639019603074281,
      -0.6890285828843106,
      -0.38554254521120157,
      0.7284624584428954,
      0.638096547157166,
      0.8644080524897084,
      -0.1751513295077594,
      -1.2733481630554473,
      -1.3052793290064206,
      -1.390682192208853,
      -1.3622585387385149,
      -2.2921524140400242,
      -0.7763961574210884,
      -0.33039703510535673,
      -1.4031690383443596,
      0.8546722034121618,
      0.2860751182530446,
      -0.7107813433579654,
      1.0126637209061067,
      -1.4506703849449982,
      0.21088437735829713,
      0.6461731218774299,
      -0.3997001078225145,
      -1.1801683888468264,
      0.9894053895001524,
      0.5688817092394363,
      1.1675632271972383,
      -0.993018540008892,
      -1.342084649795643,
      0.4879013019514994,
      0.6968922964969337,
      0.29944441942934663,
      -1.0673046757411626,
      0.4205346582795153,
      1.0713247149549203,
      0.3957242806464123,
      -0.573683234458894,
      -0.7785253502396001,
      1.1327016428689753,
      0.5562437140500159,
      0.43096864948934954,
      0.33317919809503466,
      -0.7005411854873713,
      0.2912821322868461,
      0.013004345875116785,
      1.6749324001166652,
      -0.9830536350064918,
      2.2764257466165883,
      -0.21824455714332092,
      -0.15774670944675914,
      -1.620969814933285,
      -0.02466866985838395,
      0.37499630060505895,
      -1.1864080173577631,
      -0.7962616296089267,
      0.5864367859977503,
      0.3383100813576864,
      -0.48767653837654434,
      -0.15945887395028802,
      -0.615707993713075,
      1.141898424533331,
      -0.23582006103746195,
      1.4224132837814147,
      0.07692747048770276,
      1.9872614836701668,
      0.6237595612536244,
      -0.8846197042836351,
      0.257047710048392,
      0.33467470652964476,
      -0.24810431329743587,
      -1.588469773456357,
      -0.4290839524134879,
      1.7978435070112608,
      -0.9331908165316107,
      -0.5756960020663655,
      -0.5732585196408228,
      -1.0062498760281646,
      0.3239215081252539,
      0.48145539221168077,
      -0.3774613967377388,
      -0.02893567379887263,
      0.1373569997311093,
      1.609554313237842,
      0.8732983853989008,
      -0.31478197368925187,
      -0.9732870398864604,
      0.40505378256357083,
      -0.8419134192494058,
      -1.240867220125267,
      1.7349260973412801,
      -0.6614726724552262,
      0.5710030937161188,
      -0.4376314909355833,
      0.7402330409107563,
      0.5188840162763695,
      0.2521636898759282,
      -0.20610224154061574,
      -1.4454276463604672,
      0.6282378725670791,
      1.8884793322870008,
      -0.6869318265808957,
      -0.7032692160686345,
      0.5237314393822242,
      0.04147358224610376,
      -0.6377223634660599,
      -1.3182722116547083,
      -0.6923258137455702,
      1.5060802620142033,
      -0.45927555344809057,
      0.5180654339072319,
      -0.5119597650023383,
      -0.44950530919365933,
      0.2739463698526307,
      0.8011444880375829,
      1.3026358759274252,
      0.6231193816491125,
      -0.08822884514804863,
      -0.540189820168866,
      0.4784571590836161,
      0.12147269043160969,
      1.9428814368522445,
      -1.882617160087694,
      1.28730128513065,
      0.10791517714240828,
      -0.08647896931279134,
      -1.2070925723496386,
      0.18077270287088087,
      -0.9387597465073411,
      -0.7518371455730551,
      -0.615496877415831,
      0.1329266283108269,
      -0.6378548535187866,
      -1.030156632228084,
      -0.06554429976320747,
      0.6912349696452459,
      0.38577851213798253,
      2.082718838541366,
      -1.5062827956497067,
      1.4790049787682493,
      0.6782831012057953,
      -1.8173084828657338,
      -0.09778398636895957,
      -0.9194396918780372,
      0.21921380036415006,
      -0.03806402713618012,
      0.01267371828369157,
      0.6235388587601429,
      -1.9481396741995283,
      0.3580759706965267,
      0.4975070126794407,
      -1.7312627842571575,
      0.5481526396762121,
      0.29359564762447454,
      0.9346769415522002,
      -0.5776455548156489,
      1.2443026915970785,
      -1.6042347266512675,
      -0.10353966363723671,
      1.3144326221303348,
      -0.009326593367344538,
      0.8507384950144514,
      1.1273155286394316,
      0.1828414269428849,
      -1.4167518042050027,
      0.9234629576900514,
      0.5318399239786298,
      -0.583668685818943,
      0.07004194425795873,
      -0.463994812934565,
      0.4256359168539161,
      0.764216485995831,
      0.8066853785801221,
      -0.06762422621325814,
      1.805591623835881,
      1.6524609824844356,
      -0.4489114510233768,
      -0.6458112573962635,
      -0.6000266347867258,
      1.1364086436221408,
      1.250192954251732,
      0.4718612108793544,
      -0.609148843906125,
      -0.1266676526448121,
      -0.7456033731882518,
      0.7507150176453812,
      -0.08570107470565791,
      0.9411009829820444,
      -0.6335632570081096,
      0.07158634679730635,
      -0.905286965249156,
      -0.7653611713553538,
      1.7408287119242059,
      -0.5136926904674841,
      -0.38164183902536936,
      1.0020003599460285,
      -1.2414247934414755,
      0.3735724027428941,
      -0.7526446675320466,
      1.0231170571310244,
      -1.2669903653994756,
      -0.5383297071686575,
      -0.4500748437117876,
      -0.6729138885570866,
      -1.7964620893459369,
      0.9753216427854685,
      -1.1355163863046513,
      0.851728079712742,
      0.9103118694554998,
      0.6155753467124228,
      0.04015585511783448,
      1.440853661004506,
      0.2619521458182974,
      0.0825318269956497,
      -0.30441717522476736,
      0.9081789441365355,
      -0.07562922506438874,
      -0.550897200783927,
      0.3363852730701845,
      1.6819469596990722,
      1.2193255735505342,
      -0.49581437497262026,
      1.087122256198317,
      1.4919024382735706,
      -0.5344768369711365,
      -0.29660900593562967,
      -1.1238099857335797,
      -1.5682299914496856,
      0.4994868781424877,
      1.63353994862753,
      -0.295349819644561,
      0.5471651331592845,
      -0.17118710957703132,
      1.2898731692291507,
      -1.3573064837726496,
      -0.07583995498231458,
      -0.656799152012533,
      1.9055897823908332,
      1.4441870121368487,
      0.03716732460989175,
      -0.14993752916172304,
      0.4508639001197823,
      1.18593310114912,
      -0.39628356097668616,
      0.48173253846395947,
      1.5347667462443306,
      0.1267738074237954,
      -0.8359838325137892,
      -0.9261425544508312,
      1.7472034316810385,
      -0.5757226308238169,
      0.6956163990226936,
      0.8175468829178174,
      -2.2116274456587917,
      -1.8553695245581214,
      1.1597803117683436,
      -0.32405553411404525,
      1.494455149119294,
      0.17289276218222227,
      -0.41817650956623054,
      -0.417014553154032,
      0.905218331660234,
      0.3560184811422269,
      -0.011956316840910641,
      0.4486762833085836,
      -0.9881548190669466,
      0.5928748376836459,
      0.7757626489394094,
      -1.6109076410212775,
      -0.2139454047325039,
      1.3389752962873036,
      0.05139753465479657,
      0.051877944847186774,
      1.2991112915509995,
      0.6151931501636128,
      -1.671707215345883,
      -1.6624076177992038,
      -2.2450256839984206,
      -0.42117035190780694,
      0.384449537786698,
      -0.934219880246518,
      -1.0484524131768866,
      -0.9543447878310877,
      -0.6187258279292079,
      -1.055493762305125,
      1.5542665004680065,
      -2.0077553276416755,
      -0.9708968988837119,
      0.3370379451166945,
      -0.3266976993067521,
      0.07940038680847117,
      -0.5437795087133239,
      -0.6493523207289789,
      0.8341009798955891,
      0.17387118996601128,
      -0.051768771443793826,
      0.9384010746284798,
      -1.9483194658554008,
      1.314519175275878,
      -0.4882003394588405,
      -0.7852999266241146,
      0.14900822214955411,
      0.478523107591605,
      -0.26470867427250516,
      0.6893407500380283,
      0.16058705857747924,
      0.7464831038840741,
      -0.43043157166084456,
      -1.9196831235558982,
      -0.32998398275683627,
      -2.744083539643579,
      -0.3843615303681882,
      -1.2510302802424609,
      -0.7373401999691849,
      -0.7700578207985126,
      1.189416508370787,
      0.9937571579036526,
      -0.8053565452948996,
      -0.036733496350379896,
      2.3681138966759443,
      -0.0643716481611667,
      1.661869018738967,
      -0.46996231749185213,
      0.5867149954805393,
      0.9701682487909258,
      1.1333848752440396,
      1.6778792158868465,
      0.5357630819373655,
      -2.0891009261755573,
      -0.2980875092629478,
      0.29404697497877663,
      0.5696966110472674,
      1.1473462343709566,
      0.016869097397211347,
      0.762112413911531,
      0.5085516473885312,
      2.0293507274045974,
      0.7885481371904031,
      -1.271845935639472,
      -2.418546925217276,
      0.6929603060083709,
      -0.7151100423186496,
      0.0944664925935157,
      0.929245066353051,
      -1.28389258134776,
      -0.5736853228942479,
      -1.3556063802068608,
      -0.7463230137352034,
      0.14644677463176894,
      -1.592186089110393,
      1.7359970942489045,
      -0.12253167668945131,
      0.9637616243359527,
      -0.4750201001367129,
      -1.2772488065142586,
