{
  "biases": [
    [
      1.262161514763978,
      0.3455894937562567,
      -0.6490334541371137,
      1.788597050936966,
      -0.3759255129478065,
      -1.3971842552788805,
      -0.23191054077688977,
      -0.0638279200564611,
      0.43459518897108773,
      0.8594099443805803,
      0.3745597240111733,
      0.6352299419447233,
      -0.7589563584043262,
      0.16247709079999756,
      -0.20083282709014205
    ],
    [
      0.9232212435738612,
      -1.0871848860056321,
      0.3800265203896322,
      0.07852636783524691,
      -0.03277968312359131,
      0.45817643756856197,
      -3.2915733952083883,
      1.1084306059008828
    ],
    [
      -0.26650153728201376
    ]
  ],
  "weights": [
    [
      0.44968202698764936,
      1.260710127401674,
      0.7304206098671144,
      0.7688322777409834,
      -0.5737350169561368,
      -0.4651680094870464,
      -0.0025571911302615935,
      0.2696561194903869,
      -0.04847678632692887,
      -0.29231322284420036,
      -0.230035023903803,
      0.4320804957984512,
      -1.042547404061564,
      -0.47846211978449726,
      -0.9042037159448021,
      0.7894920367734962,
      0.20178662914112022,
      -2.194616121958802,
      -0.7011853790414082,
      -0.17222218754351407,
      -1.735749068309216,
      -0.8995787257758219,
      -0.7302144519041136,
      0.5178138983236327,
      0.7217638132867615,
      -0.2789253302610918,
      -1.3319483955480407,
      -1.4324547714231137,
      0.45959451863270784,
      1.0432528781285955,
      1.0291255248052744,
      0.07148329586012014,
      0.7869186146737123,
      -0.14126196978946437,
      -1.0006879774332667,
      0.7259241276312572,
      -0.844340255196709,
      0.2869540551134424,
      0.47602542113466073,
      1.084072138152829,
      -1.7097482983932544,
      -0.2938725226524573,
      -0.4012673657806145,
      0.7478913285936084,
      -0.7109806582613016,
      2.072821670008951,
      -0.51271727648762,
      -1.1104348973995108,
      -1.8765031700827368,
      2.0258035954674622,
      0.25955435707788155,
      1.4604473839168182,
      -0.4313466185015847,
      -0.5497822060623618,
      -0.08502247579691424,
      1.5800934725140316,
      -0.9261934466219762,
      2.243195342146005,
      -0.8747840678479467,
      -0.4724955214201118,
      0.42872886371747065,
      0.793130821160667,
      -0.6541563084589164,
      0.572185671819781,
      -0.016336786403586823,
      -0.5099843960908104,
      0.8405713091200855,
      -1.5304614522004123,
      -1.2282814452516364,
      1.824389293124085,
      -0.10329114848660226,
      0.915677188145899,
      -1.3363349219936473,
      0.02832465493197689,
      -0.0727391560774926,
      1.3915417148391462,
      0.29548957278959953,
      -0.20500533278947075,
      -0.4162980540651562,
      -1.8537235597408999,
      0.7762728359014561,
      -0.4352291320552427,
      -2.490722956313757,
      1.7944585221503886,
      -1.2098535974775722,
      0.32954953456723757,
      0.5995537861112605,
      -0.3266372900935951,
      -1.2024806585341001,
      1.0242738873037625,
      0.003984143881178792,
      0.3987540145701952,
      -0.5795769704994354,
      0.74988391302319,
      0.1925565934552198,
      -0.4419506520804628,
      -0.8345246810524408,
      0.8658357849203818,
      -0.0266147914577628,
      0.37191626418971657,
      1.1918367186127146,
      0.13181070700053557,
      -0.43246023730440764,
      -2.304935112076848,
      1.080571408740249,
      0.4937984073586756,
      1.1356220712681417,
      -0.3315355981507917,
      0.596629099731959,
      0.5645483835005409,
      0.9619691552757853,
      -0.6312482280461584,
      0.6151230643644585,
      -1.692155501993533,
      -1.3713985583681727,
      -2.7808959349680733,
      1.0764693353377424,
      0.02828330716525823,
      -0.24415449116010568,
      -1.524132590916722,
      -0.21100682035541524,
      -0.5841983600532128,
      0.21285749833634404,
      -0.22770269971012358,
      1.4921509806075148,
      0.8299720192770172,
      1.6033217636749455,
      1.312831484004196,
      -1.1482627541669437,
      0.603718266020068,
      1.2207037142969634,
      -0.4456196210856078,
      0.10910074809394127,
      -1.7486944435435752,
      0.8940931644699912,
      -0.3170411181379852,
      -2.010123550358779,
      0.8153524092238122,
      -0.5268164553519719,
      -0.8284611855801379,
      -1.6002540390464208,
      0.799123142448046,
      -0.39404792599462013,
      -1.0801992298038834,
      -0.6102242924885938,
      -0.6045316818147402,
      -1.0493053702153121,
      0.46507531373272354,
      1.8787818996017904,
      -1.13887554725866,
      -0.38382009546803697,
      -0.3650368269434348,
      0.4437789812729439,
      0.7320242804797146,
      -1.0928065719793216,
      1.5182283488454822,
      -0.2930521819383287,
      0.26343043147685186,
      -0.06864131941158799,
      0.5997480714924701,
      0.2450031221232063,
      0.2584168700901467,
      0.34840436525671037,
      0.4704700888507244,
      0.5571225260395674,
      0.6574835342561383,
      1.0131797024531135,
      1.0526376313294392,
      0.7624198742464592,
      0.05537864031835371,
      -1.3368636989791505,
      0.9635484781962301,
      -0.518777544675423,
      -0.6453522881153972,
      -0.1276222268097743,
      -1.746830724237682,
      0.2574568797281408,
      -1.3377760661642415,
      -0.11062434446650032,
      -0.8998303414217257,
      1.6055842413578496,
      -0.08204182897391638,
      -1.4828824124109568,
      0.26309385482950093,
      0.9246289813479885,
      -0.6953637278911774,
      -0.919286690241759,
      0.8477071233210509,
      0.8613025132995198,
      0.5883351916904623,
      1.8587696779695686,
      -0.48723786166442595,
      -0.05885259578349211,
      0.2551925347940482,
      0.8353636233151986,
      -0.6063280753471137,
      0.7023978052962152,
      0.06069016122812271,
      0.9863211509432255,
      0.3437947925405211,
      -0.2798101898342624,
      -0.5574403889307709,
      1.3459311862922212,
      0.25616668526849384,
      0.45232937976140875,
      0.371808170971587,
      -1.494383252436019,
      0.1588426708477776,
      0.5208847994016941,
      -1.759066444369643,
      1.3715649863820605,
      1.0461915361576946,
      -0.5321978026201974,
      -0.5534073775522255,
      -0.1780475055133175,
      -0.23940843817530136,
      -0.15113864944576016,
      -0.5218729898026778,
      -0.15179555377474685,
      0.9049212969971291,
      -1.4729509731820363,
      -0.06167515708269122,
      1.2194659752770458,
      -0.5640887891669156,
      0.4149974025732288,
      0.3852864211097289,
      -0.3957851620217315,
      1.6702118176610976,
      -1.4504677470387968,
      -0.1182748706431358,
      1.9045077842412264,
      0.06760067886212656,
      0.6321457762894793,
      -0.8317626843535881,
      0.6447573218136249,
      0.15922317065202485,
      -0.2929311737303488,
      0.28875637449361957,
      -0.6198957133677678,
      0.4679490562596858,
      -1.3832650837999443,
      1.8777960434485772,
      -0.41674884963754977,
      0.5662870301547722,
      1.431360897916364,
      1.6822718278225457,
      -0.012821235210043636,
      0.4074572226984232,
      0.8129289416399479,
      0.4488725426659068,
      0.9321388066916734,
      -0.6490001532438563,
      -0.1105292842890212,
      1.700629952413128,
      -0.6949232097197294,
      -0.7133025539988458,
      1.4808688277372912,
      0.768137777148484,
      0.7271311388241339,
      1.277726773287609,
      0.2514123522898132,
      0.17289258613001784,
      -0.4453818156996352,
      0.19950727172820162,
      0.5174339542079791,
      -1.3312922487162557,
      0.5543094765797729,
      -0.0978065572252993,
      -0.5535782526532093,
      -0.46983743070175166,
      0.10594249361005711,
      0.3806784105191212,
      -0.6196318383538353,
      1.9072619933714914,
      -0.7495235428639151,
      0.9279005144984762,
      -1.2531950307768218,
      0.7542020531635215,
      0.08632181022927188,
      0.49169733828450246,
      -0.29243683401220905,
      -0.1299073004503999,
      -0.7590974239652742,
      0.45128730509160964,
      1.03901603274821,
      -0.8341820507419262,
      -1.1032619067124814,
      0.3078322167248555,
      -0.39412569240495987,
      0.529084017648182,
      -0.7324176404232541,
      -0.7019999259145815,
      2.302080781067933,
      2.095307137587339,
      -1.0368061688590855,
      -0.47392724399534947,
      -0.7236384448879392,
      1.1105706265374362,
      0.9145892184314183,
      0.21110835445206005,
      -0.5927499824062801,
      -1.1651136834201359,
      -0.20579648242207704,
      -0.34290002804481534,
      1.261529494690509,
      -1.2322466232827396,
      -0.658716204872034,
      -0.4026505172065685,
      -0.10992128156598702,
      0.11954649296337952,
      0.4385599728504058,
      0.48124947092569315,
      -0.739395203605125,
      0.3426376341558053,
      1.4885041207811982,
      -0.6243538604036909,
      0.9875863354900218,
      -1.0236964590283109,
      0.34261788106104324,
      0.055654379726205044,
      0.21814918615673418,
      0.23227820074884947,
      2.1393071619840565,
      0.21269623711198654,
      -0.06835233502261162,
      0.4234602285920763,
      -0.9048250807838091,
      -1.4320402735699744,
      1.4879002418565372,
      0.3330070019462651,
      0.7810706551935276,
      0.37840869220070933,
      0.8321808403285169,
      -1.270592390882663,
      -1.6326323088269825,
      0.21208502102441731,
      1.4243224456087948,
      1.02707650712755,
      1.4768408610471093,
      -0.9850647480678104,
      0.5449526080743852,
      -0.00668382511547147,
      -0.9027646209383666,
      -0.1186066694396197,
      0.6005058067005757,
      0.07906904134653048,
      1.4455874831334328,
      0.8364556494205955,
      -1.2026596094530404,
      0.9265415495547227,
      -0.3074243765365966,
      0.5024685407734419,
      1.5446708619112997,
      -0.25341876500546634,
      -0.7528912400109184,
      -0.849660367512773,
      0.18485391056316586,
      -0.5659406924646522,
      -0.9079725249273052,
      -0.6538297178196902,
      0.8762195154136587,
      -0.9485754769419557,
      -0.577771957211894,
      0.5810701428262796,
      -0.41203693631319144,
      0.6730105036326984,
      1.1663082578551396,
      0.7990225501239578,
      0.30758716530676466,
      1.2872665414269555,
      -1.1254353825371286,
      0.791740459331302,
      0.12868765353947126,
      0.013386230403902993,
      1.0146106611514494,
      0.43841168053127255,
      2.0567944111171244,
      -0.055578801444140846,
      1.6008987247234518,
      0.3135283686511886,
      0.8785245048094072,
      -0.6894943462160742,
      -1.210336052527344,
      -0.03913097523579534,
      0.23096447367317663,
      -0.11812066162803347,
      -0.14297584562870624,
      1.2532651185425268,
      -1.3098465884512998,
      -0.37843532103236804,
      0.38538902022801125,
      -1.0897672933220506,
      -1.8961288442667144,
      -0.28833435938038776,
      0.7141995355465307,
      -0.8167007028594886,
      0.944646383677129,
      1.254921293323572,
      -0.7686467239903649,
      -0.5730828723781728,
      0.5043230224153419,
      -1.2052047957278722,
      -0.7157167554812738,
      -0.6571334270548983,
      1.6792542449318777,
      -0.8166030483421953,
      -0.295178075259928,
      0.8897244599043076,
      0.4480417446737137,
      -0.24385813365062492,
      -0.0822670442376845,
      0.3723574925126184,
      -0.5259020723120844,
      -0.098382376041388,
      -0.12325064033135602,
      0.4668746027333329,
      -1.2843754589123266,
      0.3385226139102572,
      -0.07385692988523185,
      1.1757335856000803,
      -0.5879878413931178,
      -0.5822836092359955,
      0.8859680311492291,
      -1.831956190137039,
      -0.16347462908272092,
      -1.2667640898179204,
      0.13442451387118126,
      -1.018587195098013,
      -0.46632384421367434,
      1.1827922817789887,
      0.23083622381115654,
      -1.8396506057432762,
      -0.6988382675423356,
      0.16857204009180543,
      -0.08729575503769671,
      0.15563338376240854,
      -1.1246576062289626,
      1.1324144752475558,
      1.9852251164234347,
      -0.26263929632952543,
      -0.6203942564950273,
      -2.826547133261623,
      -1.245334542054528,
      2.6894684292857858,
      -1.1284920531445821,
      1.5515291400769224,
      -0.9413106049591551,
      0.7584414837090415,
      0.31533357471012435,
      -2.3756741880427183,
      -1.394499069402313,
      -0.6665270444571338,
      -0.28053270620629733,
      0.2835234965141656,
      0.589512347256768,
      -0.2896602939012476,
      0.6172586639555222,
      0.8345047083554589,
      0.9031055523601381,
      0.3394147911431936,
      -0.23707608425280574,
      0.06454154160115289,
      -0.6199054093585771,
      1.147422715566215,
      2.4048620054544996,
      -0.41817129420264476,
      0.430356264120341,
      -0.9980285184356663,
      -0.7184300348321021,
      0.24934013462931404,
      0.45132636674687343,
      1.5460628761113278,
      1.0357709332339966,
      -0.3857727425176547,
      -0.8689933519780801,
      -0.566190968537317,
      -0.10363349256899912,
      -0.9547517069123262,
      0.22574266648816632,
      0.040831188728888246,
      -1.279264533881061,
      -1.9893180807328465,
      -0.13794407016424803,
      -1.3642803452633807,
      -0.3265721946187794,
      0.23049288698371062,
      0.3239141013880517,
      0.8041860343298992,
      1.0703218384590585,
      0.45586397437716114,
      -1.0918397384375174,
      -1.0103666304461414,
      -1.1777059945155124,
      -2.0048126234415133,
      -0.10633886352373323,
      -0.12813962896598408,
      0.9792689002155206,
      -0.22790458428904783,
      0.41890121721042495,
      1.4972703103766287,
      -0.1934083065604733,
      -1.2453649659672685,
      0.010098707370039234,
      0.39944601974701044,
      0.38068502225134004,
      -0.04626486883240788,
      0.10471384407686568,
      1.2757076694685483,
      -0.8248316276566818,
      -1.5746531136652324,
      0.9783486673044162,
      0.22080021065929567,
      -0.887283480103962,
      -2.608170214803173,
      -0.8683288288897344,
      -0.5391733815602804,
      1.030806248117976,
      -0.40385534622342967,
      0.9590089346199715,
      -1.0174798730598753,
      -0.40731953999175896,
      1.071525381515987,
      -0.7907467868741809,
      -0.05866801613882067,
      0.8896770186156893,
      0.3767619571080827,
      -0.3720221899781623,
      0.9133884485840404,
      -1.1234253505572327,
      -0.26322066823544077,
      0.3111427425128703,
      -0.43282744755923874,
      -1.0603428525104137,
      0.5357272040512052,
      -0.04379256763541739,
      0.09836268156480843,
      0.8672768373567543,
      -0.04675290108788893,
      1.2677736699119295,
      -0.881252757335818,
      1.6207156270618344,
      -0.1919958489485757,
      -0.5879376324766894,
      0.31333655940442473,
      -0.45626729966080803,
      -0.05573242842591458,
      0.7900999271351004,
      -1.0952442772173523,
      0.6128723846028443,
      -0.24749784463781108,
      2.1479350083060846,
      1.1187202546590083,
      0.1823963866936748,
      -1.5442937538298191,
      -0.007432877945889982,
      0.9618598578082613,
      -1.4017592241484604,
      -1.326388287050376,
      0.9277444946853359,
      -0.1250957353344866,
      0.5514463266290643,
      -0.07225019245321374,
      -1.3500450388138536,
      -0.5987330761259438,
      0.22213650887644942,
      0.4850070078249342,
      1.3789624434200753,
      1.131788341304523,
      1.8866546881158832,
      0.3543131216582379,
      -0.006798676978138296,
      -0.6328589614401676,
      1.8990863828948648,
      -0.43056317276175615,
      -1.1115356822045306,
      -1.0185560353929266,
      1.528826457503347,
      -0.16078311378894083,
      -0.786100926082445,
      0.14021569863114425,
      0.8070116541872285,
      2.0648192087566737,
      -1.8614839978481972,
      -0.29806098818442217,
      -0.24184678792796657,
      0.874414632101084,
      0.6966767932607987,
      0.4523647358315458,
      0.7829840681225628,
      1.6457485504203433,
      0.07116178006790363,
      0.5791783144577995,
      1.180931752768887,
      0.20493354364165173,
      0.8420907073771557,
      -0.775143749484237,
      -2.758541976278191,
      0.0606287546819146,
      1.2571369693057068,
      0.1354070458353629,
      1.48491373288614,
      0.7749358456427027,
      1.6807227718711353,
      -0.9787386664706688,
      0.43909732642752963,
      0.4172963127615073,
      1.0343292438331169,
      -0.8257317582745763,
      -0.15884803550345605,
      0.4866256698230034,
      1.10702950134222,
      -0.6589042713400817,
      0.17647681007443922,
      1.7913800170235437,
      -0.5296115011131313,
      -0.010499334227087376,
      0.2897224922695113,
      -1.325301495450053,
      -0.9248036228673044,
      -0.12806890890098888,
      0.974694609966873,
      -0.2547259520083722,
      0.43557592779473076,
      -0.600026555195189,
      -0.1936023079210497,
      0.555395523831347,
      0.2998585112906632,
      1.0662958448633315,
      -1.7758834248623672,
      0.048018254746578615,
      0.7770588263197153,
      1.0680458569458082,
      -0.46103954531440816,
      0.9354485065806138,
      0.970461954167108,
      0.31598112814359425,
      0.8839709797676271,
      -0.6834253945111062,
      -0.4910267162105857,
      -0.03547239715683548,
      0.029894312975674575,
      -1.176084348315655,
      -0.8255668168759753,
      0.8760270749966785,
      -1.0393367533278455,
      1.8422241327818984,
      1.310618732848692,
      -0.226851973567177,
      0.7867345149391266,
      -1.511706966569177,
      0.6274820503393831,
      0.09852129943096127,
      2.1064031154545115,
      0.08818699909020394,
      2.165988073977999,
      0.8225109169426112,
      -0.15264884958302982,
      -0.45769672636168035,
      0.7697909079909362,
      -0.22063590660651453,
      -0.30797696208126185,
      -0.5066662069276404,
      0.5575596931589801,
      -0.9278560004049713,
      -1.4144780425821162,
      0.4657827980786313,
      -0.8650598063225843,
      -0.45920739649917053,
      -0.7358759376275973,
      0.38435461061758286,
      0.4238843928417987,
      -1.0517730368673601,
      1.493125234604387,
      -1.0943404800138596,
      -0.3893780531792901,
      -1.0416511799822605,
      1.0012135297704143,
      -0.5099621644765852,
      -0.2518416006880805,
      0.6083952508847007,
      -1.5066479064883538,
      0.3876276723567287,
      -0.8331582866676925,
      0.7399077569049262,
      0.28911370769657796,
      0.39009300625670495,
      -0.7644094265875958,
      -0.9772346208246907,
      0.41520151599984256,
      0.46749872842752016,
      0.24543962626379515,
      -0.6867540919386786,
      0.4766999357845899,
      -0.025993532835398514,
      -0.4295650220258156,
      0.8310032011216034,
      -0.9727614592305329,
      0.11225835768954726,
      -0.8123350725827958,
      0.7070052122761794,
      -0.2866519987138791,
      1.878106936067574,
      -0.3800199260586613,
      1.6165534753851718,
      0.10154642426965088,
      0.2378602609896644,
      1.391458120502831,
      0.955597592476763,
      0.8466928125371782,
      -0.37087250368902147,
      -1.1186213330887984,
      0.9531053527568996,
      0.3259342782765622,
      0.6396277688387515,
      -0.2611428917833283,
      -0.4958871314986271,
      -1.0525297113402818,
      0.2873359133847587,
      -0.6580764063653772,
      -0.414676630358857,
      -1.9241262821096559,
      0.7732583951380173,
      -0.655784652388004,
      -1.249928217013771,
      1.2334812917572084,
      1.3046524614160868,
      -1.4453730855633071,
      0.27319774773470556,
      -0.21554945924856145,
      0.7197521487148301,
      0.29652599377176964,
      0.013465570396655413,
      -0.21006323764232537,
      -0.5293683689734869,
      -0.5948100499302994,
      0.3774598025123346,
      -0.2595301920343793,
      -0.1175891361556646,
      -1.6667915505131816,
      0.6961354581794063,
      0.25297878915505057,
      -0.7409415306029727,
      0.8733631351052346,
      -0.22173979292988505,
      1.2826003552501266,
      1.8747584945034919,
      -0.43568644316747507,
      0.7449516748056055,
      0.009057519722527552,
      0.30769344807884935,
      1.2436168599426756,
      -0.8682141017228676,
      -0.03708554539729292,
      -0.0717088250317095,
      2.574394671141462,
      0.8390313594620202,
      -1.0740195935139298,
      -1.0652288082882864,
      0.11287261841243379,
      1.5750948559386906,
      -0.39238420082420833,
      0.3839017831440482,
      -0.7046708549143395,
      -0.45998231021338126,
      1.1933784500915943,
      0.7310531570077793,
      1.5857475774608876,
      1.65564201289967,
      2.7453422436206973,
      0.8964971032952418,
      -1.254770416702855,
      -0.49118567009392033,
      -2.1240630490352577,
      1.0242568596778838,
      -0.24304018987270387,
      -0.2567455785130327,
      -0.7991208171971748,
      -0.18658285024865934,
      -1.1499727930456058,
      0.26100044737951655,
      3.1049455989410704,
      -1.1006812655009772,
      0.6087922124142462,
      -0.008209002356430517,
      0.19480213191255658,
      -1.1482054949557565,
      0.2874229086959852,
      0.3085071900142561,
      -1.462905245401609,
      0.10306249336322626,
      1.1015336302768328,
      1.1391839225980547,
      0.9490449554315544,
      0.3995470827748825,
      0.38493870537649144,
      1.7728443829136935,
      0.8581398740175938,
      0.9790681895420272,
      -0.3183541691611273,
      -0.3616051476318336,
      0.07354075736451982,
      0.16155312900652224,
      0.8712916720758623,
      -0.8140603296773539,
      0.9083708395933865,
      -0.8748391602832819,
      -0.23194378213478506,
      -1.1997778270368185,
      0.2348178436984939,
      0.4208721362344764,
      -0.5745267834060428,
      -0.6183846415962487,
      0.16508703595780688,
      1.3314998776288245,
      0.1583038407161741,
      0.7295967671519648,
      -0.3592650417180776,
      -0.30983537166095615,
      0.46372404893438857,
      2.632077081096922,
      -0.25516538820735524,
      -1.099758549566018,
      -0.30924108544646556,
      0.2586996341971499,
      0.42675166005761456,
      -0.5387033846586924,
      -0.8702743403168178,
      -0.8421445756690588,
      1.0014222377051798,
      -0.7019010015848615,
      -1.1781107573037852,
      0.09341366842347071,
      -0.6921295880974052,
      1.0088215189530216,
      0.8425809109531845,
      -0.7648217067249881,
      1.3658821814430189,
      0.15422544582356534,
      -1.5449713504931708,
      0.01951755641580455,
      0.169929125911725,
      -0.46385736456187404,
      -0.09954544405909616,
      -2.1027196931031593,
      0.08331425361901179,
      -0.3490366308728003,
      -0.17406249251167605,
      0.13262671570461682,
      0.6088403395669739,
      0.5099054439160757,
      1.5712516609169693,
      -0.033783588121088504,
      -1.229698059734551,
      -2.4105639087928488,
      -1.704060700547561,
      -1.5745623744205508,
      1.0606949935389347,
      -0.3322178431792684,
      0.5345442978370556,
      -0.7879840355370081,
      -1.3781469295010007,
      -0.46812628701769277,
      -1.255740913670745,
      -0.5125326357138184,
      -1.3392719203669117,
      0.06974899532315326,
      -1.3850538509813453,
      -1.3172911809091494,
      0.5023308620790243,
      -0.6090921871201088,
      0.7498698698476263,
      1.5062404700661454,
      0.503005465140067,
      -1.0649646847443741,
      0.4162119671507337,
      0.7919309020820167,
      1.061700724503436,
      -0.4524359317861586,
      -1.0197338339110145,
      0.636467431342163,
      -1.5993482197308506,
      -1.0103280725562631,
      0.8468664802314592,
      1.4118787973666036,
      0.6113429346924388,
      2.912431614917125,
      0.7817775313451476,
      -1.0431211683334123,
      -0.31305322141291236,
      -0.059567423205963976,
      -0.27002148820392,
      0.5774029320613044,
      -0.0620670102288392,
      -1.518634106212881,
      0.6593396369450109,
      0.7370359092371539,
      -1.0324661886422772,
      1.3392717791306503,
      2.767464642288122,
      1.9308651354506878,
      0.31027449108682204,
      -0.3739324687610328,
      1.2108967461525098,
      -1.5824389139242918,
      0.5137302892155164,
      0.31066361532672404,
      -0.21472677793757144,
      1.1412196661093612,
      -0.13478261356895585,
      -1.0907076027827642,
      -0.20580287654605467,
      0.02625314229156306,
      0.7576745888053908,
      -0.6809953410461729,
      1.148405508415577,
      -1.1004672694733182,
      -0.6356409336246164,
      0.5633026673515722,
      -1.6391503580967834,
      -1.9783831348190255,
      0.7563088885479933,
      -1.285551132166204,
      -1.0404809253579066,
      -0.011540762488377543,
      0.6714942893259938,
      0.5198376668953462,
      -0.956814573252251,
      0.5175799971351394,
      -0.1791003606015984,
      0.4641780187767729,
      0.6152301805461421,
      -1.15298219351267,
      0.04626113047391517,
      1.392133045901611,
      -1.8655197536235653,
      -0.360741037586228,
      0.6107551911620197,
      0.02147725953552082,
      -1.1820434928649146,
      -0.6598645095214256,
      -1.2988842321044236,
      -0.6205060361061276,
      1.7483829016949388,
      0.06617316264918571,
      -0.133865858748028,
      -0.241646367278472,
      -1.2474137133957703,
      -0.32761511440124735,
      0.8012719831642724,
      0.16292011879731316,
      -1.1706877747088151,
      -0.2169270022265482,
      -0.8907684452047196,
      -0.6120509089596087,
      2.0669481507996768,
      -0.008565549914618664,
      0.41599596445210496,
      0.8384701736116289,
      2.243647466545606,
      -0.7458923178188576,
      -0.35366461693010154,
      0.1114723379041467,
      -0.7436149855310574,
      -1.388013661262601,
      0.005476074099459716,
      -0.8448395946112436,
      -0.255488986211464,
      -0.4797954603375036,
      0.6288295564176631,
      1.8374623662512324,
      0.204079276596631,
      -0.4301397321375442,
      0.46166668340069317,
      -0.15176065884675016,
      -1.7031403026192042,
      0.9620326873695606,
      -1.4920198072143256,
      -0.3559297639275022,
      -1.1542502474280458,
      -0.5024624693279861,
      0.325199283367852,
      -0.15310235224405694,
      -0.5458017712917884,
      -0.36261674858009685,
      0.6722491998196386,
      1.1114919154429628,
      -0.11979327494389533,
      -1.540026216439741,
      -1.41418222492753,
      1.0430926591687184,
      -0.08011014502080105,
      -0.43815630759230384,
      -1.7039567564485525,
      -2.0221589212957585,
      1.1273388492530623,
      -0.7894093447611346,
      -2.1752376348816163,
      0.7343119022694897,
      0.5797987467272137,
      -0.8051861741382987,
      -0.47327300600473793,
      -0.11290806582288707,
      0.28889889289774906,
      0.05573134939953528,
      -0.4149303111628585,
      -2.3014568168075233,
      1.0011090624420158,
      -0.9530707873287819,
      2.1034385055968787,
      1.0513242112700845,
      -0.2915122211919623,
      -0.7707877069534009,
      2.2695100255915475,
      -0.31571122390027184,
      -1.6367443719577297,
      -0.7225816154728395,
      -0.012712150818760426,
      0.040741426139848325,
      -0.3858931505059602,
      -0.3124005183790417,
      -1.470057080337035,
      -1.5757869425579205,
      0.04191556157758086,
      0.15112983415344783,
      -1.6525414741508015,
      -1.384895846883634,
      0.9242434318635806,
      0.5708668344834464,
      0.1507273013101207,
      -0.5315090831146512,
      0.38277182145751787,
      0.8602954249067942,
      -0.07027295965856495,
      -1.3495849727902542,
      0.7652287549989509,
      0.018636941363841197,
      0.7010269155976023,
      -2.4623314111735417,
      0.7291955940057692,
      -0.33725956398764634,
      -1.1410913381360819,
      -0.542339506409816,
      -1.3065874485611522,
      0.3156421141413007,
      1.8452211714889013,
      0.38604439283854397,
      0.8921303439936917,
      -0.6048560384765115,
      -2.493407015784911,
      -0.5375453485949675,
      -0.2495376593418383,
      0.37234161973293944,
      -0.8516187611022463,
      0.6418850446222581,
      -1.7427787474946093,
      -0.7142635059324665,
      -0.8164986516360309,
      1.5278760239906606,
      0.572575364423997,
      -0.3822071528153844,
      0.6684421032392147,
      -1.0563304235480073,
      -0.5499273356043421,
      -1.5886387136849442,
      0.6480906684307253,
      1.09682978196731,
      1.6456695950160416,
      -1.1064348340480257,
      0.98180329695684,
      -0.2943352985883366,
      -0.2420396754461498,
      1.1923728789790986,
      0.04996178046806887,
      1.1591146384825057,
      0.27267393548081087,
      0.016524127566435065,
      -1.0169803770122017,
      -0.21281756517914707,
      -0.4874874455654473,
      0.603326888956196,
      1.695793758626879,
      0.9211503604858815,
      -1.0565249583053946,
      0.07225700873510182,
      0.8671551742810274,
      -0.16329754262717017,
      0.1680091048221467,
      0.7447465263892896,
      -0.024421430460336596,
      0.3120549743852058,
      0.13839288539881334,
      0.006029277984940129,
      -0.6022851979324934,
      -0.6271487904519881,
      -0.6249742692082015,
      0.9573376372301378,
      -0.469969443540862,
      0.20722313821389204,
      -1.0582058861430976,
      0.7180081972330049,
      -0.8485362771232846,
      0.6647537037208193,
      -0.0071969606833661715,
      -0.42281293425013,
      -1.5262116604360825,
      1.8378827237709454,
      -0.15784698258623742,
      0.2347379395964223,
      -1.592689356687642,
      0.42049991419629806,
      0.776544982519576,
      -0.709079356261888,
      -0.3805621507259538,
      0.316943092357391,
      0.7267487580717416,
      0.2666525429796233,
      -0.7711009615635214,
      -2.843033077298576,
      -0.22593464789022802,
      0.3844045269884863,
      0.5018336944570333,
      -0.5711968818340106,
      -0.5527663160532039,
      0.8997533021508008,
      -0.12501245637110234,
      -0.9764047019278749,
      1.0036642224517447,
      0.7832470245657281,
      0.050138210993527776,
      -0.821343866703767,
      -0.3354761618358088,
      -0.8881463487106729,
      0.8175894942883886,
      0.4874520791499568,
      0.5173342012334889,
      -0.17357799501961804,
      -0.7166515859037403,
      -0.33700677378295907,
      0.09242845124235455,
      -1.8833249689263847,
      -0.10054918402988382,
      -0.2573531744100821,
      -0.017214028787440605,
      0.2574335341343881,
      1.2977482928238615,
      -0.20955181537692352,
      0.22071092911312418,
      -0.44978419590638263,
      -0.8783077378217925,
      -0.6810626942556032,
      -1.6464187149996397,
      -0.33060914718944595,
      -1.0108622496509143,
      -0.13444721721857422,
      0.8410563642229365,
      1.209002452750159,
      1.3285625734955506,
      1.0974134811030245,
      -2.431612517248084,
      0.3423550700508141,
      0.1300890026404419,
      0.09305786228209645,
      0.6696752024347674,
      0.08164422898745999,
      -0.44873488953186924,
      1.4947080118759972,
      -0.7894143709213677,
      -0.1540294649134235,
      -1.123243215129858,
      2.0773105017511133,
      -2.002722734012873,
      -1.8060020275749262,
      0.49835906339528635,
      -0.5119111548285012,
      -0.16015264704660903,
      0.9165380686046372,
      0.9735549385216284,
      -1.5093241905971393,
      0.4791911957315284,
      0.4699786291200294,
      0.16948399053487098,
      1.5730336443955975,
      0.5842546638191308,
      -0.1370232913352612,
      0.9309076409860495,
      -0.6707026743478478,
      -1.0940701601503668,
      -0.13079110477285433,
      0.03750650429714686,
      -0.8026723042099825,
      -2.220729471968947,
      0.007986800807317784,
      0.02410923414008559,
      1.0476289686503422,
      1.390699446816885,
      -1.4680733424097792,
      1.868118202020899,
      -0.21354440655479923,
      -1.6293025952001283,
      0.02944304522672031,
      -0.7491486945002753,
      -1.32850392559503,
      0.5764331142436923,
      0.38147779252939606,
      0.6523699221702455,
      -0.5884983943330058,
      -0.23385136436577558,
      0.7171590497115661,
      -0.3193570774865655,
      -0.3535235803236263,
      0.46886888980875313,
      0.6316051108419172,
      0.13955270159012656,
      -0.09732786646711844,
      0.007432959271007178,
      -0.12155942933222014,
      -0.7216319546836569,
      0.14750487590097883,
      0.6783652254190011,
      0.5940410313596745,
      -0.749974318880845,
      0.34935987801215873,
      -0.6390473031372748,
      -0.9784741347658356,
      -0.14646969700165657,
      1.332133984520173,
      -0.8713220879952372,
      0.5629004634994332,
      -0.041172069104978504,
      -0.4030029152840203,
      2.162975549294539,
      -0.6579442796033355,
      -1.20553844221579,
      0.9278200455785318,
      0.25236939313055384,
      1.5169353320422108,
      0.851763224632152,
      -1.5616109818651378,
      -1.2282255838451335,
      1.1699616995105446,
      -0.09690188536562644,
      -0.40302958926733257,
      -0.4791589343351653,
      -0.3272044709656721,
      0.0067668260169795325,
      0.435825794067334,
      1.9039135381804395,
      -0.8093452274376813,
      -0.7404566433952343,
      -0.9458999658779382,
      0.7676706257629913,
      -1.499630873075763,
      -0.6251323221378224,
      -0.35474446659141334,
      -0.5517603466490077,
      1.186592652387868,
      -0.42585146108772753,
      0.7080930644526449,
      0.3501335365028032,
      0.25823484582910594,
      -0.9351099179920919,
      0.010219579151994965,
      0.6290139511608972,
      0.44544275045294907,
      -1.8172308384478963,
      0.45851786373573733,
      -0.08587414571457738,
      1.8527755048878585,
      -2.4625985741463365,
      0.47579243745034905,
      1.6249941987751706,
      0.5285816160356449,
      -1.2604577973923803,
      1.1208996320350995,
      0.2448228472092585,
      0.06702113844582414,
      -1.4998771686740149,
      0.078634246052949,
      0.6032472405800549,
      -1.4546150313961868,
      -0.4537809980973506,
      0.7147212526816493,
      0.018206359314444365,
      0.306029478635404,
      0.4402861162487512,
      -1.7330891519269795,
      1.8958201370285717,
      -1.0475630181203173,
      0.9964394650233994,
      0.15620179732650363,
      -0.031561167760615766,
      -0.05842800501779649,
      -0.028661212426163596,
      -1.0243037924507439,
      -0.4649674942744956,
      -0.3091124355568188,
      0.5483673870549455,
      -0.7145784605432028,
      -0.5613447576388282,
      0.4308912464729881,
      0.9401850466722163,
      1.9167279112485924,
      0.9097281329903188,
      -0.194570772519165,
      -0.8406044590545916,
      -1.0193386114287817,
      0.12520028059662922,
      0.06641043730352458,
      1.0365167526658392,
      0.05438095010988736,
      1.1359413565855796,
      0.9299989129232289,
      -0.7101444330576218,
      -0.25181400731247816,
      0.6413787627257894,
      -0.3972214385502043,
      -0.3793799569573388,
      1.1625156158412029,
      0.11336439823204508,
      0.2635069917504822,
      0.7216368749123974,
      1.0587273649926294,
      0.014566997443595464,
      2.218243462085674,
      -1.026656587746674,
      -0.8153170571148932,
      0.36904858220172015,
      -0.6169262057800338,
      1.1133513809507753,
      0.0982459939854261,
      0.9124550767237164,
      -0.10106718408259441,
      0.03237102941912018,
      0.6149689992658435,
      -1.9429888217558438,
      1.134112855449,
      0.9334621339151812,
      -2.1528164389073434,
      -0.3872689687824083,
      -1.2424645739280364,
      0.8984556619915836,
      2.397002823544093,
      0.6512234950676643,
      -0.21468874400248722,
      -1.1015986374863829,
      0.3925446039156223,
      1.465637849681752,
      -0.5693823575272252,
      0.6411611435505369,
      2.692400195852272,
      -0.6717170443597409,
      -0.45870670656825163,
      1.3588648492044053,
      0.483200006665796,
      -1.37287524831715,
      0.48138956969970903,
      -0.9212908871220193,
      -0.03069349375668412,
      1.38778260861071,
      0.21430242496472143,
      0.18645556934666352,
      -1.6655655843922608,
      0.23431895251809276,
      0.9316014046177781,
      -0.3204066887092325,
      -0.6498966768120189,
      0.19315041909937453,
      0.4343886580096452,
      1.0687855203843286,
      0.08291045413782003,
      0.8601096607844451,
      -0.3548671786826537,
      1.7386314910731282,
      0.49964712506335185,
      -1.2235150614579373,
      -2.373662726451613,
      0.9659062421563114,
      -0.6346033350437452,
      -0.6417962529599617,
      -0.7837455988499227,
      0.5248452167140429,
      0.5239522629813135,
      0.14705913058958353,
      -0.3206554347129945,
      -0.2799336760780667,
      1.4597226763700641,
      -1.3341461184769448,
      -0.32167644387135697,
      -0.21189424340790713,
      -0.15624651612731966,
      0.6780704189504296,
      -1.650516693537132,
      2.1558693535743556,
      0.3406281317065767,
      -0.20818166172350772,
      0.07987525847867563,
      0.7686713007472175,
      -0.18736367086964967,
      0.5797704710275335,
      -0.9889180437417222,
      -0.5523588819322696,
      0.6238128776639926,
      1.6265592130869786,
      1.5806788242606897,
      0.9239231641721619,
      -2.0881316939593475,
      -1.5397716574114035,
      0.7974123255822835,
      -1.8669664406090898,
      -0.3814732417675071,
      -0.8716579975826357,
      0.7783974488535921,
      -0.7225214538550537,
      0.6186101402512189,
      0.9640814961583094,
      0.15955232244169976,
      -0.0318549417249665,
      0.5058416242975559,
      0.07140961064555551,
      0.24567068750246213,
      -1.0870929173173902,
      -0.5066829636557348,
      -2.7723573888017516,
      -0.6001896188887645,
      -0.7759509218023303,
      -1.505445120926266,
      -0.7855587119481189,
      -0.3654046508942077,
      0.9833273345813164,
      -1.5697925855501673,
      -1.2612743585245487,
      -0.8018119885088825,
      0.34343645587332694,
      -0.19317544579316728,
      0.9584577111082129,
      -0.22450873250288286,
      0.5973956155045537,
      0.2733652311239436,
      -0.39132454181918785,
      -0.2529699428099945,
      -1.1509871822533027,
      -1.0720792223448445,
      0.4229933449034138,
      0.15699594459246458,
      -0.5256233724414304,
      0.799226350718585,
      2.1436671289692835,
      -0.6838449450470011,
      -0.8623956588659215,
      0.8079513634796264,
      -1.4262237675123066,
      -1.416157126874051,
      -0.5186831540682568,
      0.7490055948062627,
      0.3192497746528328,
      -0.2557626814732463,
      -1.4123289303004967,
      0.23575658237964559,
      0.8361862291209055,
      0.22103176730300955,
      0.6726099368374657,
      -0.0019512042124465445,
      0.06011746446290556,
      -1.9616644093806839,
      -1.4215667258622096,
      0.836493490843127,
      0.6830354700790339,
      1.0138873332100444,
      0.9084891179242696,
      -0.7940853470036633,
      -0.9680238522011919,
      -0.19593281184052486,
      1.3389746788356578,
      -1.7638833050707898,
      -0.5511568377264453,
      -0.3151124514613699,
      -0.9007987300921894,
      0.11333338238114138,
      0.0779959348250624,
      -1.4985111390251011,
      -0.10433141361778486,
      -0.9032256622137855,
      0.1478990178530429,
      1.0163073002993723,
      1.1322597492360909,
      -0.9434409504628497,
      1.7939452479325162,
      -1.655010526083089,
      -1.5445759918093596,
      -0.012157556105312772,
      -1.614334614903811,
      -0.5307106977331009,
      -0.5100157952921099,
      0.5231679826610662,
      0.41253793608079137,
      0.9178609917588143,
      0.6634998368927714,
      -0.5954262259480962,
      0.07660689347441096,
      -0.7820841340829117,
      1.7142143315534577,
      0.2900683788238396,
      -0.00676405317578932,
      -0.200092636550318,
      0.43664758131781356,
      -0.005851775563701311,
      0.7744519197934856,
      -1.4584836532222152,
      0.5631881114146067,
      -0.8302170058743341,
      -0.28056512413307455,
      0.7419692860345308,
      0.7013867085264689,
      0.43201351018117484,
      -0.8139804580769532,
      0.567510848608987,
      1.9158589454898558,
      -1.0050681536035886,
      0.8928488363765323,
      1.159882023403197,
      2.1834280392067456,
      1.6598858176766669,
      -0.40748573630384183,
      -0.6529285135513158,
      -0.06291957861541209,
      -0.750375399013519,
      -1.109351986006232,
      1.8550073946700385,
      1.0937502494924878,
      0.5753988376673798,
      -1.567502764922522,
      -1.1778690240051226,
      -0.6713817912030398,
      -0.9732920781144078,
      -2.8394914480538773,
      2.524900663129197,
      -0.21788482275860727,
      0.509434279838629,
      -0.6665349471141633,
      0.4801515127392859,
      0.5539494700339553,
      1.2004613247282885,
      0.7618668872784556,
      0.31152878316574384,
      -0.9457364318359598,
      0.5753270873130871,
      -0.7645167607232437,
      -1.0229370339732995,
      -0.13767260441614648,
      0.03598679156256124,
      -0.3707072784506691,
      1.3018308676875732,
      0.01048283155792018,
      -0.41114687593304844,
      -0.6211342084830815,
      -0.5159349860333508,
      0.2218573156131578,
      0.8621118336963032,
      -0.3100570872678837,
      1.8308141000345348,
      -1.7430662256993887,
      -1.6923218600887207,
      -0.9038778991585307,
      -1.164345178856528,
      -1.34742915685398,
      -1.384838205840972,
      1.0770570555768373,
      -1.6063201393616373,
      0.03363214754788901,
      0.9686054289807807,
      -0.25310622182934517,
      0.7184416971445113,
      1.103415252326796,
      -0.8338227915907628,
      0.29295139471592346,
      1.448001331116485,
      -0.010549684671508519,
      0.9283079599599775,
      -0.8385682318838192,
      -0.5546541176622118,
      -0.9945973460053282,
      1.8583636482670567,
      -1.4241647444920118,
      2.065808562036231,
      0.3987261485711553,
      0.06195221663676467,
      0.9384401258700692,
      0.7358249647165004,
      -0.47740955139245034,
      -0.7736878730629807,
      -0.4804739605024602,
      1.3266416082273913,
      0.37263763269666766,
      2.455092881368013,
      -1.3698514843252712,
      -1.642913115343049,
      1.2645379205172411,
      0.22914493332561875,
      -1.329118565967114,
      -0.5534300927436062,
      1.2196794716617325,
      -0.5591669544632288,
      0.4296381984841348,
      0.11973271772712096,
      0.6957289222474006,
      0.9586103030405739,
      -0.8929977479795028,
      0.898421030898095,
      -0.43325474705675077,
      0.6124915664207063,
      0.786209526716106,
      -0.47944431324690606,
      -1.1667820081957676,
      0.18050304159196146,
      -1.0642922830246708,
      -0.18916719171811014,
      0.7806956772023405,
      -0.40026527471437745,
      0.044483352135368665,
      0.8628838528805829,
      -0.4172596065671391,
      -0.9832703124492557,
      -0.3187048392744716,
      0.35098936134180736,
      -1.1850047692163548,
      1.4245113430551475,
      1.1682972469493773,
      -0.5304788352595535,
      0.32510861972379956,
      0.554601195996447,
      0.36855283111305454,
      -1.5475534135963593,
      -0.009758400459664585,
      -0.4585268747108776,
      1.2780310966142807,
      -1.5004811535998996,
      -0.7975073223327298,
      -0.19538134698095205,
      -0.14000255220414193,
      0.36864472665591064,
      0.4535338640753718,
      -0.9242018367979842,
      0.8979270011466063,
      0.8389640493078154,
      -0.42116684375630875,
      2.4595610107784056,
      -1.5085664247928365,
      -1.2597794124328958,
      -1.015558404670995,
      -1.632433674874517,
      -0.3154160045892257,
      1.1306010465272873,
      -1.7794251900411955,
      0.11279887688723303,
      0.694507143975097,
      -0.09595860401243622,
      -0.8303061858071692,
      0.9237018613639517,
      -0.25168094968469934,
      -1.0360138817364541,
      1.0259468267464982,
      -1.2080027843512857,
      -1.4250905927137756,
      0.10057367293314134,
      -0.4067127702867175,
      -0.5229832833260577,
      -1.1297037342620397,
      -0.7976524353170213,
      0.4720987028608352,
      -1.574102607457974,
      0.20259883682243607,
      0.9892075883729889,
      -0.6570708996674246,
      -0.11991551364387937,
      -0.8529527364600661,
      0.043161987864047346,
      -0.8083644027027662,
      0.03262394370307897,
      -1.0967045569762588,
      -0.09896608303161858,
      0.3382251939927228,
      0.730577384366706,
      0.5233885340346947,
      -0.9241030147686822,
      0.29115314722980956,
      0.7995617940584301,
      -1.2338218327758335,
      0.5258439327718806,
      1.9806236265634185,
      0.6951125198151713,
      -2.812432126882532,
      -1.0122801978701312,
      0.44260879874320974,
      -1.2777943802715646,
      -0.6321854079578699,
      1.1980031842624732,
      2.105669890707993,
      -1.0042639640914517,
      0.32848170484341577,
      2.219792979254895,
      1.2539853567781094,
      -1.051083733250791,
      -0.8317237266945626,
      -0.8783137307406657,
      0.4032508400442574,
      -0.37507630094580025,
      2.4690734433853687,
      -0.1210138675357953,
      0.8420006826217384,
      -0.9248809341988746,
      0.11454822003608689,
      -1.136541701755788,
      0.050126899867409924,
      -2.2540416445870197,
      0.7774516659312023,
      1.7055415701040562,
      0.9164977368365377,
      -0.6010597826557169,
      -0.6461825829077368,
      1.894661956937624,
      -0.6625479108902574,
      -1.7611301394762913,
      0.07636941668330677,
      0.4566977101893596,
      -0.558668406068926,
      0.19833515536392032,
      -0.18607428494962241,
      0.14422845109178195,
      -0.14784191971030086,
      -0.4711533975102009,
      0.20482573030336304,
      -2.1082047639530477,
      0.4886297596866907,
      -0.2594084369197469,
      2.321240207923272,
      0.6281022870569706,
      0.5598100520663124,
      0.6408574514744751,
      0.20013646124393614,
      -0.9138421566231762,
      0.5514545920475031,
      0.3512849541997819,
      -1.853603788233844,
      -0.5069956368524362,
      -1.1138320570752567,
      -1.2455625156713848,
      0.3649546140284524,
      -0.41217847733306917,
      1.083865746541067,
      0.5001257073826328,
      0.05526393142743391,
      0.044877231661067496,
      0.6369971016014271,
      -0.6514504955752265,
      1.0689470240601402,
      1.3716784056758324,
      1.9399396255682666,
      0.852318981886161,
      -0.03661868083852016,
      -0.187243611420721,
      0.7511356983859737,
      1.2967786573987352,
      1.2004420760654564,
      0.7203745778209772,
      0.026234218418161925,
      -1.466873016977038,
      0.8237921677486718,
      1.166803839152207,
      -0.5206071867836861,
      -0.13989459288207967,
      -0.8642478807651306,
      0.7725690273390942,
      0.6890899840219414,
      0.403484034622967,
      0.7953969952336133,
      0.35868466581429537,
      0.7269551883231583,
      0.656009271042364,
      -0.3284925348862303,
      -1.1948017267379942,
      2.87701755425157,
      -0.27093297996617643,
      2.05285840976375,
      0.5014320197462787,
      -0.43769846336148516,
      0.06601104941158109,
      -0.154827575945014,
      0.7583487411160017,
      1.0431103731336844,
      -1.0521535749138469,
      -0.633027558608994,
      0.13248804608685294,
      0.3815412915435722,
      -0.42051266365454654,
      0.7733029945425973,
      -0.13640362445599832,
      -0.48526495112456314,
      -0.8278146084854754,
      1.0572738830659678,
      -0.5986697911502077,
      0.9170052386399798,
      0.3440130766715713,
      -1.4073537688580413,
      -1.4044473114985914,
      0.06297585520529264,
      -1.35036704985363,
      -0.14012743426723012,
      0.5459663435828148,
      0.4197089404625389,
      0.764637074690762,
      1.88189736813698,
      0.7403519603956334,
      0.003692860011708654,
      -1.2325743850700193,
      -0.512164106703131,
      -0.9440635710318781,
      0.6337918031551774,
      0.08703651482453517,
      1.173741977068405,
      1.0087765147934933,
      1.534437544694808,
      0.7303826944712252,
      -0.7358316201245785,
      0.6882995523414026,
      0.7615988527742839,
      -0.5440319975248475,
      1.4947250252792907,
      -0.1958158209569011,
      1.084561409380806,
      0.7237574799737596,
      0.6124095853548297,
      0.016091205737630093,
      -1.3210443222406205,
      0.34549446216121965,
      -0.2758377537931922,
      0.32996306945231235,
      -1.3233073519743233,
      1.534385140950378,
      -0.8856361205808249,
      -0.058419651512206516,
      0.31900822850068455,
      -0.8073165265017961,
      1.5760624337276188,
      -0.12832349287138411,
      -0.3811832214074359,
      1.051919103274157,
      0.6774590252132607,
      -0.9303006668881562,
      0.9800055540966852,
      -0.9881620284137922,
      1.0551479400108543,
      3.075693208648236,
      1.1714380927412935,
      0.8702504810214474,
      -0.056117571932920884,
      1.0859480775870476,
      -0.6936107785142296,
      -0.03733308735977159,
      0.9960288987289263,
      -0.19226040718143322,
      -0.17351329129641685,
      1.6306714847849013,
      0.35730958562060267,
      0.1609102402843549,
      0.8896936740172449,
      -0.4851455558974276,
      -0.37025712634469055,
      0.2799138042084618,
      2.3250203583990743,
      0.2205001005772642,
      -1.1402959687098497,
      -2.1571246967928848,
      -1.5244356378470174,
      0.5861134875800309,
      -0.3239671948670394,
      0.9856671525789635,
      1.1907485565427933,
      0.9248670436697642,
      -0.5877401696776324,
      -1.0055870212000606,
      1.6149809448049055,
      -1.4305163274317994,
      -0.5715874218880451,
      -0.6784167814152,
      -0.5178924997432175,
      -1.0579441645926142,
      0.24046726266474666,
      -0.42790565590395047,
      -0.8681758403636732,
      -1.9971697394837218,
      -0.3496159467471335,
      -0.26082819710179084,
      2.1408552577744944,
      -1.726252303595182,
      0.09884564191671408,
      0.1430408599960551,
      -0.4151235233183248,
      -1.0306178707289,
      -1.4013546319864751,
      0.0308856121859582,
      0.19907862508791063,
      0.7122292190322455,
      -0.2514896811207289,
      -0.4886090126368603,
      -1.1662663661162345,
      -0.6521520388530228,
      1.9335262941460893,
      -0.20815268476268517,
      0.5871951086589444,
      -0.9102233073241663,
      1.3704965839580256,
      0.016324300593879237,
      -1.0974427002810678,
      -0.06830613661673657,
      -1.641350428642425,
      -0.013748235995073355,
      0.5913976342818268,
      -1.6073294413723613,
      -1.6245523366329147,
      0.7803696437338129,
      1.8855315195031963,
      0.36969082782596563,
      -1.3918068547650408,
      -0.26118203485752556,
      -0.060465895121154634,
      0.16613878475998733,
      0.3281032804548316,
      0.5140991290593817,
      -0.27727690751098777,
      -0.7925955346863818,
      -0.9525910818909274,
      0.882543918682813,
      0.9220456017822315,
      0.9397089033845215,
      0.3341040723047227,
      0.9169517783295147,
      0.9147995746217127,
      0.6335711657271896,
      0.1169807236553253,
      -0.34725194912897495,
      -0.25643019892272745,
      1.367180812397422,
      -1.3053619611364795,
      1.8446711375751548,
      2.6661380398602756,
      -1.5803622145224163,
      -0.4274963164047988,
      -0.8228935275857081,
      -1.4143804412784065,
      0.45053104992721504,
      -1.1506072276333275,
      1.3516962708075244,
      -0.8438866071029634,
      -0.604124899756564,
      2.024752528399553,
      -0.4928829384793429,
      0.1509860207780911,
      -0.03961268427534814,
      0.3374561747792677,
      -0.8110374081829619,
      -0.32151338820829445,
      0.8082502142864928,
      0.2734596328480521,
      0.9821197268754627,
      -1.1624343320739046,
      -1.3222667629784999,
      0.8338041594874213,
      -1.1130619758749125,
      -0.9323963231545552,
      0.47263036887570853,
      -1.2902621906752296,
      3.098948086096218,
      -0.30275788593031455,
      1.2728525559932131,
      -0.05721417518764049,
      0.4810251010692826,
      -0.8085878511303646,
      -0.9213969763716109,
      0.4741875874122712,
      -0.09517317274341297,
      -1.8904555110305599,
      -0.19541388832575907,
      -0.1191349710810945,
      -0.6359505932319307,
      -0.331406786680822,
      0.5374706749262376,
      1.1989563214811285,
      -0.28437714565633865,
      0.5285724535776857,
      -0.5843895983343588,
      -0.9596522178325562,
      -0.09560568305029948,
      -1.3773210393862994,
      1.462103785234693,
      -1.8281546949285006,
      0.04981551976562848,
      -1.1296409959855087,
      1.1899019342844375,
      0.11390762337595073,
      -0.5271670775061252,
      0.46252552044993067,
      -1.2991890455050283,
      -1.9103435508375508,
      -0.38010451923825517,
      0.705441399326884,
      -0.029199248259324406,
      1.197141096142476,
      -0.07744482862098956,
      1.389611181642398,
      0.08878177498023526,
      -0.3895794534545475,
      -1.05982336839209,
      -1.1316779050715273,
      0.6219986404425712,
      -0.19663230959164513,
      0.9762994495878918,
      -0.7340295699500515,
      0.04577611834699569,
      -0.825600617381359,
      -1.179820380101646,
      -0.44062393038549674,
      1.719799714112203,
      -0.025364316136058385,
      -0.22062379057983833,
      -0.3196347227425699,
      0.42780114299693395,
      -0.5136563957987644,
      1.1458794518674191,
      0.7724127170981954,
      -0.9078280504816313,
      2.750637704460614,
      0.34047402279239414,
      -0.2584221249679669,
      0.7866975336640349,
      0.03041820124090655,
      1.2504500608143416,
      -1.536016572766116,
      0.5649671569561234,
      0.5202938934158967,
      1.9187940403374153,
      0.8487664854185256,
      -0.2214377739807019,
      -1.3378577726978143,
      -0.13613382817660724,
      -0.301408568975832,
      -0.44203012834575617,
      -0.327679089750069,
      1.450435657944893,
      -0.9074092863750954,
      1.2973500440993728,
      -0.7846722203285916,
      0.9793462215419139,
      -1.0281738340813067,
      0.7265120101854944,
      -0.2712041538148301,
      0.1707324562637479,
      -1.0611774085436974,
      -0.1513717831344224,
      1.424653339896373,
      0.08775393719349905,
      0.46523431096498125,
      0.9544438338436853,
      -0.7136428474160406,
      -0.4228583316994588,
      1.2013494716781645,
      0.8466465919087746,
      1.382204037713067,
      0.7689828726231496,
      -0.8748447892956948,
      -1.4299371715621652,
      -1.8252255031405187,
      -0.8732983755984538,
      0.8170586544929224,
      0.17226282456703768,
      1.084287841053127,
      -0.006166228936327123,
      -2.085220410013435,
      0.9839608927065079,
      -0.36884688431173696,
      -0.9254760711098016,
      0.12704639691775654,
      -1.223708320115056,
      -0.8148159587849924,
      -1.3099399793901274,
      0.540979610187531,
      0.5911744736656419,
      0.33356217904803476,
      -1.8332986707059657,
      1.4623130672662628,
      -0.7379779421422658,
      -0.35937916552409366,
      -0.7874829057616437,
      0.05910780445926633,
      -0.41224176726343204,
      0.03890306202015831,
      0.7090810563603676,
      -0.6641825089288627,
      -1.2300161750703476,
      0.4615488889052114,
      0.7503255509560641,
      -1.8349319808864766,
      -0.470797971489458,
      -0.2759140398545895,
      -0.7769253121759107,
      0.4426449553164771,
      -0.6608976135855071,
      -1.0509383994279682,
      -0.24722123927140371,
      -0.09046044010541887,
      1.182866721186205,
      -0.7758960463194242,
      -0.00757735365922968,
      -0.21842975287820454,
      0.414338754103464,
      -0.45087232882903217,
      1.5573588061517716,
      0.0871095590435001,
      -0.28549243013675096,
      0.655366705370146,
      1.2546155200808413,
      -1.0381111902141233,
      -1.4929719771444347,
      -2.2960248501761815,
      -1.0559677935437526,
      -0.8872545694124729,
      0.23885583850712433,
      0.7319096616152838,
      -1.6936723466159571,
      -1.0300646415014443,
      -0.0961416110722195,
      0.32908480862908845,
      0.570208611453362,
      1.3790353331525829,
      1.6840046655608307,
      -1.8963612669175336,
      0.4397031543853913,
      -0.5295215072881371,
      -0.8744947482143856,
      -1.0042370336038164,
      0.06467430321468248,
      1.5453900400101355,
      0.058907569010354655,
      0.8615389122411798,
      1.2901274671002456,
      0.0877204067765435,
      0.15240835561823424,
      -0.5913899905413522,
      -0.788528946337754,
      -0.6677530858208761,
      -1.1049221126105622,
      0.7810508593659717,
      0.3349433971836676,
      1.2794449919905342,
      1.1252654515670808,
      -1.3938231504399572,
      0.0843272764550875,
      0.690391257257991,
      -0.8635563069998442,
      -0.37466425104807066,
      -1.335622024659539,
      -0.6849056103722606,
      -0.2707134163847564,
      0.20004108632943968,
      0.03277318023497244,
      1.7657554789548968,
      -0.14297035960646598,
      -0.3696268018464053,
      0.8689046630145933,
      -0.09526973829636587,
      0.6651898484327186,
      -0.24997984857731792,
      -0.11878001728931187,
      -0.4861977874888427,
      -0.8271668097816045,
      1.8455007852028826,
      0.32111906297243864,
      -0.0871262201091498,
      -0.3570657575106273,
      1.2931626324943044,
      -0.5935641043763429,
      1.7025705939357443,
      -0.42818698668721333,
      0.19904186906036697,
      -0.18089536243450555,
      0.8363141069496536,
      -1.2771511914634155,
      -0.40054391598513206,
      1.2195095439086439,
      -0.7685128583785118,
      1.131397942339087,
      -0.30523809159306875,
      1.4712370001124246,
      -0.08694802011702252,
      -0.09654484197476909,
      0.4152020228886668,
      0.3225115909495102,
      -1.6229390389511302,
      -0.4335055241394111,
      0.3773675249877237,
      -0.876713784359395,
      0.9994188155016308,
      -0.3370519658206038,
      0.19253620487984124,
      1.0526368459233524,
      -0.8447580585664245,
      1.7835728163047428,
      1.0579614893251876,
      -0.32326902223684706,
      -1.3988929044650886,
      -0.5253050165290161,
      -0.06757954071285877,
      1.2576054178108236,
      -0.7091583859176984,
      1.330350609312691,
      -0.014374452185685449,
      -1.1002665719881841,
      1.422189686666726,
      0.2755782438590356,
      0.09340235878060862,
      1.1346721798484227,
      1.698681279822441,
      -0.18793617648276528,
      0.13284244440484927,
      1.3219819667794255,
      0.0648894542623421,
      0.9052089123980624,
      1.4594872821601426,
      0.37784312118766605,
      -0.463167018536579,
      -0.6935759508154964,
      -0.2714420614611343,
      -1.1109498575892487,
      -1.3751105737940001,
      -1.9658133312961468,
      -0.2814936317153055,
      -0.6735504219226133,
      -0.34913447735405556,
      0.809947768407808,
      0.7690330527654601,
      -0.23535890300336648,
      1.784031311057281,
      0.3940310959962512,
      0.34361696052257085,
      0.5796491857341282,
      1.4982780526826573,
      -0.21909093181281084,
      0.6502365169766705,
      0.14328139327624845,
      1.342785566541538,
      0.7148754921877674,
      0.7821132642059249,
      -0.46674828629513665,
      0.12239723102834571,
      1.4859016935885896,
      1.280949578287427,
      -0.16998323609572452,
      0.12171157265161792,
      0.08488916305708338,
      0.22540934188801398,
      1.1927950603270876,
      0.5328005582199591,
      0.22900481532534656,
      1.1128147172365375,
      0.6443031459663151,
      -0.7953903426823201,
      1.3840373305323803,
      -1.5245905801090052,
      1.8502827613446868,
      1.5836439757641891,
      0.6945408031463347,
      0.2214570919383405,
      -0.10045336773560742,
      -1.4990604904565181,
      1.5620673457299734,
      0.5199266397665168,
      -0.515063435907678,
      -0.5206042096721142,
      1.0279742200423936,
      0.12627352128501101,
      0.2883894444303739,
      -1.0121947353352496,
      -0.39250311318993575,
      1.1486897141436607,
      -0.6146170369973877,
      0.32324253529582525,
      0.6559551209359933,
      -1.1048107660265432,
      -0.801898003372869,
      -0.3692771542442359,
      -1.0301541323906214,
      0.9117247251330483,
      0.21777834389170714,
      -0.5377351574439215,
      0.2138525826300013,
      0.5056289415615052,
      1.5679697020011387,
      0.6070197469991595,
      -0.21803999447543176,
      -0.5848253382275009,
      1.2816694483785365,
      0.18828273994815414,
      1.428240459941641,
      2.377911183949577,
      -0.5585476478412268,
      1.005580301251822,
      0.6397207172552105,
      -0.5765699753734114,
      -1.4099808509762513,
      -1.200957744899879,
      -0.9660491198360077,
      -0.22782433729861318,
      -2.230983921599304,
      -2.3383976324390456,
      1.326560581514821,
      0.4445031697278198,
      -0.6969535473413448,
      0.6472164633161936,
      1.4334218093579931,
      -1.0137711742615796,
      -1.5877563902989402,
      -0.9587854605624077,
      1.9626396251242295,
      0.7301873631789908,
      0.9394341496357184,
      -2.073051166487886,
      0.5591552506565662,
      -1.2345318536389058,
      -1.0197018433679643,
      0.19317396203457635,
      0.1322466069988476,
      0.2845599478636291,
      2.0511824877688736,
      -0.055928208658648115,
      0.45849742863027343,
      1.1300211414012444,
      1.1685844708169564,
      -0.21466768265216343,
      1.3030617916350418,
      -0.261167408751959,
      -0.0080226178011297,
      -0.7278714540651192,
      0.00652161747775723,
      0.7079425044005483,
      -0.23853019746714776,
      0.8788764597773191,
      0.7860983109960089,
      -0.022325408327628915,
      -0.6373652578342008,
      -0.08002038622927932,
      0.04983611282221245,
      0.4749216490114181,
      -0.016485378840798426,
      0.12732399662143495,
      1.5576398582127733,
      1.0917305398436548,
      -0.36185452545338,
      0.7572434547175151,
      0.677351100080994,
      0.06794083125936579,
      0.6711189919389547,
      0.8227474312847578,
      -0.042897826041001286,
      0.5663126676514896,
      0.23488153903456083,
      -1.4811754290929762,
      -0.37216942025188043,
      0.5385326228651639,
      0.20428277274269696,
      -0.5613727070754059,
      0.30522887035558455,
      0.44432223127769677,
      -0.31395921590773096,
      1.6438558946314237,
      1.607058056718733,
      -0.6094721476927911,
      0.36162913891517245,
      -0.10999754233321113,
      0.09559218999999008,
      1.3392633248749237,
      0.05220086666595958,
      1.9056951542889642,
      -1.342345698452394,
      -0.6580678107057971,
      -0.9609672015922601,
      -0.3087838359550177,
      -0.14114202626021033,
      0.7276437165209197,
      0.2872785901970667,
      0.07290684845032327,
      -0.967208701631328,
      1.9257205262639991,
      0.5045468356894408,
      -0.23983458787026485,
      -1.2271721855782822,
      -1.1864430386562526,
      0.25233722436918793,
      -1.130121563037378,
      0.7410670695477748,
      -0.6480382878482529,
      -0.31927654558493856,
      -0.9464391894550747,
      -1.440045166636712,
      0.08136077919633777,
      0.22354617618838502,
      0.9024643453071357,
      0.401438460959902,
      -0.13438887375065933,
      0.22036592159445656,
      0.6533937708826361,
      -0.10911201567351003,
      0.03201108726444768,
      1.7162667135646963,
      -1.5394090867512635,
      0.561710950796187,
      0.5541452453143858,
      0.805647967938199,
      -1.6716285650999048,
      0.9944391841131159,
      -1.6512412851278775,
      -0.08714014310472024,
      -0.3946496181605602,
      0.04270812411219155,
      -2.6503566634108324,
      0.7213514913302392,
      0.8486985483075331,
      0.3439787700603345,
      -0.4371115083818953,
      1.0737855721468046,
      0.7074821817304429,
      1.6422991465364003,
      -0.5880253831400164,
      -0.29823725967013814,
      -0.0043095698742360855,
      0.7070232940596854,
      0.6057232598515461,
      0.9649899780228808,
      0.38819336012318545,
      0.17791111439380686,
      1.9596434133657157,
      -0.40114213690638845,
      -1.544898895080354,
      0.6407642651454716,
      0.1368350993706305,
      0.7638620828004543,
      0.28744404868074724,
      -1.9145857281612226,
      0.11519772312701348,
      -1.705261861742486,
      -1.6078511997447866,
      -1.8596512305044306,
      -1.2828846065960482,
      0.7185022020875442,
      0.33625252370563696,
      0.751306796872724,
      1.0773430356574432,
      -0.23932072097131707,
      0.8675345315618266,
      0.6413754891499501,
      -1.7757728485671582,
      -1.7090267751635486,
      -0.2621622021056985,
      0.3540459545484705,
      0.047613237474316145,
      -0.3183718538392205,
      0.25351098859308696,
      0.051229875409717074,
      0.8931749783929706,
      0.22187351718154752,
      -1.3773045866998848,
      0.7894331866378032,
      1.8156772826362644,
      0.22884317231841345,
      0.9433112822340898,
      1.933730681247157,
      0.33297871810709934,
      -1.071598177167381,
      0.9295862369479828,
      0.9719604978482759,
      1.0084301832168934,
      -1.41383341969398,
      0.5698519809918823,
      -0.1632534780667534,
      0.10441410198831665,
      -0.4114742145573408,
      -0.2125909025702919,
      0.4674030042546995,
      -0.6176214434960385,
      -0.11200270267930268,
      -0.42042259395174586,
      -0.27202436022222276,
      -0.39395122271881367,
      0.1791199529431537,
      -1.3323984510116365,
      0.5195513613983443,
      0.8728271986896282,
      -0.05340718085815932,
      -0.5377071268146242,
      -2.1831953896119805,
      -1.5604378664437757,
      -1.5570088410648546,
      0.9818598659823985,
      1.19936376129887,
      -1.595756261420635,
      -0.4731917097856374,
      2.0714557952182826,
      1.5086627949993847,
      1.746035362362583,
      0.3292940978987694,
      -0.7057633510054251,
      0.6115006278896156,
      0.15746225195337563,
      -2.6732619169175598,
      0.989696751027147,
      -0.3769962472014148,
      1.176156108606562,
      1.2650288528536353,
      -0.2989135399479933,
      -0.9883818723235844,
      0.566431361482779,
      2.243926904404129,
      0.9557120459152281,
      1.2070715575806725,
      0.53444138510337,
      0.18377842446482423,
      -0.10948027833035134,
      -0.7598409073636152,
      0.026068041619315307,
      0.14374451887804707,
      -0.4895750931163325,
      0.38793899193503734,
      0.04761599811363976,
      0.3746199452950123,
      -1.0637138721311878,
      0.9342673878538656,
      -0.6952279116316668,
      1.5564764678403216,
      0.7145657608360922,
      0.3425856499476057,
      -0.5884119734226377,
      -1.9973717915315248,
      -0.2736968219066743,
      1.1322502061813005,
      1.0325744242637862,
      -0.8865203637869802,
      -0.5583975168319567,
      1.522210293313314,
      1.208517781816414,
      0.3737920830920196,
      -0.5914617770851999,
      -0.8811725102010972,
      -0.4499598583218106,
      1.2047988980921909,
      -1.9608869049326212,
      0.34780785637239076,
      -0.4702340899754598,
      -1.1105855554640005,
      -1.1576636259274204,
      -1.6117988364940437,
      0.6801714265443034,
      -1.1677785275228554,
      0.30109024713764954,
      -2.187258877220297,
      -0.1336425810991162,
      0.4779156049022623,
      -1.0534609409797586,
      0.7263532159694082,
      0.5329716732690928,
      -0.7143029533968333,
      0.325883943781775,
      -1.8342414867911492,
      0.0015670987346605436,
      1.8766647998754493,
      -0.5447655653324596,
      -0.7951801590091873,
      0.27419330576225504,
      -0.782613043646427,
      -0.10534113380984866,
      -0.9044531586970089,
      -0.7008257709238104,
      -0.29215981890479326,
      -1.0964069627499506,
      1.063822041577522,
      -1.3372339148804873,
      -0.21104001885676282,
      -0.4151090644371116,
      -0.8542975156487267,
      -1.6058185599697046,
      -0.9845096850018523,
      -0.5327912533772057,
      -0.7213757934328,
      0.2051756649012218,
      -1.2378326396006751,
      -1.0380200633162229,
      -0.02876928383432742,
      0.41291756369708976,
      0.7023829893835494,
      0.8549618119761614,
      0.22844431099834073,
      -0.8752310052115394,
      0.5163850006380653,
      -0.4365530370522484,
      0.6936215798887555,
      2.0364676863877196,
      -0.53689032011569,
      0.9685687780906416,
      -0.7449635770808957,
      0.6702433696238259,
      -0.6872054201459841,
      0.15453219789744566,
      0.7337490879595038,
      -0.9294267019973943,
      1.0390670228408543,
      0.585132290656254,
      -0.3845150939185676,
      0.27787964232706064,
      -0.32001820893376287,
      -0.680185600629661,
      0.4960281107110761,
      -0.014977969034895011,
      0.04471904647306579,
      0.42660648885949526,
      0.9217222930150364,
      -0.6015243294221423,
      -1.5951939334663987,
      -0.36800348147531664,
      -0.7367197593061703,
      0.04048853578937535,
      1.8235459249927692,
      -1.3872459916290563,
      -0.04895481825137349,
      1.1365872357231637,
      -0.9025980596477939,
      -2.2490406786636887,
      -0.7730483144855704,
      0.305255314029064,
      -0.27708559898348883,
      -0.874100284248156,
      -1.2222998711896493,
      0.793489145534667,
      -0.9579468069017691,
      -0.4843498043984793,
      -0.41361813809687975,
      0.08007699706302163,
      -1.2145904726550965,
      0.02230704368430536,
      -0.43221300291853587,
      -0.20313071496651036,
      0.9186580081002513,
      -1.1602610396749211,
      -1.34832166681591,
      1.0275655229779186,
      0.7474553964295765,
      -0.07942733536576707,
      -0.23711505821278,
      -1.6066385501195082,
      0.7914734731536107,
      -1.1990350298038095,
      0.29178048847807636,
      -1.3347652160194556,
      -1.0350206481703506,
      0.4280290236479445,
      0.9381839333372102,
      -0.9540030942480914,
      -0.20997337372643426,
      1.0345204719212475,
      0.8893108687418103,
      -1.608503188379573,
      0.5185471355812862,
      0.8480896032701601,
      -1.5978520596681385,
      -1.6649806793925954,
      -0.19120918036743567,
      -0.6964342536193162,
      -0.5212127464857136,
      -2.88810782895231,
      0.41534364775893423,
      0.7855141798417709,
      -1.2011238156896002,
      0.11386039209362236,
      0.7328661417990139,
      -1.7779138130133798,
      0.03643153652319153,
      -2.9495221784254126,
      0.30849942676357023,
      -1.1046214284735218,
      -0.6892335921130477,
      -0.023800303844400794,
      -0.4916767014365462,
      0.7513442435154571,
      -0.19636091504031628,
      -0.7168409283267083,
      -1.4630290357298419,
      -0.31651699368207886,
      1.7681946511504694,
      -1.05772716025661,
      0.4460628548056532,
      -0.13291493383967679,
      -1.1185343410825892,
      0.2614458497877008,
      0.37248032003035814,
      1.1628789555714287,
      -0.8417516625339136,
      0.3721509098368918,
      0.035045805347557746,
      -0.3916075964648903,
      0.04293947731700265,
      1.7009889929844442,
      -0.9941127006101613,
      -0.6556812938959142,
      -0.714912591254404,
      -0.11064359565199688,
      -0.06356808585574197,
      -0.49228729205570676,
      0.3030883853123979,
      -0.2777698891453779,
      0.3328893921894525,
      2.0091023969629953,
      -1.3459696421759872,
      0.03975709141509959,
      -0.2560429684428203,
      0.37142287924628276,
      1.0717985710458273,
      1.2305896730352908,
      -1.2932529411694282,
      -0.08799108182865234,
      -2.1561401071315207,
      -0.7215634145378933,
      2.3656965405176926,
      0.5877707292569705,
      0.34754911049655807,
      -1.7806492681099204,
      -0.25143196976694737,
      -0.6763295589396952,
      -0.16838764996018796,
      -1.2717504957368886,
      -0.5684234163167552,
      -0.5743278653683459,
      -1.1242417980153725,
      -0.691105243994257,
      -0.8234323760595712,
      -2.0208495788048153,
      0.08760374194315038,
      -0.16456479021509884,
      0.3479064635365665,
      0.5974375809655212,
      -0.6459854301733763,
      -0.6927261026611052,
      -0.8442648427634463,
      -1.537388813468099,
      0.19997953398577972,
      -0.030638331081718484,
      -0.35283068860738354,
      -1.3842632295578714,
      -1.9824653142285609,
      -1.0664030462535816,
      0.5577863682905942,
      -0.116556309614292,
      1.0099109062571952,
      0.7117591909974404,
      -1.3947060825890567,
      -0.666631658005834,
      0.6833818538597203,
      0.9917037949525485,
      -0.14081168441951064,
      1.978486369609449,
      -0.9459071522049008,
      -0.8770898576740699,
      0.8127962258113182,
      -1.2872259837312012,
      0.7703860193311416,
      -0.15841759799887,
      1.6748164810772312,
      -0.9026411995066819,
      0.11270024306493376,
      -0.5060605283046886,
      0.06106642288603892,
      -0.5608032467427772,
      1.6901046965000255,
      1.1025693484516987,
      -0.4285724685265893,
      1.3399161536889075,
      -0.6674276522692556,
      0.8064288011709633,
      2.05937663937847,
      -0.9259716288933625,
      -0.8940312687907409,
      0.3083005616829393,
      -1.211835402420722,
      0.3839347604590159,
      0.41220835184492655,
      0.09902058114355253,
      1.2139776748226332,
      1.134601199454967,
      1.627238370224445,
      -1.469018919601739,
      -1.3895169673991812,
      -0.4813132334310737,
      0.5830375816021153,
      0.5354365398204435,
      -0.358082342077099,
      0.33242846885266286,
      0.19212981784208494,
      -0.8530348442938902,
      0.641434052028158,
      -1.3579726773569296,
      0.20662652506535067,
      0.3719062498110719,
      1.5083041322549067,
      -1.613551665775499,
      0.12180822423906601,
      1.0113624155473078,
      0.45662770535840164,
      -0.904143529815904,
      0.5770633812399845,
      0.23874317437760006,
      0.127876532849538,
      -0.23669504286637738,
      0.7819413390391043,
      0.6077250544843903,
      -0.07384147829190402,
      -0.8070672538231938,
      0.24664009368959028,
      0.9382703465691895,
      0.5136273581880189,
      -0.5313487396398462,
      -1.1870495453035124,
      -1.326724332343979,
      -1.2883115837758585,
      -0.19635322470610017,
      1.1853582315019207,
      -1.6256153532012845,
      0.5274936495537894,
      2.145712824275238,
      0.10764776489634054,
      0.09413259598239787,
      -0.23216119053082657,
      0.11937020339466042,
      -0.6946928269029311,
      0.14952188347521655,
      -0.8144798717375716,
      -1.0199913844798378,
      0.6708691994087888,
      0.6111964351496364,
      0.18162397589385693,
      1.087446189558295,
      -0.2816651383411098,
      -1.3392321789585133,
      -0.2562385333742021,
      -0.575110500493474,
      -1.821339873399705,
      -0.04602980628566988,
      0.4138650652311363,
      -0.007383119002879357,
      0.8447889525400161,
      0.48583171047192764,
      0.7168397060772167,
      1.2077196880621495,
      -2.1387174318503854,
      -0.13031733906231607,
      -0.11900524928269174,
      0.13694225124290726,
      0.04969677309135481,
      -1.0071990412864669,
      -0.5815165807029852,
      2.087271414697547,
      3.263655941953747,
      0.29991220521170064,
      1.6551346222378287,
      -0.808813718882751,
      0.9692211964667145,
      -0.4294722434983772,
      -0.9033488794017297,
      0.03457544027125614,
      0.4197939333349554,
      -0.23448095378723133,
      -1.1645180502830972,
      0.11898369638877693,
      0.024201713393556867,
      -0.9852281740887687,
      -1.3685893461307939,
      -0.3285606360094152,
      -0.03132928235933652,
      -0.3573238202961182,
      -0.5091487922391572,
      0.20185851946694047,
      -0.18569711334053873,
      0.7779340985866439,
      1.7816794946393948,
      -1.128761612793444,
      -0.27362161940147367,
      0.1231159627452294,
      -0.39739779828189575,
      1.1802072198622886,
      -0.9243864480363869,
      0.4440208794028862,
      -1.8035215071073427,
      0.12392478662420511,
      0.46440378627799894,
      0.6017829163649538,
      1.1147234126019363,
      -0.7709140126592673,
      0.9950749154570881,
      0.9150246081916336,
      2.410630732434838,
      0.8708217680578914,
      -1.0982786254876549,
      -0.34310919468390255,
      1.1360159071582447,
      -0.6210924562610716,
      -0.64489901302444,
      0.42572957376273124,
      0.04066957392436499,
      1.4069643211893914,
      -1.0804070082892079,
      -0.13144678543873933,
      -0.2913396655676893,
      0.08872699878766432,
      1.3522086354001672,
      -0.279045686729009,
      1.1176932402136242,
      -0.5597803140158989,
      0.6574219241061147,
      0.309304139420353,
      -1.6681433377676997,
      -2.148222705770446,
      0.1874295881881695,
      -1.179645433644687,
      -1.4673039180799614,
      0.15953471918260423,
      -0.518168732791534,
      -0.6290274973691043,
      0.6999622863495981,
      0.43929664250580175,
      -1.4830884602785366,
      -0.8732230728760729,
      -0.0387127802533167,
      -0.5966757062339978,
      -1.1540879268760662,
      -0.9832829732330456,
      -0.9260660385938237,
      1.1360287226057815,
      1.4139650799746846,
      0.8197734047903797,
      -0.6905428067686077,
      0.5549017859982321,
      -0.250493642785119,
      0.30192951607023677,
      -0.6038149087196534,
      -0.7282295118407742,
      -1.6707327726116628,
      -0.613040539614973,
      1.1030064023199873,
      0.015537175609303677,
      -2.2143792590607108,
      -0.23976578921557945,
      0.09428190138833226,
      0.7499100727185869,
      -0.2822253621525841,
      -1.7414994068625878,
      -1.0009848295336612,
      -0.5149418897353373,
      0.977905662173697,
      1.0902756938433285,
      -0.7772587918700324,
      -0.40269269647978645,
      -1.4976052773862953,
      -1.1216341667746674,
      1.3236602469389946,
      -1.8356872383350908,
      1.810497487486851,
      -0.8864572120054834,
      -0.0037250294232715753,
      -0.2631038450952685,
      0.08283939192268475,
      -1.6265219950403071,
      0.5375213257865468,
      -0.9198041775921448,
      -0.6820322166922255,
      0.6008818615762659,
      0.7151674881600103,
      -2.0996400936594863,
      -0.8149111304849433,
      -0.4256052204766668,
      -0.3020816511432427,
      -1.764632361370524,
      0.2522873521691816,
      -0.4323313577105384,
      1.3079293769707685,
      -0.8175020492366711,
      1.7249027931527063,
      -2.3593915504076834,
      0.5112679671324472,
      -1.558599301407421,
      0.06324605129347216,
      -0.20377475799924794,
      -0.3919433691970724,
      -0.7533358964320018,
      0.5489569437128496,
      -1.516271737479257,
      -0.4456099212661138,
      -0.023574159568111985,
      0.7708078107307259,
      1.0633610514096286,
      1.4240087821165213,
      -0.8449172645196396,
      -0.10917864661185966,
      -1.163594870625717,
      -1.666088533223797,
      -0.6249068435294647,
      1.7283299607309637,
      -0.5298764412131973,
      2.5291206102217796,
      0.29128621779466435,
      -0.4868837122526254,
      -0.7745635544282328,
      -1.1008562154719057,
      0.48702653589475053,
      -0.2877973640581961,
      -0.5861612932570877,
      1.4179008445895342,
      0.7962194287922744,
      -0.4712876551686729,
      1.621840594626058,
      1.1321567230443286,
      -1.1201028641081834,
      0.9339830353387292,
      -1.2805218534461393,
      -0.856187219157706,
      0.28321856086072184,
      -0.21683731877737622,
      0.6830066462803264,
      -2.3939105786547477,
      -0.0771917659456684,
      -0.7286739310286311,
      -0.9346881708691726,
      -0.900701476467788,
      -0.07928932061571836,
      -1.2938623378956597,
      -1.6158364472746927,
      0.3720612707762941,
      0.05824368104119926,
      -1.3158266849360416,
      1.0716797317599571,
      0.9758012733112948,
      -0.9392158303099357,
      2.3697643347532606,
      -1.4262854786003976,
      0.199770233903255,
      0.2224252806956523,
      -0.6326221881847499,
      -0.9085091602661917,
      1.2038983970034018,
      0.604683224832453,
      0.16047425926472625,
      -0.5948018223479821,
      -0.8103081900096534,
      0.4425845490006315,
      0.086749794800349,
      0.22687538203680685,
      0.31490601020259273,
      -1.9952786293263665,
      1.2184020363679786,
      0.4041632350462654,
      -1.3945071459329457,
      0.16224226621339,
      -3.3826423162119,
      -0.13611796136786705,
      -1.7185757313397159,
      0.419560301099265,
      0.6466878997925046,
      -1.0221434855141036,
      -0.22306588783381542,
      1.4372729592412834,
      -1.5023622598239559,
      0.823336746723016,
      0.2730390851975726,
      -0.029093311363270757,
      0.38983817855195424,
      -0.1711545626299032,
      1.5173561090340524,
      -0.24536676275496583,
      0.5835381611322816,
      0.019895105867653307,
      0.6146742309175464,
      0.26538020740813145,
      -0.03698500201750665,
      -1.6960387945992292,
      0.39473009748906873,
      -0.328624467709852,
      -0.131157877696908,
      1.6042871146175908,
      2.4993444737186543,
      0.9483902724513402,
      -0.5874604340687845,
      -0.5718636211208272,
      0.3883313204312423,
      -0.6897147436515472,
      -0.09899114628835248,
      0.38305641490481673,
      1.3805479412116632,
      0.7843216222278286,
      0.671559633115415,
      -0.7600387451326159,
      -1.5431806128346248,
      -2.1719920847622283,
      -0.2726598325391645,
      0.4594668976309163,
      -0.12836460430897045,
      0.32686569390058706,
      0.37037041490072964,
      0.6097888413526903,
      -0.7994330563039703,
      -0.10253486120283739,
      -0.25408778813995614,
      -1.2737492908180843,
      0.008003176961517311,
      1.5615392006226125,
      -0.27635166890890495,
      2.602003064674136,
      1.7131362395460017,
      -0.09494416101132813,
      0.3738044013210876,
      -0.3085825012419366,
      1.8110403758976323,
      -0.18072253456714127,
      -0.27479281519332954,
      1.2259266664261521,
      0.3029119344576501,
      -0.16899447537783963,
      -1.7313602843621874,
      -1.3157998023739517,
      2.1503838807191564,
      0.04890581907691427,
      1.1682654536398653,
      0.9390961133088291,
      -0.04286932978103475,
      -0.4691628055962943,
      -0.4925436574903539,
      -0.5451613574453313,
      -0.05826457368021187,
      -1.7350082410320322,
      0.510154407977069,
      1.4447155728705965,
      -1.4030164819041808,
      0.1009756517204552,
      -1.2211303361529962,
      0.9138182279017738,
      -1.8183573094573413,
      0.7907060649371267,
      -0.5152979549844913,
      0.7277230250636568,
      0.30582860017860103,
      0.8294196845060624,
      0.5184822776471165,
      -0.9456587219541573,
      0.972059800012687,
      2.1524097265905704,
      0.22755606189631017,
      0.011470457460175387,
      -1.2321595274898622,
      0.31331603366151617,
      -0.29217517078198063,
      -0.8892409913908618,
      -0.18717470134366643,
      0.7118895003380157,
      0.6469012911922292,
      0.3938255947943317,
      -0.5138886358805839,
      0.8812032411792405,
      -0.7392873578193137,
      0.6154823870475635,
      -1.1144449409407478,
      0.1276730970421056,
      2.8694695893773643,
      0.9467384830493142,
      -1.059457851781791,
      -0.7492525057692262,
      0.7429793355560941,
      -0.32283435483965117,
      -2.590761922483125,
      -0.7532123060701466,
      0.01887236417826954,
      1.446182312730089,
      0.21935307591433528,
      -1.853927864478493,
      -0.2488271997720709,
      -0.07859390328786547,
      0.4242688741421832,
      0.8346390858341831,
      -0.5063368562175983,
      -2.0153885469500255,
      0.844366261350823,
      -0.6827510271357469,
      -0.2973418561407968,
      -1.2137546697401338,
      1.204556179958221,
      -1.5882998516457225,
      -0.3033318921680289,
      -0.107017370541094,
      -1.9770742684396514,
      -0.7855745677286159,
      1.726128457918925,
      -1.6387238428384743,
      -0.3691390759003488,
      2.5152329955534976,
      0.5230598667247998,
      -0.013709897371755986,
      0.8679638878958651,
      2.0789026793052665,
      -0.35242809856914825,
      -1.0511910286679584,
      0.0008750595322377652,
      -0.6545865940530684,
      -2.1762397850531054,
      -0.546816755972436,
      -0.04531290227830975,
      1.8233415379700428,
      0.2336071730838747,
      0.6149106006806477,
      -0.38357748742366027,
      1.9198045786542561,
      0.5067621544550954,
      0.5913404638870545,
      -0.49327004679696274,
      0.3125780653359539,
      -0.9094021548485618,
      -0.6079212511692178,
      0.3259877784316201,
      -0.36732406574278276,
      0.04728594596495089,
      -0.5412200394199479,
      0.39851185013535373,
      -0.19678916318328987,
      -0.9620722651374249,
      -2.8510927169660034,
      1.4618135606798015,
      -0.4581691285956244,
      0.13907503486671735,
      0.4831878245617395,
      -1.2974137573701645,
      -0.49879037289353834,
      -0.5707758831490101,
      1.2316309211612197,
      -0.8754807249644806,
      0.3983436042423274,
      -0.5071716701502403,
      -0.9108171054333316,
      1.326953211607562,
      -0.9285821211530126,
      -0.4350269114906572,
      0.9836349691220649,
      -0.4001343857531929,
      0.032827112133474584,
      1.3460084050441297,
      0.15192919376747388,
      -1.6981628308960506,
      -0.5817570993721749,
      -0.5055158600587759,
      0.777439155008838,
      -0.27449912558070777,
      -0.07728823685425401,
      -0.024989692081643478,
      -1.3390024138313854,
      0.4716950940542022,
      -0.8646565637542798,
      -0.052159445954426564,
      -0.5798277013713415,
      -1.3991532262720103,
      0.21158924882065708,
      1.792971911961927,
      1.8243674217922528,
      -0.6963275174227364,
      -1.7153611769967636,
      0.07895390167044902,
      1.333767749439584,
      -1.9668080691245438,
      -2.557602315018438,
      -1.792617414412367,
      2.091792732679467,
      -0.24124608755358212,
      0.31769560024460575,
      -0.059237176993459206,
      0.07269511572828652,
      -1.7817498222309824,
      -1.6081615186951685,
      0.6952017280012674,
      1.0997941058592484,
      0.1770578915875004,
      1.5891990333557922,
      -0.388552839378276,
      0.5875367407139518,
      -1.8897188063353292,
      -1.1042421557188442,
      -0.45691401766741446,
      0.5755301777814238,
      0.3087277253844556,
      1.7020154597202224,
      -0.1759216015056113,
      -0.6396758010681703,
      0.6802936144210694,
      0.8850743915993319,
      0.24493880106190552,
      -0.9752251807908924,
      0.9100720980396129,
      0.04237307755848502,
      -1.4311496152511967,
      1.3787969968186118,
      0.02453929527482801,
      -0.6744031926222547,
      1.624133268902348,
      -1.0501331829339544,
      1.4931576261274824,
      0.0644110683352557,
      -1.09999511639407,
      1.3341747467382319,
      0.15664068646940532,
      -0.25202195732154653,
      -0.4413521274570932,
      0.2560964319496756,
      0.9182824145089223,
      0.04596505410375634,
      0.6665871704750062,
      -0.47505589195420883,
      0.7466134574760181,
      -1.0057230219971105,
      -1.0460249848451149,
      0.3111541927438047,
      0.5356271247435679,
      -0.21423526949493343,
      -0.3797481278956554,
      -0.31854080128563056,
      1.1147971068399238,
      0.04668797804763106,
      -0.42848017778665537,
      -0.7599230382855546,
      0.9218912752917778,
      -0.3184968893459086,
      0.19542597299232112,
      -1.1290442833561594,
      -1.5249367179842572,
      -0.18775096681743209,
      0.3583253346922274,
      -0.49087190760953037,
      1.7225710112002297,
      0.2692639047804324,
      -0.20878375696306095,
      0.3739976088681979,
      -0.9942787034930717,
      -1.0152008510199244,
      0.6581028087818137,
      -1.049577749734059,
      0.032785437684830165,
      -0.3876695952466397,
      -0.35709111027744295,
      -0.5271748945095978,
      -0.44571176532426454,
      0.1106254311594887,
      -0.6985748859682114,
      2.008150384676633,
      0.8517133927703876,
      0.730800207862044,
      0.40329277723340623,
      -0.33267003592023325,
      -1.5066852651428346,
      0.39360825530224275,
      -0.5937614901645145,
      1.4300165009572208,
      -0.057415553947051334,
      0.32143669023947485,
      0.6775152043604304,
      0.4127870017744213,
      -0.9447171737558109,
      0.17647439252282782,
      0.09646986444123307,
      0.12132131019984643,
      -0.11383509674937897,
      0.8050167752406008,
      -0.41287407595644776,
      -0.4965401600841823,
      -0.7545861512659764,
      0.4058311758444826,
      -0.2555397339227268,
      0.2991580720190312,
      0.02994584904499148,
      -0.10498908358683168,
      0.9936640716383583,
      1.5670501685285287,
      1.4791530326669224,
      -0.4805338325405548,
      -0.46385668506576394,
      0.2664980784240614,
      -0.1161284049499367,
      -0.004534970055449339,
      -1.3015883622199862,
      0.4616431426454197,
      -0.1168465624953301,
      0.11983069140021363,
      0.277546121596947,
      0.7536562068590493,
      -0.28303968500012505,
      0.07317991394533674,
      -0.19067948852162853,
      0.1869722804671809,
      -0.13915739661085613,
      0.7063454657463116,
      0.05892654392312985,
      0.34569289129550307,
      0.21238372502345887,
      -1.1207312728011871,
      -0.21082626700584217,
      0.5473050132798701,
      -0.8394595354211392,
      -0.11687260323857221,
      0.7709786410459057,
      -0.4050593549383795,
      0.026316611392579042,
      1.1390887687219409,
      -0.13008813586517598,
      1.1817037048772314,
      -0.04333682707259523,
      0.09614600862582229,
      -0.609507812585108,
      -0.592558911791252,
      -0.3001736624685558,
      -2.0374304640591845,
      0.27797714941986773,
      0.44038541335147063,
      0.5309147697557877,
      -0.5771938650530526,
      0.4704802097810906,
      1.443620513129912,
      1.488621114304478,
      -0.728423526094848,
      -0.06782310103080544,
      1.7267462627180308,
      0.5709265882424207,
      -0.6053011517695952,
      -1.56906223226433,
      0.10050679392111489,
      1.7143535904189449,
      -0.4181628282734783,
      0.5860872108472113,
      1.1408801462566078,
      1.2224581388440579,
      1.1102242808302027,
      -0.9094627765658292,
      0.21146835685524223,
      0.28674899920910524,
      -0.20723186359113965,
      -0.22728076190664626,
      -0.43065366701011987,
      -1.7753653349981153,
      1.0381001995771708,
      -0.26681097724233305,
      -0.407511775848558,
      1.1545181237606976,
      -1.7588701198470227,
      -0.7520726648127014,
      0.4837431794569448,
      0.715969066925518,
      -0.9453033398627277,
      1.9642817156633814,
      1.008227336667622,
      -0.9770787217677788,
      -1.1448682073050211,
      1.341171626928087,
      0.2804545013173869,
      0.879649605829083,
      -0.40436682112347877,
      1.8202289743565583,
      0.019216037464440117,
      0.4530201781300469,
      0.6544744257737503,
      -1.7751947181347116,
      -0.27715257961639095,
      -0.7964027299493124,
      -1.883768858304324,
      1.0422723918141872,
      -0.3609760151963483,
      0.544409604282855,
      0.7849448947388147,
      -0.18906556503999195,
      -1.273856934367775,
      -0.47923496197461973,
      -1.37324341620009,
      -0.10916919199225258,
      -0.6438726099572689,
      0.7645524553021561,
      1.0726291204607277,
      -0.15020513734305618,
      -0.07645149913200378,
      -0.23438444350075105,
      0.9430893150076782,
      1.3241474762040477,
      -0.17833341469582953,
      -0.20020241158757646,
      1.1224045447450242,
      1.4844450443832153,
      -1.2252573035528544,
      0.3877701023719829,
      -1.3037058513885857,
      1.0163498652723204,
      -0.0004057821238534487,
      -0.9031310563463341,
      0.1168083353260112,
      -1.6480525703431117,
      0.3597705275066905,
      -1.5459253676730658,
      -0.07919069236553111,
      1.0540249797099297,
      0.14112493884406704,
      -0.11610676038975587,
      0.44781199413310185,
      -0.45161970558892556,
      0.8694410758495915,
      -0.676396004694457,
      -0.48445917767812957,
      0.9178049021325707,
      0.563964998825703,
      0.14031865490340423,
      1.1855454970671704,
      -0.6891801663550017,
      -1.2904074129921117,
      -0.12997130513313238,
      -1.2746517856814639,
      -0.28650792877078524,
      1.5451485828055638,
      0.018810925912271625,
      -0.28021559578699123,
      0.9292999077814729,
      -0.07282319110656554,
      2.0379555421278965,
      -0.3983157711571339,
      0.14820794521540992,
      -0.05674089859462372,
      0.13153309420484138,
      0.3981365213736596,
      -1.3148096332667456,
      -0.47360637698526276,
      -0.9632479089215811,
      0.5538036723935458,
      -0.1155440409991878,
      1.2625221840924747,
      -0.5528573799633258,
      -0.1060151384825701,
      1.3893025204105842,
      -0.670677647568068,
      -2.2038511738841713,
      -0.6700541120700796,
      -0.8522864155102676,
      0.38156657177438913,
      -0.975998307180818,
      -1.2254438841726105,
      2.1244243102218925,
      0.7235236337058745,
      -1.155271772402522,
      1.7689837916834434,
      -0.6064285671857828,
      -1.4522011066949831,
      2.282125208400836,
      -0.8732119933676155,
      0.19253772403775582,
      1.309423158101033,
      -0.683911036631978,
      -0.664456473904892,
      -0.4323570339992072,
      -1.9582394131546987,
      0.27585546736507427,
      0.462805884690482,
      0.8186024886205734,
      0.06287741174142727,
      -0.9455325868468891,
      0.8546197085930247,
      1.8320811329916031,
      -0.06260426561216809,
      1.7547051328500956,
      1.0676703576400908,
      -0.21586445789865724,
      0.1937371516775891,
      1.1928083697207725,
      0.7670509257139175,
      -1.011350135645149,
      0.14197625329617336,
      0.27793105629910025,
      0.48401844463930677,
      0.49558458163475194,
      0.026132119691304467,
      -1.4398158655643392,
      -0.5042710899770292,
      1.379544430126032,
      -0.03683827649720006,
      0.046375796786475854,
      -0.4560464641859928,
      -0.5910053564282594,
      0.12877731729227881,
      0.3172564617769713,
      -0.6873425999204512,
      1.1692406921431235,
      0.196064758789805,
      0.7461499347899175,
      1.0902983972456761,
      3.070292241302358,
      0.1965548516020546,
      0.9977331181836464,
      0.5477278113973361,
      -0.5707814806011824,
      0.10255436225361286,
      0.2640964956658004,
      -0.5364300392989297,
      0.30369665947550306,
      1.6264081583160293,
      1.3430323144405971,
      1.1223077279696274,
      1.2265159930058833,
      -0.13550327636949477,
      1.054516117351299,
      1.6185701918037343,
      -1.371074002428831,
      -0.42747500702150076,
      -0.3321548751463746,
      0.0512103118509355,
      -0.9719847314304862,
      -0.28747787397818314,
      -1.8055342106347179,
      -0.5268659689218578,
      -0.045008985288570225,
      -0.8831511685417184,
      -0.46730432003632294,
      0.6542775862492514,
      0.26008337499802275,
      -0.28826254476225177,
      1.1486468349204886,
      0.4779891433764558,
      -2.3902742520439846,
      -0.5794351424216863,
      0.6093337711099174,
      0.5790890206429764,
      0.9394149272131211,
      2.8349070721080567,
      1.6664431949245433,
      0.11329470609188619,
      0.5957450199432394,
      -0.7242737174812939,
      -1.9345728826491357,
      -0.5448708977125541,
      -0.14355586952601967,
      0.9980124615909834,
      0.5303746232272833,
      0.6773241948153041,
      -0.38926801840491154,
      0.43477585372178634,
      0.6356827804330526,
      0.7415345554899302,
      -0.2564648206849033,
      0.2702245084925796,
      -2.339526918140813,
      -1.427572375629369,
      -0.16342211900691428,
      0.2951153215261765,
      0.515701608236782,
      -1.6634353161222837,
      -0.7070577128896673,
      0.044115709437765105,
      -0.34197826146045696,
      0.3826599911473865,
      1.9343507861850995,
      1.3283252989371237,
      0.17834720848251223,
      -1.2565403787840388,
      1.843853770776732,
      2.3495320456116486,
      -0.45987865708416886,
      -1.0935776364424545,
      0.6299187930573071,
      0.8869812169547455,
      -1.3740007987157452,
      -1.2219130114683456,
      -0.5993223380600774,
      -0.6685981685941459,
      -0.38242162424034165,
      -0.31909348261496984,
      -0.31135248407212,
      -0.4499386750588177,
      -0.7833455113470973,
      1.6146747296246005,
      0.39733615944348344,
      0.11533882185443996,
      -0.42831578847558377,
      -0.2461270081673766,
      2.477375706459511,
      -1.1143314521025731,
      -0.6704702954711412,
      0.1864647236625301,
      -1.7687974629127847,
      0.3465544916177834,
      0.16849809282593345,
      -0.6953029130715298,
      -0.8254529678768852,
      -0.3050215455990117,
      -1.4824770086581247,
      0.7163930093534001,
      -0.7220300870563751,
      -1.1605860856942156,
      0.31455236830534,
      0.08921554672939053,
      -0.5474700276557292,
      -0.19739411192798328,
      1.0733771278265791,
      0.3070625171569047,
      -1.0590075011166178,
      0.3518770172748906,
      -1.3588694609862135,
      -1.6535101436610902,
      0.4666611904720824,
      1.1692048863803066,
      -0.2524232626079048,
      -1.2471866031257273,
      1.5203958573132803,
      0.22162669878277041,
      0.05067551736399167,
      1.3528917642740605,
      1.2939784457698518,
      0.0694011677675953,
      -0.3932070768864246,
      0.8818365796733707,
